tree
version=v4
num_class=1
num_tree_per_iteration=1
label_index=0
max_feature_idx=29
objective=binary sigmoid:1
feature_names=Column_0 Column_1 Column_2 Column_3 Column_4 Column_5 Column_6 Column_7 Column_8 Column_9 Column_10 Column_11 Column_12 Column_13 Column_14 Column_15 Column_16 Column_17 Column_18 Column_19 Column_20 Column_21 Column_22 Column_23 Column_24 Column_25 Column_26 Column_27 Column_28 Column_29
feature_infos=[-10.248867988586426:5.9505462646484375] [-18.417156219482422:7.3453021049499512] [-2.9282479286193848:1.7001560926437378] [-1.8417156934738159:0.73453021049499512] [-1:1] [13.656113624572754:80.416015625] [-35.350296020507812:29.456216812133789] [-20.038843154907227:13.144527435302734] [-13.441413879394531:13.17378044128418] [-20.038843154907227:13.144527435302734] [0.7552872896194458:6.2057156562805176] [1.5508522987365723:33.820556640625] [-0.53841692209243774:1.4192901849746704] [0.39318591356277466:2.8648405075073242] [7.380000114440918:316.70999145507812] [0.087939493358135223:6.5558185577392578] [-89.743560791015625:1010.987060546875] [0:1] [0.2601662278175354:2.4449565410614014] [0.00029420419014059007:0.98380690813064575] [-25.918479919433594:10.321306228637695] [-1:1] [0.10000000149011612:0.89999997615814209] [0:0.99866843223571777] [0.0013315578689798713:1] [5.6533479690551758:46.449966430664062] [0.7552872896194458:6.2057156562805176] [0:51.244338989257812] [1.3502923250198364:27.136367797851562] [0.40427911281585693:8.1246604919433594]
tree_sizes=3295

Tree=0
num_leaves=31
num_cat=0
split_feature=13 13 13 25 25 18 7 13 13 15 20 25 14 22 11 13 5 20 12 5 0 5 11 25 14 14 25 0 7 0
split_gain=40.2528 20.7365 24.0804 20.5794 13.2383 12.5365 13.5004 11.2764 14.8895 11.6497 7.61781 7.5409 7.98567 7.38569 17.0612 5.49768 3.83882 3.56755 3.54322 9.26461 2.97791 2.44341 2.44341 1.12094 2.64703 0.871583 0.84666 0.801745 0.785837 0.661758
threshold=0.47627951204776769 1.3628234863281252 1.9126516580581667 35.417751312255866 9.4311299324035662 0.81265035271644603 5.444916009902955 0.95917329192161571 0.68962433934211742 0.83422687649726879 -1.5199145674705503 23.07298564910889 74.924999237060561 0.45000000298023229 6.4335265159606942 1.3053931593894961 40.428117752075202 4.3783879280090341 0.21589179337024691 40.550767898559577 -1.0000000180025095e-35 41.808116912841804 3.2220861911773686 10.191892147064211 47.810001373291023 37.780000686645515 12.856832027435305 1.0030603408813479 1.2732281088829043 -0.5256860852241515
decision_type=2 2 2 2 2 2 2 2 2 2 2 2 2 2 2 2 2 2 2 2 2 2 2 2 2 2 2 2 2 2
left_child=20 4 5 25 7 21 11 8 9 17 13 12 18 16 29 -16 26 22 19 -7 -1 -3 -2 24 -12 -4 -6 -20 -10 -15
right_child=1 2 3 -5 10 6 -8 -9 28 -11 23 -13 -14 14 15 -17 -18 -19 27 -21 -22 -23 -24 -25 -26 -27 -28 -29 -30 -31
leaf_value=-0.86629657701018126 -0.86629657701018115 -0.91592839894969647 -0.96556022088921156 -0.80248423451651885 -0.96556022088921156 -0.76703293313115084 -1.0151920428287267 -0.76703293313115095 -1.0151920428287267 -1.0151920428287267 -1.0151920428287264 -0.93247233959620146 -0.92213237669213577 -0.96556022088921156 -0.76703293313115106 -0.91592839894969635 -0.92213237669213577 -0.91592839894969635 -0.76703293313115095 -0.96556022088921156 -0.76703293313115095 -1.0151920428287267 -0.76703293313115095 -1.0151920428287267 -0.91592839894969635 -1.0151920428287267 -1.0151920428287267 -0.81666475507066616 -0.96556022088921156 -1.0151920428287267
leaf_weight=1.0074181854724882 1.0074181854724873 1.0074181854724913 1.0074181854724864 1.4103854596614827 1.0074181854724829 1.4103854596614822 1.208901822566985 1.0074181854724873 3.8281891047954559 1.2089018225669859 2.0148363709449835 1.813352733850478 1.6118690967559812 1.0074181854724886 1.6118690967559817 1.0074181854724882 1.6118690967559812 1.0074181854724882 4.2311563789844513 1.0074181854724882 3.0222545564174643 1.6118690967559812 1.6118690967559812 16.723141878843307 1.0074181854724882 7.2534109354019165 5.8430254757404327 1.0074181854724882 1.0074181854724882 2.0148363709449759
leaf_count=5 5 5 5 7 5 7 6 5 19 6 10 9 8 5 8 5 8 5 21 5 15 8 8 83 5 36 29 5 5 10
internal_value=-0.945461 -0.954418 -0.917556 -0.979002 -0.974768 -0.877698 -0.856533 -0.926229 -0.942812 -0.880773 -0.990081 -0.839225 -0.820981 -0.962015 -0.917701 -0.8243 -0.991558 -0.835966 -0.799685 -0.849753 -0.791849 -0.977014 -0.805211 -1.01013 -0.982104 -1.00914 -1.00789 -0.776578 -1.00485 -0.998648
internal_weight=73.1386 69.1089 24.581 9.67121 44.5279 14.9098 12.2905 10.6786 9.67121 4.83561 33.8493 11.0816 9.26825 14.1039 5.64154 2.61929 8.46231 3.62671 7.65638 2.4178 4.02967 2.61929 2.61929 19.7454 3.02225 8.26083 6.85044 5.23857 4.83561 3.02225
internal_count=363 343 122 48 221 74 61 53 48 24 168 55 46 70 28 13 42 18 38 12 20 13 13 98 15 41 34 26 24 15
is_linear=0
shrinkage=1


end of trees

feature_importances:
Column_13=6
Column_25=5
Column_0=3
Column_5=3
Column_14=3
Column_7=2
Column_11=2
Column_20=2
Column_12=1
Column_15=1
Column_18=1
Column_22=1

parameters:
[boosting: gbdt]
[objective: binary]
[metric: binary_logloss]
[tree_learner: serial]
[device_type: cpu]
[data_sample_strategy: bagging]
[data: ]
[valid: ]
[num_iterations: 300]
[learning_rate: 0.05]
[num_leaves: 31]
[num_threads: 0]
[seed: 0]
[deterministic: 0]
[force_col_wise: 0]
[force_row_wise: 0]
[histogram_pool_size: -1]
[max_depth: -1]
[min_data_in_leaf: 5]
[min_sum_hessian_in_leaf: 0.001]
[bagging_fraction: 0.8]
[pos_bagging_fraction: 1]
[neg_bagging_fraction: 1]
[bagging_freq: 5]
[bagging_seed: 3]
[bagging_by_query: 0]
[feature_fraction: 0.8]
[feature_fraction_bynode: 1]
[feature_fraction_seed: 2]
[extra_trees: 0]
[extra_seed: 6]
[early_stopping_round: 0]
[early_stopping_min_delta: 0]
[first_metric_only: 0]
[max_delta_step: 0]
[lambda_l1: 0]
[lambda_l2: 0]
[linear_lambda: 0]
[min_gain_to_split: 0]
[drop_rate: 0.1]
[max_drop: 50]
[skip_drop: 0.5]
[xgboost_dart_mode: 0]
[uniform_drop: 0]
[drop_seed: 4]
[top_rate: 0.2]
[other_rate: 0.1]
[min_data_per_group: 100]
[max_cat_threshold: 32]
[cat_l2: 10]
[cat_smooth: 10]
[max_cat_to_onehot: 4]
[top_k: 20]
[monotone_constraints: ]
[monotone_constraints_method: basic]
[monotone_penalty: 0]
[feature_contri: ]
[forcedsplits_filename: ]
[refit_decay_rate: 0.9]
[cegb_tradeoff: 1]
[cegb_penalty_split: 0]
[cegb_penalty_feature_lazy: ]
[cegb_penalty_feature_coupled: ]
[path_smooth: 0]
[interaction_constraints: ]
[verbosity: -1]
[saved_feature_importance_type: 0]
[use_quantized_grad: 0]
[num_grad_quant_bins: 4]
[quant_train_renew_leaf: 0]
[stochastic_rounding: 1]
[linear_tree: 0]
[max_bin: 255]
[max_bin_by_feature: ]
[min_data_in_bin: 3]
[bin_construct_sample_cnt: 200000]
[data_random_seed: 1]
[is_enable_sparse: 1]
[enable_bundle: 1]
[use_missing: 1]
[zero_as_missing: 0]
[feature_pre_filter: 0]
[pre_partition: 0]
[two_round: 0]
[header: 0]
[label_column: ]
[weight_column: ]
[group_column: ]
[ignore_column: ]
[categorical_feature: ]
[forcedbins_filename: ]
[precise_float_parser: 0]
[parser_config_file: ]
[objective_seed: 5]
[num_class: 1]
[is_unbalance: 0]
[scale_pos_weight: 1]
[sigmoid: 1]
[boost_from_average: 1]
[reg_sqrt: 0]
[alpha: 0.9]
[fair_c: 1]
[poisson_max_delta_step: 0.7]
[tweedie_variance_power: 1.5]
[lambdarank_truncation_level: 30]
[lambdarank_norm: 1]
[label_gain: ]
[lambdarank_position_bias_regularization: 0]
[eval_at: ]
[multi_error_top_k: 1]
[auc_mu_weights: ]
[num_machines: 1]
[local_listen_port: 12400]
[time_out: 120]
[machine_list_filename: ]
[machines: ]
[gpu_platform_id: -1]
[gpu_device_id: -1]
[gpu_use_dp: 0]
[num_gpu: 1]

end of parameters

pandas_categorical:null
