tree
version=v4
num_class=3
num_tree_per_iteration=3
label_index=0
max_feature_idx=55
objective=multiclass num_class:3
feature_names=Column_0 Column_1 Column_2 Column_3 Column_4 Column_5 Column_6 Column_7 Column_8 Column_9 Column_10 Column_11 Column_12 Column_13 Column_14 Column_15 Column_16 Column_17 Column_18 Column_19 Column_20 Column_21 Column_22 Column_23 Column_24 Column_25 Column_26 Column_27 Column_28 Column_29 Column_30 Column_31 Column_32 Column_33 Column_34 Column_35 Column_36 Column_37 Column_38 Column_39 Column_40 Column_41 Column_42 Column_43 Column_44 Column_45 Column_46 Column_47 Column_48 Column_49 Column_50 Column_51 Column_52 Column_53 Column_54 Column_55
feature_infos=[104.848:224.55000000000001] [0.89896146926269671:1.0648887654235246] [106.559:221.21799999999999] [0.85443386243386255:1.0922212758120582] [107.85350000000001:222.00099999999998] [0.82140052329390334:1.1368087123729518] [110.0132:227.05700000000002] [0.76638505894627185:1.1498947779681936] [107.23409101536996:218.5120391380419] [109.03369419265603:221.01863566944206] [-9.0103007764536187:6.087073405456124] [-7.8257849262856105:4.299544638424929] [-0.080113014947138073:0.078862503664614447] [-0.16786179253554456:0.12040180068138828] [-0.26071193630620448:0.21563286092327671] [0.0060912489977546459:0.034454630536909225] [0.0097268133728029317:0.02898139383812931] [0.49480612273028574:1.4313605838638588] [1.8442857142857148:11.741428571428569] [0.012453711457220379:0.062083061072497253] [4.7305045869661058:94.022891049952023] [0:99.999999997562952] [-66.675878869855126:63.782625933326941] [111.16872976893694:239.84292612842233] [98.700474175138169:207.21300928206657] [0.022183733110571955:0.35979562835573814] [-0.4080758065760261:1.3268522517118329] [42021.32:332087.97000000003] [0.12567743952419588:5.6948769136559285] [0.36643353890715069:2.3059451310076988] [-7982820.1999999983:1890096.0000000002] [-314.03390167512811:16.929758167162007] [-40.090000000000003:28.939999999999998] [-50.230000000000018:29.639999999999986] [-0.22994037019636915:0.1661084610924497] [-0.27186386345062863:0.21043194147025934] [0.45045045044370424:99.614494987666717] [3.5438013670286588:97.607654298159545] [9.9827905805455686:97.73837783477542] [1.0050106390273834:1.1604790419149043] [0.9198031531933657:1.0787992495303245] [0:0.965292841641611] [0:20] [0:6] [0:1] [106.52869076100562:221.81388630227517] [108.43301387684009:220.1055625548646] [-0.079737496010509612:0.047282846081371871] [-0.068719491635853669:0.054457277467613308] [-2.9457519663163048:3.1419797141586225] [0.073492143942862076:0.99999999998692812] [0:1] none none none none
tree_sizes=1373 1347 1268 1300 1960 1848 1951 1725 1847 2158 1940 2067 1518 1928 1947 1840 2171 2163 2375 1956 1748 2359 1958 2176 2275 2077 1960 1521 1863 1434 2171 1641 1528 2284 1648 1742 1528 1401 1418 1528 1533 1623 1529 1415 1637 1858 1862 1423 1944 1958 2270 2062 1859 1630 1954 2051 2172 2262 2059 1640 2063 2046 1630 1746 1743 1756 1622 1842 1527 1836 1858 1638 2490 1738 1955 2275 1842 1746 2173 1956 2061 1949 1970 1852 2069 2074 1325 2371 2073 1420 2159 1760 1973 2271 1863 1852 1848 2084 1954 2167 2180 1195 1841 1946 1862 1961 2071 1327 1856 1855 1859 1860 2070 1528 1534 1852 1425 1954 1749 1957 1747 1754 2069 2060 1754 2180 2176 1951 1430 1638 1963 1534 1638 1742 1106 1526 1749 2079 1641 2282 1969 1737 1969 1641 2389 1848 2597 1633 2172 1954 2178 2078 2277 1846 1754 1959 2076 1858 2175 2175 1750 2070 1960 1966 2388 2590 1957 1960 2067 2167 1862 1642 2175 1432 1538 2068 1427 1842 2258 1646 1528 2067 1849 2156 1969 2062 1534 1961 2059 2290 1868 2495 2291 1651 2497 2073 1641 2300 2509 1745 1860 2066 1859 1852 1858 1747 1967 1853 1977 2073 2071 1765 1745 2487 2086 1854 2281 1972 1864 2294 1959 2070 2061 2072 1750 2049 2061 1320 2049 1956 2064 2375 2081 2393 1526 1761 1649 1639 1857 1859 1532 2285 1752 1856 2063 1326 2385 2282 1756 1536 2177 1330 2283 1754 1751 2378 1543 2166 2603 1538 1654 1314 2173 1971 1432 1966 1845 1649 2294 2486 1962 1747 2392 2061 1645 1851 2286 1959 1629 1755 1858 1532 2070 2163 1960 2366 1637 1525 1861 2174 1536 1756 1960 1326 2167 2080 1743 2399 2265 1964 1968 2387 1219 1543 2179 1535 1744 1854 1849 1735 2069 1648 1739 2065 1539 1544 2070 2072 2376 2289 1965 2081 2295 1755 2386 1735 1962 2383 1649 2082 2480 2278 1975 1437 2073 1642 1966 1758 1642 1857 1749 2065 2262 1222 1746 1945 1845 2167 2259 1947 1545 1848 2189 1751 2067 2077 1429 1840 2077 1972 2165 1654 1434 2173 1757 1849 2063 1736 1320 2374 2181 1655 1859 1739 1761 1959 2068 1332 2072 1544 1532 2073 1964 1436 2367 1438 1435 1734 2078 1543 2501 2064 1439 1633 1860 1221 2491 1535 2401 2490 1961 2400 2492 1535 2409 2170 1627 1860 1645 2168 1650 1849 2064 1642 1870 1969 1740 2175 2066 1853 1980 2074 2194 1964 2175 2069 1970 1642 1964 1753 1651 2189 2491 2189 2302 2492 2182 2281 2480 2072 1848 2172 1860 2180 2068 1860 1332 1854 1957 2294 1436 2070 2074 1630 1841 1324 1417 1957 2074 1541 1649 1114 1299 1761 1973 1973 1658 2087 1857 1824 2499 1437 2268 2390 1330 2276 2284 2392 1636 1547 1944 1842 1429 1742 2066 1222 2259 1957 2392 2278 1635 2380 1849 2378 2492 2183 1864 1973 2605 1971 1639 2171 1871 1857 2081 1321 1644 2266 1319 1538 2069 1957 1963 2368 2172 1961 1861 1741 1316 1971 1837 2040 2175 1960 1974 2701 2053 1626 2295 1959 1543 2079 2064 2182 2079 2181 1652 2292 2068 2294 1436 1646 1323 2398 2178 1753 1647 1532 2287 2285 2060 1864 2287 2169 1325 2405 2178 1537 1752 2079 1420 2394 2175 1211 2384 2173 1543 2062 2173 2384 2182 1959 1972 2296 1852 2068 2166 1424 2288 2059 1975 1978 2290 1970 2398 1743 2169 1647 2617 2070 1651 2064 2279 1547 2166 1744 1544 2378 2391 1969 2389 1315 1341 2509 1662 2385 2403 1618 2392 1967 1744 2502 1978 1322 1537 2079 1320 1422 1853 1107 2278 1965 2069 1740 1957 2083 1853 1647 2070 1212 1648 2057 1330 1956 1753 1438 1324 2175 1653 2494 1535 2399 2608 1540 1957 2606 1547 2292 2193 1525 1647 1860 1507 1864 1751 1859 1855 2399 1846 1845 2512 1842 1645 2286 1842 1547 1433 1734 2071 2264 1316 1544 1307 1639 2387 2060 1847 1963 1853 1858 1853 2175 1857 1653 2287 1861 2284 2291 1850 1534 2389 1863 2399 1431 2282 1852 1845 2050 1858 1650 2181 1967 2085 2067 2066 1636 1968 1972 1762 1429 1549 2371 2056 1656 1982 2072 1651 2188 2080 1645 2088 1428 1651 1643 1960 1640 1649 2505 2289 2192 1647 1538 2174 1438 1850 2183 1853 2296 2295 1744 1961 2088 2287 1550 2279 1851 2075 1524 1959 2074 1623 2171 1956 1620 2177 1860 2074 1855 1873 2076 1964 2071 1752 1852 1742 1970 1435 2509 1851 1437 2374 2292 1527 2486 1647 2067 1968 1660 2170 1852 1759 1959 1859 1854 1971 2394 1958 1972 2080 1861 1754 2405 1734 1761 1645 1762 1968 1658 1758 1980 1962 1965 1746 1218 2393 1863 1222 2287 1631 1966 1862 2073 1226 2289 1977 2167 1431 1959 1978 1532 2056 1436 1636 2062 1541 2286 1849 1434 2278 1514 2172 2275 1370 2069 2278 1421 2401 1963 2085 2069 1863 2077 1435 2083 1737 2170 1970 1426 1861 1958 1220 1865 1417 1658 2072 1968 1760 1232 1645 2064 1658 1966 1546 1445 2396 1430 2372 2517 1640 2509 2514 1330 2391 1644 2078 1752 1544 1862 1534 1429 2066 1330 2296 1749 2506 2291 2081 2285 2394 1540 2283 2386 2192 1971 2070 2256 2290 2195 1946 2194 2410 1957 2077 1967 1744 2183 2390 1850 1968 1332 1761 1941 1963 1526 1864 1661 2299 2054 2174 1328 2194 2078 1320 2076 2522 1539 2291 1325 1536 2190 1543 1433 1643 1637 2300 1960 2606 2288 2183 2586 1426 1439 2704 2393 2180 1757 1645 2183 1865 1543 2085 2069 1643 2295 2160 1645 2075 2490 2409 1332 1543 2395 1648 2283 1842 1957 2295 2174 2479 2160 1537 2477 1985 2175 1437 1872 1537 1540 2177 1640 1956 2185 1966 2084 1757 1850 2717 1874 1960 1106 1973 2290 1329 2079 2173 1745 2285 2272 1758 2055 1848 2052 1940 1213 2291 2174 1524 2296 2390 2089 1760 2188 1877 1318 2282 1751 1962 2200 2075 1652 2395 1654 2083 2515 2089 2615 1654 1318 1318 1535 1436 2178 1746 1222 1643 1860 1865 1326 2081 2285 1338 1644 1752 2193 2166 2074 2295 2076 1429 2610 2502 1428 2386 2285 1326 1330 1951 1948 1545 1634 1967 1530 1737 2081 2630 1323 1538 2412 1424 1429 2292 1748 1423 2297 1751 1439 2190 2175 1965 2293 2290 1748 2279 1750 1860 1555 2296 1734 2516 1860 1334 1649 2398 1326 1869 2498 1318 1545 2385 1231 1972 2482 1436 1971 2370 1444 1971 1865 1962 1977 1650 1971 1757 1967 1972 1977 2188 1961 2292 1543 2187 1981 1441 2076 1765 1750 1650 2406 1763 1743 1435 1544 1860 2388 2295 1429 1872 1544 1538 2192 2294 1641 2184 1871 2277 1320 2393 1863 1544 2083 2075 1638 2291 1853 2262 2280 1944 2504 1330 1938 2279 2177 1871 1757 2182 1860 1885 2293 1841 1871 1444 2192 2183 1759 2168 2399 1760 2069 2292 2295 1947 2411 2066 1955 2412 2285 2187 2510 2088 2060 1868 2179 1972 1743 2095 1975 1967 1336 2175 2277 1539 2184 2060 1449 2284 2172 1445 2174 1966 2165 2289 2195 2391 2405 1867 2183 2396 1547 2483 2066 1444 2054 2183 1870 1754 2287 1432 1968 1961 1225 1868 2071 1650 1763 2274 2513 1650 1768 2501 2491 1428 2502 2076 2193 2414 2289 1653 2488 2594 2288 2275 1545 2082 1866 2306 2185 1960 1651 2072 2198 1332 1430 1223 2287 1534 1438 2056 1317 1656 1426 1847 2395 1537 1404 1963 1865 2091 1655 2392 1422 2385 1315 1755 1736 2504 1753 2617 1763 1754 2186 1754 1752 2185 1765 1867 2175 1654 2157 1553 1550 1757 1876 1441 1864 1869 2286 1863 1978 1113 1861 1869 1432 1658 2086 1443 1642 2480 1230 1536 2415 2305 1878 2383 1654 1545 2088 1548 1975 1873 2282 1974 2080 1449 1541 1540 1647 1861 1975 1864 2180 1641 2079 1641 1442 1641 1655 1334 2307 1765 1871 1330 2276 2292 2087 1974 2409 1725 2090 2185 2071 1849 2304 1535 1536 2610 1431 1537 2196 1438 2082 2390 1225 2285 1861 1769 2089 1964 1762 1760 1874 1655 1744 2076 1762 1768 1757 1980 1618 1539 1523 1950 1431 1972 1527 1653 2169 1531 2293 1332 1872 2069 2169 1648 2093 2623 2396 2296 2608 2505 1971 2630 1327 1877 1326 1231 1975 1753 1224 1337 1541 1528 2524 2505 2305 2516 1755 2195 2403 2192 2093 2407 2506 2073 2305 2399 1223 1556 2505 2086 1445 1864 1657 2279 1646 1327 2289 1749 1657 2388 2304 1961 2285 1949 2074 2190 1656 1769 2617 1557 1869 1973 2394 1659 2179 1775 1218 1654 1330 2306 2300 1333 2065 1439 1983 2191 1640 1426 2190 2410 1226 1644 1881 1876 1954 1773 2085 1757 1531 2280 1651 1536 2080 2178 1339 2191 2189 1551 1874 2090 1540

Tree=0
num_leaves=12
num_cat=0
split_feature=17 0 17 19 18 25 19 23 23 3 5
split_gain=13.9366 14.7824 15.2256 13.4491 10.3598 9.5359 10.1138 5.45688 6.99159 6.81925 4.79917
threshold=0.72437580912310684 110.54600000000002 1.2660140426701418 0.041308385703741089 2.5635714285714331 0.054031976601454042 0.017578650432133282 197.1593872921201 192.0776746980973 0.98928860133763785 1.0178541912811472
decision_type=2 2 2 2 2 2 2 2 2 2 2
left_child=4 -2 3 5 -1 -3 -7 8 -8 -9 -6
right_child=1 2 -4 -5 10 6 7 9 -10 -11 -12
leaf_value=-0.70278536540315084 -0.7156699004791186 -0.69329370769149457 -0.71502026144762365 -0.71245197121046266 -0.71839760452358381 -0.71349084416439879 -0.70319648120160871 -0.70549230744901981 -0.71220579123589012 -0.69566657771439289 -0.70944567122691982
leaf_weight=9.7483859658241254 13.122827261686323 10.123323887586592 13.49776518344879 17.247144401073456 17.247144401073459 10.123323887586592 128.22876924276352 11.623075574636458 9.7483859658241254 20.99652361869812 10.123323887586592
leaf_count=26 35 27 36 46 46 27 342 31 26 56 27
internal_value=-0.706015 -0.705089 -0.70446 -0.703772 -0.711863 -0.702986 -0.703532 -0.702939 -0.703836 -0.699158 -0.715102
internal_weight=271.83 234.711 221.588 208.091 37.1189 190.843 180.72 170.597 137.977 32.6196 27.3705
internal_count=725 626 591 555 99 509 482 455 368 87 73
is_linear=0
shrinkage=1


Tree=1
num_leaves=12
num_cat=0
split_feature=22 32 27 7 17 50 38 19 22 29 26
split_gain=8.59183 6.16177 5.14733 5.64211 4.70777 7.33402 3.70307 5.48136 2.87698 4.69258 1.64954
threshold=37.393979612849066 -20.09 207055.75000000003 1.0831136944838706 0.68281006918731346 0.33486601889903755 17.544994498299996 0.028492658523856875 3.7921156558333782 1.1072649791304479 0.24772201568638769
decision_type=2 2 2 2 2 2 2 2 2 2 2
left_child=1 -1 3 4 5 -3 7 -6 10 -10 -8
right_child=-2 2 -4 -5 6 -7 8 -9 9 -11 -12
leaf_value=-2.2068375584328286 -2.2049155756428016 -2.2049155756428016 -2.2080099239113737 -2.2091637665961965 -2.2081253784665837 -2.2235798186864288 -2.2215403396736129 -2.2237522759405182 -2.2224823425710496 -2.2134833003377139 -2.2257300412381369
leaf_weight=4.2169159650802603 4.7985595464706412 4.7985595464706403 3.9260941743850699 4.7985595464706412 5.0893813371658307 4.071505069732666 17.740129232406616 4.3623268604278564 19.485059976577762 8.8700646162033063 23.265743255615234
leaf_count=29 33 33 27 33 35 28 122 30 134 61 160
internal_value=-2.21829 -2.21894 -2.21947 -2.21996 -2.22056 -2.21348 -2.22136 -2.21534 -2.22219 -2.21966 -2.22393
internal_weight=105.423 100.624 96.4074 92.4813 87.6828 8.87006 78.8127 9.45171 69.361 28.3551 41.0059
internal_count=725 692 663 636 603 61 542 65 477 195 282
is_linear=0
shrinkage=1


Tree=2
num_leaves=11
num_cat=0
split_feature=8 17 10 29 18 17 25 47 13 7
split_gain=15.9945 11.63 9.51602 10.0669 12.7464 12.35 13.6512 11.8638 8.36807 5.2888
threshold=109.78008597169911 1.25561996092728 3.5543099564736029 0.63401024362500424 2.4000000000000035 0.72437580912310684 0.1468294813512222 -0.03515144691325317 -0.010421398260815893 1.0165354591601325
decision_type=2 2 2 2 2 2 2 2 2 2
left_child=-1 2 3 -2 -5 9 8 -8 -7 -6
right_child=1 -3 -4 4 5 6 7 -9 -10 -11
leaf_value=-0.91086336626604514 -0.93014089144652723 -0.9142684663789804 -0.93064409334332243 -0.91049182393970152 -0.90939626191171485 -0.92186358136631197 -0.92398641158910844 -0.91338867492718212 -0.9274158920901977 -0.92035188219158137
leaf_weight=12.215861141681669 18.323791712522507 15.449471443891523 17.964501678943634 9.3415408730506879 9.3415408730506915 44.911254197359085 22.635272115468979 21.916692048311234 79.04380738735199 9.3415408730506879
leaf_count=34 51 43 50 26 26 125 63 61 220 26
internal_value=-0.922325 -0.922891 -0.923466 -0.922863 -0.922182 -0.922769 -0.923649 -0.918773 -0.925404 -0.914851
internal_weight=260.485 248.269 232.82 214.855 196.532 187.19 168.507 44.552 123.955 18.6831
internal_count=725 691 648 598 547 521 469 124 345 52
is_linear=0
shrinkage=1


Tree=3
num_leaves=11
num_cat=0
split_feature=17 0 17 19 18 25 19 36 6 5
split_gain=13.6198 14.5162 14.8692 13.191 10.1698 9.36697 9.90395 5.6184 9.13409 4.72572
threshold=0.72437580912310684 110.54600000000002 1.2660140426701418 0.041308385703741089 2.5635714285714331 0.054031976601454042 0.017578650432133282 8.269663380816608 170.5986 1.0178541912811472
decision_type=2 2 2 2 2 2 2 2 2 2
left_child=4 -2 3 5 -1 -3 -7 -8 -9 -6
right_child=1 2 -4 -5 9 6 7 8 -10 -11
leaf_value=0.0032917400605809019 -0.0094910135297613298 0.012682048341987738 -0.0088188417078159144 -0.0062985293224160832 -0.01218266466096927 -0.0073203649189203688 -0.0031347602161692209 0.0018564862811380107 0.0070639969711199383 -0.0032986897633947047
leaf_weight=9.74856388568878 13.120123922824858 10.124804943799971 13.494183510541914 17.244886755943298 17.241583704948429 10.12146210670471 13.872529566287993 101.98805639147758 54.744714766740799 10.122135192155836
leaf_count=26 35 27 36 46 46 27 37 272 146 27
internal_value=8.00574e-05 0.000995746 0.00161893 0.00229807 -0.00570192 0.00307677 0.00253513 0.00312228 0.00367769 -0.00891144
internal_weight=271.823 234.711 221.591 208.096 37.1123 190.852 180.727 170.605 156.733 27.3637
internal_count=725 626 591 555 99 509 482 455 418 73
is_linear=0
shrinkage=0.0102786


Tree=4
num_leaves=17
num_cat=0
split_feature=47 27 35 38 38 17 39 11 32 11 1 14 41 16 1 19
split_gain=6.29443 14.5379 7.90805 6.30964 5.13599 9.86878 6.34627 6.56911 8.23914 6.08895 7.16406 1.507 1.73328 1.01437 0.693813 0.672529
threshold=0.021948784004894743 121918.43000000002 0.0073459457224837052 69.663182070102025 46.063770145621568 0.68281006918731346 1.0320409660145666 -0.62850773586197295 -3.1100000000000061 -0.83577743055420595 0.98896106446962218 0.024465878812702849 0.69691627108680965 0.015889696864134006 0.99916437278412384 0.033233101681594088
decision_type=2 2 2 2 2 2 2 2 2 2 2 2 2 2 2 2
left_child=2 -2 3 4 5 -1 7 14 -9 10 -8 -4 13 -13 -7 -6
right_child=1 -3 11 -5 15 6 9 8 -10 -11 -12 12 -14 -15 -16 -17
leaf_value=0.017123362211893648 0.021548471827094826 -0.0026271204206234221 -0.0076518293296993153 0.013243189010801881 -0.0076252787168588337 -0.0037276734099489749 0.0015582115373123735 -0.0053976846024977399 0.013205947395370706 -0.004966124628718596 0.018103209416805488 -0.0019857195093814298 0.0031434687548233115 -0.0076147842652813068 -0.0076389266161129496 -0.0021915954856283129
leaf_weight=4.1071850508451453 4.5344430804252607 6.1358331739902496 12.780897185206415 4.3856473714113227 7.264370843768118 10.4577339887619 5.5342009365558607 4.6479169726371765 5.3786620348691994 3.909295141696929 5.5444053411483765 7.2523258775472659 3.7712536305189124 6.5173103511333466 9.437735363841055 3.7820083647966385
leaf_count=28 31 42 88 30 50 72 38 32 37 27 38 50 26 45 65 26
internal_value=0.000205593 0.00767553 -0.000636826 0.00139812 0.000522463 0.00195226 0.00054738 -0.00218356 0.00458053 0.00600037 0.00988723 -0.00496302 -0.00298245 -0.0046751 -0.00560211 -0.00579288
internal_weight=105.441 10.6703 94.7709 64.4492 60.0635 49.0171 44.9099 29.922 10.0266 14.9879 11.0786 30.3218 17.5409 13.7696 19.8955 11.0464
internal_count=725 73 652 443 413 337 309 206 69 103 76 209 121 95 137 76
is_linear=0
shrinkage=0.0102786


Tree=5
num_leaves=16
num_cat=0
split_feature=45 17 6 10 29 11 47 15 6 17 6 24 47 6 19
split_gain=15.6495 11.3653 11.5521 12.6272 17.4753 10.364 9.94341 11.7432 6.83753 6.81336 9.73508 6.74946 4.78759 4.19414 3.56314
threshold=109.64817224569794 1.2482241459388752 111.77670000000002 -2.0226673574231877 0.98543491789634974 0.74614138753987735 -0.022918601376662569 0.018223100108902313 114.66170000000001 0.72437580912310684 167.22980000000004 107.4341916173765 0.015835915899529259 182.27710000000002 0.026791047842240876
decision_type=2 2 2 2 2 2 2 2 2 2 2 2 2 2 2
left_child=-1 2 -2 4 14 -3 7 -6 -5 10 -10 -11 -13 -9 -4
right_child=1 5 3 8 6 -7 -8 13 9 11 -12 12 -14 -15 -16
leaf_value=0.011151630767601645 0.007887966417587839 -0.00057961068804290037 0.013993764171709347 -0.010567201072043739 -0.0080287914902810297 0.01400198593814635 -0.0085986784549613848 0.0099653601796114762 -0.0058234689995791651 0.0033399757695732513 0.0078355382086218589 -0.0036983007824604877 -0.0092865633639418257 0.00086726468449573101 0.0053646801581313519
leaf_weight=12.253853678703306 13.303308218717573 10.441485017538072 10.081369936466219 13.644205510616301 9.3428284525871295 10.079682409763334 15.077614516019819 11.514676719903948 9.3378293514251727 11.855574190616606 13.320019543170927 79.303148955106735 20.430507630109787 10.059784650802611 10.417728960514067
leaf_count=34 37 29 28 38 26 28 42 32 26 33 37 221 57 28 29
internal_value=-0.000167356 -0.000728478 -0.00138969 -0.00196746 0.00175056 0.00658901 -0.0017655 0.00156905 -0.00364014 -0.00293204 0.00219956 -0.00397573 -0.00484783 0.00573941 0.00963475
internal_weight=260.464 248.21 227.689 214.385 66.494 20.5212 45.9949 30.9173 147.891 134.247 22.6578 111.589 99.7337 21.5745 20.4991
internal_count=725 691 634 597 185 57 128 86 412 374 63 311 278 60 57
is_linear=0
shrinkage=0.0102786


Tree=6
num_leaves=17
num_cat=0
split_feature=17 0 17 27 18 18 43 16 36 49 31 42 16 10 28 5
split_gain=13.302 14.2113 14.5491 10.8996 9.96497 9.45396 8.83334 10.3689 7.36889 8.27666 7.04632 5.04037 5.64574 5.25774 4.8435 4.65328
threshold=0.72437580912310684 110.54600000000002 1.2660140426701418 140437.31000000003 2.5635714285714331 2.4000000000000035 1.5000000000000002 0.02126562247095988 37.596677104140404 -0.82450621570443527 0.044824752431071306 10.000000000000002 0.024161687393475236 -3.7510459458473515 1.2248968482925706 1.0178541912811472
decision_type=2 2 2 2 2 2 2 2 2 2 2 2 2 2 2 2
left_child=4 -2 3 5 -1 -3 7 14 9 -8 -10 12 -5 -13 -7 -6
right_child=1 2 -4 11 15 6 8 -9 10 -11 -12 13 -14 -15 -16 -17
leaf_value=0.0032658190197110528 -0.0093941835027949051 -0.0055529387719667721 -0.0087263772924098156 -0.0078854590381905697 -0.012061445436008475 0.00038427105921822765 0.010816956296967434 0.0095017292708439293 0.012281758147060203 0.00027285158048806371 0.0048817821457036482 -0.0030262209849848828 0.0016544123113363372 0.0050184127798548342 -0.0084508296715951111 -0.0032446346707902364
leaf_weight=9.748787045478819 13.115560054779051 10.494437545537947 13.489537626504896 18.370309442281727 17.232760488986973 18.373220264911655 10.49926835298538 9.7492966651916486 28.123701125383377 31.12181955575943 26.623572617769241 15.745056003332136 10.123094797134398 18.748210936784744 10.123594045639036 10.120540648698805
leaf_count=26 35 28 36 49 46 49 28 26 75 83 71 42 27 50 27 27
internal_value=7.88844e-05 0.000983761 0.00160029 0.00227197 -0.0056361 0.00382174 0.00455512 0.000370908 0.00621336 0.00294412 0.00869208 -0.00129623 -0.00449349 0.00134283 -0.00275685 -0.00881423
internal_weight=271.803 234.701 221.585 208.096 37.1021 145.109 134.614 38.2461 96.3684 41.6211 54.7473 62.9867 28.4934 34.4933 28.4968 27.3533
internal_count=725 626 591 555 99 387 359 102 257 111 146 168 76 92 76 73
is_linear=0
shrinkage=0.0102786


Tree=7
num_leaves=15
num_cat=0
split_feature=22 32 24 17 50 7 31 20 1 41 35 36 1 28
split_gain=8.33432 5.96354 5.05941 6.13903 11.4162 10.887 3.95603 3.4822 3.33532 5.91732 7.37137 3.93017 1.68382 1.33973
threshold=37.393979612849066 -20.09 103.5777104008104 0.87216211092863938 0.2554130148890919 1.0058679524665097 0.060875640773629051 37.186599348458763 0.98789941613046628 0.50299788171336191 -0.030527313745518311 31.299067903228615 1.0095392236508201 1.6144989734491435
decision_type=2 2 2 2 2 2 2 2 2 2 2 2 2 2
left_child=1 -1 -3 4 5 -4 8 -6 13 11 -11 -10 -9 -5
right_child=-2 2 3 6 7 -7 -8 12 9 10 -12 -13 -14 -15
leaf_value=0.011385033041045852 0.013289145947202189 0.0092501436962461134 0.0025263118761530675 -0.0076410069457001125 0.0057914778402941508 0.02332417560394754 -0.0076579727582149291 -0.0076415366060797246 0.0028642804985697331 0.01555749119630488 -0.0007090282099505307 -0.0068240189486727353 0.00043130687825091346 -0.00099586772414437348
leaf_weight=4.2758943289518347 4.8637099415063849 4.8221375197172156 7.0152522772550601 10.846624955534933 3.7839403301477459 4.2714773714542389 16.242844596505165 9.4583508521318418 6.7968589514494004 4.8289513885974884 7.3917649239301664 12.446016341447828 3.7776681780815116 4.6375535279512397
leaf_count=29 33 33 48 75 26 29 112 65 47 33 51 86 26 32
internal_value=0.000203913 -0.000432389 -0.000963076 -0.00150679 0.00246586 0.0104654 -0.00328911 -0.00284271 -0.00176918 0.00014971 0.00573684 -0.00339557 -0.0053322 -0.00566796
internal_weight=105.459 100.595 96.3194 91.4973 28.3067 11.2867 63.1906 17.02 46.9478 31.4636 12.2207 19.2429 13.236 15.4842
internal_count=725 692 663 630 194 77 436 117 324 217 84 133 91 107
is_linear=0
shrinkage=0.0102786


Tree=8
num_leaves=16
num_cat=0
split_feature=8 17 6 10 29 11 47 36 6 17 6 29 45 47 19
split_gain=15.2757 11.0982 11.3751 12.953 16.7589 10.1944 10.1602 8.14789 6.99613 6.64485 9.54225 6.65161 10.4848 4.97121 3.45705
threshold=109.78008597169911 1.2482241459388752 111.77670000000002 -2.0226673574231877 0.98543491789634974 0.74614138753987735 -0.022918601376662569 17.494598991143199 114.66170000000001 0.72437580912310684 167.22980000000004 0.79637782178098449 115.40512915931785 0.0079319260065001899 0.026791047842240876
decision_type=2 2 2 2 2 2 2 2 2 2 2 2 2 2 2
left_child=-1 2 -2 4 14 -3 7 -6 -5 10 -10 13 -13 -11 -4
right_child=1 5 3 8 6 -7 -8 -9 9 11 -12 12 -14 -15 -16
leaf_value=0.010998231575568826 0.0080964371243051857 -0.00060921599972784681 0.013821873145009633 -0.010543793465729933 -0.0027811671152495683 0.013837067426215341 -0.0085377426608042022 0.0078089486494905417 -0.0057931801212992556 -0.010393473526932647 0.0077272889639957223 0.0073086605632688914 -0.0037558259193093768 -0.0020082207968204718 0.0053304946135498046
leaf_weight=12.294254928827284 12.60667362809181 10.45052355527878 10.116744607686998 13.975288540124891 17.964674860239032 10.113674551248549 15.039374947547911 13.328160256147383 9.327249228954317 23.271310269832611 13.353859364986418 10.423266798257826 66.644009828567505 11.094477295875548 10.426746070384977
leaf_count=34 35 29 28 39 50 28 42 37 26 65 37 29 186 31 29
internal_value=-0.000165481 -0.000720895 -0.00137524 -0.00193281 0.00181958 0.00650175 -0.001605 0.00172895 -0.00362837 -0.0029037 0.00216037 -0.00393616 -0.00225442 -0.00769621 0.00953817
internal_weight=260.43 248.136 227.572 214.965 66.8757 20.5642 46.3322 31.2928 148.089 134.114 22.6811 111.433 77.0673 34.3658 20.5435
internal_count=725 691 634 599 186 57 129 87 413 374 63 311 215 96 57
is_linear=0
shrinkage=0.0102786


Tree=9
num_leaves=19
num_cat=0
split_feature=8 27 31 19 6 10 8 9 19 6 50 50 30 45 13 38 13 16
split_gain=13.3276 13.4842 13.255 11.4624 11.0494 10.4625 15.1471 7.99938 6.37405 8.66508 6.71 6.27211 6.23247 5.55742 4.36303 3.70247 6.34789 2.36658
threshold=110.45673055956119 141739.81250000003 -1.405220542471288 0.026487143934297266 170.89290000000003 -1.9117060501731442 159.12374368428519 154.97179043498716 0.04381218895482878 174.21890000000002 0.33878043880081832 0.29362621025680052 -576994.5499999997 170.69808079694795 0.0070819353754463807 38.182901729025325 -0.0083943205918220447 0.019902433078067262
decision_type=2 2 2 2 2 2 2 2 2 2 2 2 2 2 2 2 2 2
left_child=-1 2 -2 4 5 -4 7 -7 9 10 17 -11 15 -8 -14 16 -5 -3
right_child=1 8 3 12 -6 6 13 -9 -10 11 -12 -13 14 -15 -16 -17 -18 -19
leaf_value=-0.0084378779608674463 -0.0079641180764656525 -0.0052834341208355994 -0.0093820402678693165 6.9378058066553599e-05 0.008046704965406307 0.0018745844369673743 -0.0090824700143242384 0.011826627782476156 -0.0095903848069068941 0.0080056812545902245 0.00056537040175480709 -0.0027727201935809436 -0.0027304682034019782 9.5032211754904119e-05 0.0062590251319732627 0.01299967254548222 0.011166887799539296 -0.012378960217643753
leaf_weight=19.104549646377563 13.1176620721817 10.119412153959276 12.742287635803221 9.7489047050476074 17.994479298591614 35.242317974567413 16.491356372833256 11.249504953622816 13.864069163799284 12.372026801109316 13.11989054083824 10.497948467731474 10.49514612555504 11.998057037591932 12.371971666812895 14.623959541320799 12.374479472637177 10.12090355157852
leaf_count=51 35 27 34 26 48 94 44 30 37 33 35 28 28 32 33 39 33 27
internal_value=-0.000173888 0.000462013 0.00196294 0.00275321 0.000718588 -0.000785963 0.00067718 0.00429399 -0.00335599 -0.00181046 -0.00515037 0.00305557 0.00635594 -0.00521768 0.00212928 0.0089769 0.0062923 -0.00885629
internal_weight=267.649 248.544 178.45 165.332 105.718 87.7235 74.9812 46.4918 70.0943 56.2302 33.3602 22.87 59.6145 28.4894 22.8671 36.7473 22.1234 20.2403
internal_count=714 663 476 441 282 234 200 124 187 150 89 61 159 76 61 98 59 54
is_linear=0
shrinkage=0.0102786


Tree=10
num_leaves=17
num_cat=0
split_feature=24 50 47 33 33 33 10 31 29 49 28 35 38 18 1 1
split_gain=9.63612 6.04914 13.4583 6.67566 8.50768 10.4055 6.29271 5.65379 9.01942 3.52227 1.9051 1.52687 1.25391 1.04793 1.00234 0.206203
threshold=103.5777104008104 0.25836578264632931 0.0227341234124901 -1.4650000000000032 -5.9050000000000074 -4.2899999999999983 -6.48802675098755 -0.099452585487971007 0.98180883263038121 1.096047275950178 0.66988137040103768 -0.070341197619103443 30.860256304536843 2.7146428571428571 0.99446591529764139 0.98441108409377309
decision_type=2 2 2 2 2 2 2 2 2 2 2 2 2 2 2 2
left_child=-1 2 3 4 6 -6 -2 8 -3 11 -8 -9 -10 -13 -5 -15
right_child=1 7 -4 14 5 -7 10 9 12 -11 -12 13 -14 15 -16 -17
leaf_value=0.014670448171642744 0.010860457618984229 0.013232205603629019 0.020087957599568489 -0.0018527075121010036 0.024369190799261819 0.0020668531796734103 0 0.00041047591403112031 0.00044466948954558725 0.0039625952971821549 -0.0076248284954447574 -0.0024727476887723759 -0.0075875510482519889 -0.0048373269026216158 -0.0076273915538530926 -0.0076650450572295983
leaf_weight=4.5612537413835517 3.8435648977756509 5.3720839470624915 4.031672090291976 5.3303698450326911 3.8110764473676682 5.2433039993047732 6.6799563616514206 3.7861658632755271 3.7720901221036893 4.3825179487466803 7.1227609813213348 5.9591709673404685 4.3715311586856842 3.7396924793720272 8.2386166900396329 23.60004848241806
leaf_count=31 26 37 27 37 26 36 46 26 26 30 49 41 30 26 57 163
internal_value=0.000128519 -0.000543792 0.00227972 0.000474804 0.00346021 0.0115369 -0.000692622 -0.00282141 0.00293882 -0.00470342 -0.00394264 -0.00573466 -0.00386543 -0.00643741 -0.00538188 -0.00729131
internal_weight=103.846 99.2846 44.3013 40.2696 26.7007 9.05438 17.6463 54.9833 13.5157 41.4676 13.8027 37.0851 8.14362 33.2989 13.569 27.3397
internal_count=714 683 304 277 183 62 121 379 93 286 95 256 56 230 94 189
is_linear=0
shrinkage=0.0102786


Tree=11
num_leaves=18
num_cat=0
split_feature=45 6 33 17 17 6 22 20 25 15 39 47 50 14 19 14 1
split_gain=16.0889 11.8255 12.7924 15.6078 8.826 8.3972 8.23943 10.6709 10.8282 6.38001 6.19851 7.84141 6.08279 4.31395 1.92664 1.14469 0.186551
threshold=109.86226857027496 111.77670000000002 -7.1849999999999943 1.2482241459388752 0.72437580912310684 167.07720000000003 -28.118035948726984 37.884348763113998 0.27448484351299812 0.020824873215720855 1.0161908074558499 0.013137413866077705 0.47608834058724886 -0.070798854632916505 0.018641061828222238 0.11109898883416748 1.0002315082210451
decision_type=2 2 2 2 2 2 2 2 2 2 2 2 2 2 2 2 2
left_child=-1 -2 6 4 5 -4 -3 8 13 -9 14 12 -12 -8 -6 -13 -16
right_child=1 2 3 -5 10 -7 7 9 -10 -11 11 15 -14 -15 16 -17 -18
leaf_value=0.011233792605637337 0.0090579884873407037 -0.0055993970773812705 -0.0042029704010155813 0.0084978670329279582 -0.0046424878874662063 0.0079075851205983004 0.013644222414910435 0.0044285603309939551 -0.0015155556650250041 -0.0068623821871790676 0.00011484796033571124 -0.010450120478745569 -0.0069720904824038948 0.0050145453304522051 -0.011225211532468868 -0.0056715495148448548 -0.0089792815474424165
leaf_weight=13.041136920452116 12.989653229713438 10.769361972808836 11.497037738561632 12.293234437704085 9.3079390823841113 12.661362677812575 18.393009066581726 9.7125311493873614 10.426464617252348 11.49239671230316 53.026500076055527 13.570584416389467 16.807790040969849 9.3582297861576098 12.513721019029619 9.2842106819152814 9.2845677733421308
leaf_count=36 36 30 32 34 26 35 51 27 29 32 148 38 47 26 35 26 26
internal_value=0.000128867 -0.000467321 -0.00100648 -0.00260925 -0.00353518 0.00214072 0.00265202 0.00415371 0.00739904 -0.00168532 -0.00464434 -0.00330684 -0.00159181 0.0107509 -0.00861561 -0.00852878 -0.0102937
internal_weight=256.43 243.389 230.399 160.247 147.954 24.1584 70.152 59.3826 38.1777 21.2049 123.795 92.6891 69.8343 27.7512 31.1062 22.8548 21.7983
internal_count=714 678 642 447 413 67 195 165 106 59 346 259 195 77 87 64 61
is_linear=0
shrinkage=0.0102786


Tree=12
num_leaves=13
num_cat=0
split_feature=8 14 17 17 29 18 45 0 18 6 43 38
split_gain=12.9888 13.5154 11.9833 12.0264 6.35436 14.2064 12.2586 11.1882 7.35074 6.82822 5.52609 3.35818
threshold=110.45673055956119 -0.10066764128892251 1.2660140426701418 0.63850153073161897 0.68311570968285129 2.5439285714285731 115.40512915931785 150.56700000000004 3.1732142857142875 114.88300000000001 4.5000000000000009 58.389628201199578
decision_type=2 2 2 2 2 2 2 2 2 2 2 2
left_child=-1 10 3 -3 8 -6 9 -8 -5 -7 11 -2
right_child=1 2 -4 4 5 6 7 -9 -10 -11 -12 -13
leaf_value=-0.0083325467772190631 -0.011199478686557659 -0.0084991485828962033 -0.0092477520813198984 0.011274926561350073 -0.0095124033438883041 0.0016519436949214942 0.0084300144593815688 0.0018529135698156984 0.00047225187993247392 -0.0098702786906430598 0.00074307888936663924 -0.0035373795669987368
leaf_weight=19.093758583068848 14.612419694662096 10.860277533531187 10.485232234001158 17.246778845787052 10.864863127470015 10.122420221567156 38.996081471443176 91.477129220962524 10.873086929321287 11.619546949863432 10.867752045392988 10.490532696247099
leaf_count=51 39 29 28 46 29 27 104 244 29 31 29 28
internal_value=-0.00017183 0.000455834 0.0014427 0.00199991 0.0025987 0.0018184 0.00263044 0.00382181 0.00710973 -0.00450607 -0.00536643 -0.00801414
internal_weight=267.61 248.516 212.545 202.06 191.2 163.08 152.215 130.473 28.1199 21.742 35.9707 25.103
internal_count=714 663 567 539 510 435 406 348 75 58 96 67
is_linear=0
shrinkage=0.0102786


Tree=13
num_leaves=17
num_cat=0
split_feature=24 50 47 33 33 17 10 31 29 49 28 7 29 6 1 4
split_gain=9.35596 5.9704 13.0347 6.583 8.2625 10.1242 6.16646 5.60397 8.81067 3.49656 1.89462 1.64519 2.33091 1.241 0.99965 0.201769
threshold=103.5777104008104 0.25836578264632931 0.0227341234124901 -1.4650000000000032 -5.9050000000000074 0.99643380231725265 -6.48802675098755 -0.099452585487971007 0.98180883263038121 1.096047275950178 0.66988137040103768 0.96119560599743126 0.87580018356485401 179.46950000000004 0.99446591529764139 113.15025000000001
decision_type=2 2 2 2 2 2 2 2 2 2 2 2 2 2 2 2
left_child=-1 2 3 4 6 -6 -2 8 -3 11 -8 12 -9 -10 -5 -13
right_child=1 7 -4 14 5 -7 10 9 13 -11 -12 15 -14 -15 -16 -17
leaf_value=0.014355889061892986 0.010684276989409424 0.013013635959900799 0.019636957023500431 -0.0018421624410772017 0.021269720933544893 -0.0003435762080819738 0 -0.0062284297441364466 -0.0075772033221880326 0.0039324580374129206 -0.0076166820480090755 -0.0048312769829310966 0.0029296652727375033 0.00042533590039526469 -0.0076196554653387757 -0.0076567068719890566
leaf_weight=4.6237166821956626 3.8786398023366937 5.4264134615659705 4.0961201041936866 5.3221172690391532 4.9292843043804186 4.2193638831377029 6.6793676912784576 7.3544124215841276 4.3327408730983716 4.3929842561483374 7.0707953721284866 3.7334974110126522 4.813328817486763 3.7800755053758621 8.1807179600000364 21.019863814115524
leaf_count=31 26 37 27 37 33 29 46 51 30 30 49 26 33 26 57 146
internal_value=0.00012762 -0.000539475 0.00226067 0.000472105 0.00342491 0.0113282 -0.000684854 -0.00280745 0.0029185 -0.00468848 -0.00392439 -0.00572136 -0.002596 -0.00384701 -0.00536556 -0.00724503
internal_weight=103.853 99.2297 44.3764 40.2803 26.7775 9.14865 17.6288 54.8533 13.5392 41.3141 13.7502 36.9211 12.1677 8.11282 13.5028 24.7534
internal_count=714 683 304 277 183 62 121 379 93 286 95 256 84 56 94 172
is_linear=0
shrinkage=0.0102786


Tree=14
num_leaves=17
num_cat=0
split_feature=45 31 6 27 36 17 15 28 6 5 16 27 29 39 17 39
split_gain=15.693 15.0131 13.4193 12.1589 10.4806 9.37735 12.5572 9.62387 9.06884 8.33407 8.00065 7.37634 3.84688 5.75807 2.87056 0.158315
threshold=109.86226857027496 -1.5975912765097944 111.77670000000002 142931.26500000004 58.938542418648787 1.2482241459388752 0.013042171940225103 0.88446908233112664 155.46280000000004 0.91769705479591701 0.01395134157124858 80082.147500000021 1.1840680249310405 1.0162550886990698 1.0774298386316143 1.0284230886588774
decision_type=2 2 2 2 2 2 2 2 2 2 2 2 2 2 2 2
left_child=-1 -2 -3 5 9 6 7 10 -6 -5 -4 -9 13 -8 -11 -14
right_child=1 2 3 4 8 -7 12 11 -10 14 -12 -13 15 -15 -16 -17
leaf_value=0.011076105284832787 0.0089653772988419565 0.0089593207459691872 -0.0080230655331535276 -0.0018869564628453638 -0.010268137378082924 0.005822076554314104 -0.0093927072716168802 0.012512182819530404 0.0028869633042285033 0.005862346639755908 0.0039055480303332073 4.945023606154341e-05 -0.0089348597573902389 -0.0032930425646406792 0.013177706919509792 -0.011174501415106281
leaf_weight=13.082906842231749 16.581430375576019 13.01827362179756 16.066745072603229 9.7209883928298932 10.044683188199999 11.21827247738838 22.488996893167496 9.387828856706621 12.219976931810377 11.874595910310747 9.3614469170570356 10.776036620140074 9.2656939923763293 60.456522345542908 11.206748425960539 9.6357384324073774
leaf_count=36 46 36 45 27 28 31 63 26 34 33 26 30 26 169 31 27
internal_value=0.000127065 -0.000462781 -0.00115437 -0.00177268 0.00238594 -0.00321722 -0.00390739 0.000572836 -0.00304927 0.00607876 -0.00362656 0.00587248 -0.00591384 -0.00495238 0.00943736 -0.0101058
internal_weight=256.407 243.324 226.743 213.724 55.067 158.657 147.439 45.5921 22.2647 32.8023 25.4282 20.1639 101.847 82.9455 23.0813 18.9014
internal_count=714 678 632 596 153 443 412 127 62 91 71 56 285 232 64 53
is_linear=0
shrinkage=0.0102786


Tree=15
num_leaves=16
num_cat=0
split_feature=8 14 17 17 27 29 29 18 9 14 10 43 25 38 25
split_gain=12.665 13.2423 11.7457 11.8061 8.21783 10.9706 11.623 11.6773 7.47863 7.93262 5.93278 5.44816 4.26474 3.30841 0.704508
threshold=110.45673055956119 -0.10066764128892251 1.2660140426701418 0.63850153073161897 141739.81250000003 1.13273038489397 0.68311570968285129 2.5439285714285731 115.20419902462807 -0.013528604127100828 -0.31986085485952026 4.5000000000000009 0.11879522607626276 58.389628201199578 0.10141074508569943
decision_type=2 2 2 2 2 2 2 2 2 2 2 2 2 2 2
left_child=-1 11 3 -3 5 6 10 -8 -6 -10 -5 13 14 -2 -7
right_child=1 2 -4 4 8 12 7 -9 9 -11 -12 -13 -14 -15 -16
leaf_value=-0.0082311800664087026 -0.011106448061299144 -0.0084265807144829029 -0.0091603639311234452 0.013521637322730741 -0.0087406149216166518 0.0096734127836805572 -0.0094255249302691753 0.0018670421250748847 -0.0034820628651725024 0.0079688287607811523 0.0033501511651806834 0.00075204470866452181 0.0031811753044396927 -0.003500167843766948 0.013516878130203776
leaf_weight=19.080621391534805 14.605748325586321 10.855479121208189 10.479383200407026 12.371579080820085 11.240064918994902 13.122941732406618 10.860324889421461 85.853300929069519 15.36941060423851 10.874122589826584 11.99665382504463 10.86679971218109 9.7467142939567548 10.488734513521193 9.7481743693351728
leaf_count=51 39 29 28 33 30 35 29 229 41 29 32 29 26 28 26
internal_value=-0.000169891 0.000449784 0.00142664 0.00197822 0.00257143 0.00362394 0.00219551 0.000594037 -0.0017397 0.00126208 0.00853399 -0.00531415 0.00891271 -0.00794382 0.0113389
internal_weight=267.56 248.479 212.518 202.039 191.183 153.7 121.082 96.7136 37.4836 26.2435 24.3682 35.9613 32.6178 25.0945 22.8711
internal_count=714 663 567 539 510 410 323 258 100 70 65 96 87 67 61
is_linear=0
shrinkage=0.0102786


Tree=16
num_leaves=19
num_cat=0
split_feature=24 50 7 33 33 17 10 26 3 37 22 11 15 30 16 12 18 17
split_gain=9.13034 5.87856 9.46095 5.5918 8.39443 10.4222 6.05488 2.88625 3.2863 2.28433 4.46017 2.33524 1.43633 1.29512 3.14686 1.25837 0.72693 0.198261
threshold=103.5777104008104 0.25836578264632931 1.0654543699466832 -1.4650000000000032 -5.9050000000000074 0.99643380231725265 -6.48802675098755 -0.051425168781374708 1.040492700922629 43.608528271365032 5.8788660549841909 1.081105638546396 0.015249363021496041 -1468118.5999999994 0.014012909287983882 0.013862706473942834 2.9582142857142846 1.1511703808447293
decision_type=2 2 2 2 2 2 2 2 2 2 2 2 2 2 2 2 2 2
left_child=-1 2 3 4 6 -6 -2 -3 9 10 11 16 -5 14 -8 17 -9 -11
right_child=1 7 -4 12 5 -7 13 8 -10 15 -12 -13 -14 -15 -16 -17 -18 -19
leaf_value=0.014101718903006651 0.010516438133334215 0.0058218768355003669 0.016993610257233348 -0.00086726268664152569 0.02164176583631135 -0.00035071291301935081 -0.0075618789790265102 -0.0021429167762715639 0.0056819862273020452 -0.0076488904324820738 0.0084159902849060674 0.003160322367005339 -0.0076102505214536813 -0.0076036651651283571 0.005307461024389535 -0.0013932661128787398 -0.0076311876256728618 -0.0048094913619646561
leaf_weight=4.6753550916910163 3.9126064777374276 3.7758713215589514 4.1212793737649909 6.0603184700012189 4.8630577027797717 4.2230003178119659 4.0160874128341675 3.7535873651504579 3.812758892774581 18.344818398356445 3.7979317903518668 3.7655741572380057 7.5695263892412186 5.7786028534173965 3.9264964610338211 4.9316033124923697 8.816947937011717 3.7124145776033393
leaf_count=31 26 26 27 42 32 29 28 26 26 128 26 26 53 40 27 34 61 26
internal_value=0.000126823 -0.000535952 0.00223668 0.000710279 0.00344485 0.0114479 -0.000687365 -0.00279227 -0.00343782 -0.00418305 -0.00154872 -0.00388938 -0.0046342 -0.00391428 -0.00118685 -0.00613764 -0.0060161 -0.00718729
internal_weight=103.858 99.1825 44.471 40.3497 26.7199 9.08606 17.6338 54.7115 50.9356 47.1229 20.134 16.3361 13.6298 13.7212 7.94258 26.9888 12.5705 22.0572
internal_count=714 683 304 277 182 61 121 379 353 327 139 113 95 95 55 188 87 154
is_linear=0
shrinkage=0.0102786


Tree=17
num_leaves=19
num_cat=0
split_feature=9 31 32 27 15 38 17 28 36 31 5 38 16 25 28 27 17 15
split_gain=15.1857 15.397 13.4638 12.9551 8.90806 13.149 12.8005 8.87066 8.27458 10.6132 8.41605 6.06088 6.02658 4.16182 4.08416 5.57598 2.9428 0.215028
threshold=111.59414841436281 -1.5975912765097944 0.85499999999999698 142931.26500000004 0.013535135777124304 22.19177076243399 1.2482241459388752 0.90089259873288696 58.938542418648787 0.14524544373307188 0.91769705479591701 17.065367572977959 0.013884804597384327 0.085626607872969426 0.62050735493723475 102338.03000000001 1.0774298386316143 0.018317356269865196
decision_type=2 2 2 2 2 2 2 2 2 2 2 2 2 2 2 2 2 2
left_child=2 -2 -1 4 5 -3 11 12 10 -10 -5 -6 -7 -9 17 -16 -12 -13
right_child=1 3 -4 8 6 7 -8 13 9 -11 16 14 -14 -15 15 -17 -18 -19
leaf_value=0.015587198488936624 0.0088641416636437709 -0.0077468056450849454 -0.00017958810673704772 -0.0018962771841752268 0.002042350744679376 -0.0063536227808689569 0.0057465351652877736 0.013566345984070468 -0.0086923300538584228 0.0050402103523257136 0.0058065516697500767 -0.01117359291797654 0.0049111012079311837 0.0038449567598271262 -0.00093034348016354633 -0.0074666833678160762 0.013144241226719094 -0.0088752603989712461
leaf_weight=12.017107278108599 16.618647933006287 14.658635616302488 10.85371473431587 9.7236376702785474 9.275469094514845 10.683490812778475 11.237627476453779 9.3942465484142321 11.83211123943329 11.86191490292549 11.890633493661882 14.614185571670534 9.3816375434398633 9.3733525276184064 20.781329721212387 41.333204239606857 11.602594941854475 9.2393314242362958
leaf_count=33 46 41 30 27 26 30 31 26 33 33 33 41 26 26 58 116 32 26
internal_value=0.000125345 -0.000657505 0.00811135 -0.00138929 -0.00288795 0.000531577 -0.00460668 0.00366508 0.00281982 -0.0018144 0.00612805 -0.0058317 -0.00108015 0.00873755 -0.00668352 -0.00528423 0.009453 -0.010306
internal_weight=256.373 233.502 22.8708 216.883 159.973 53.4914 106.481 38.8327 56.9109 23.694 33.2169 95.2435 20.0651 18.7676 85.9681 62.1145 23.4932 23.8535
internal_count=714 651 63 605 447 149 298 108 158 66 92 267 56 52 241 174 65 67
is_linear=0
shrinkage=0.0102786


Tree=18
num_leaves=21
num_cat=0
split_feature=38 30 30 4 49 20 31 14 25 1 0 15 35 37 46 1 37 20 31 1
split_gain=13.3982 13.2457 12.9649 12.617 10.3803 9.80567 10.2881 9.02815 8.50107 7.57064 6.87507 6.80763 6.24523 5.94732 5.61264 5.58126 5.38931 3.89556 3.39158 0.363085
threshold=25.087709702405554 101945.25000000031 -1364128.0999999994 111.20200000000001 -0.70872306587066392 54.232453799905471 0.044824752431071306 0.0088745001779285699 0.11816553839924092 0.97704805811075757 184.72300000000004 0.013535135777124304 -0.08991974343316593 43.608528271365032 180.53753997536813 0.99790159725486738 25.67886252093211 73.674562628285187 0.084496409981005285 1.006815486550414
decision_type=2 2 2 2 2 2 2 2 2 2 2 2 2 2 2 2 2 2 2 2
left_child=7 2 3 -2 9 11 -7 8 10 -5 13 -6 -13 16 19 -3 -1 -8 -9 -4
right_child=1 15 14 4 5 6 17 18 -10 -11 -12 12 -14 -15 -16 -17 -18 -19 -20 -21
leaf_value=0.0065356302876968114 -0.0087137342007166003 0.00052103845135227948 -0.013217010073032616 0.00097272567642643507 -0.010363453041342617 0.0094189510461524066 -0.0053821842432577394 0.012030049108416017 -0.0064589758092436231 0.01265568223494285 -0.0041008398654877225 -0.0089712427208753099 0.00059435400157795311 0.010539264031865343 -0.0035670642264629916 0.011052009378791567 -0.0027211287767442867 0.0032325458667223903 0.0040705389209758219 -0.010107003462929708
leaf_weight=14.244201183319094 19.069104671478271 10.121727406978609 9.7373211979866046 12.737740933895113 13.857073932886122 14.617901772260664 12.735941618680956 13.870692640542986 11.985954433679579 10.87070646882057 10.868090629577635 9.736860662698744 27.366158038377762 13.868799477815626 16.843691945075989 11.241274297237394 12.365308195352553 9.7428827285766584 9.7465806901454908 9.7389666438102704
leaf_count=38 51 27 26 34 37 39 34 37 32 29 29 26 73 37 45 30 33 26 26 26
internal_value=7.73312e-06 -0.00153189 -0.00250738 -0.000995843 0.000323516 -0.00129833 0.00271767 0.0033449 0.00131745 0.00637087 0.00313922 -0.00422451 -0.00191904 0.00508888 -0.00793701 0.00607971 0.00223098 -0.00164276 0.00876401 -0.0116935
internal_weight=275.367 188.417 167.054 130.734 111.665 88.0568 37.0967 86.9496 63.3324 23.6084 51.3464 50.9601 37.103 40.4783 36.32 21.363 26.6095 22.4788 23.6173 19.4763
internal_count=735 503 446 349 298 235 99 232 169 63 137 136 99 108 97 57 71 60 63 52
is_linear=0
shrinkage=0.0102786


Tree=19
num_leaves=17
num_cat=0
split_feature=22 28 18 19 14 30 47 15 47 5 3 41 0 43 28 13
split_gain=7.04416 5.71153 5.08381 9.17255 11.2195 4.48479 7.56466 4.17242 2.88869 4.87374 7.27659 2.90369 4.32339 1.69305 1.27042 1.26305
threshold=36.250123345823418 0.64058010953671152 3.0814285714285732 0.02634294095398124 0.024999541464626077 -1326817.2499999993 -0.01365413619559048 0.027003278212289036 -0.020800706218797305 0.97520721492184292 0.97395884102684416 0.51117847338300082 175.54700000000005 3.5000000000000004 1.2756043990352752 -0.0041050413651120823
decision_type=2 2 2 2 2 2 2 2 2 2 2 2 2 2 2 2
left_child=1 2 15 4 -4 6 -5 8 -3 10 -10 14 13 -13 -11 -1
right_child=-2 7 3 5 -6 -7 -8 -9 9 11 -12 12 -14 -15 -16 -17
leaf_value=-0.0075891517340952955 0.010537766687383619 -0.0076500482847694611 0.025301735514404095 0.015809775018265301 0.0018304573048104102 -0.0060288704801700361 -0.0033606152886976703 0.0056153059098839704 -0.0027681732891990905 -0.0076493179974243429 0.01473969046024495 -0.0076106042139976807 0.0066928991276100245 0.00018467937172122803 -0.0018187590399618512 0.00034026813299746608
leaf_weight=4.6401757746934891 6.1592953056097022 12.471221864223478 4.3226172029972094 3.8974976837635014 4.2868296504020691 6.4700228869915 4.810524210333825 6.1483817547559729 6.3326489925384504 16.656655937433246 4.0903415381908417 6.6227656304836291 5.6867861300706855 5.2054121047258377 5.3033885508775702 3.8147382140159589
leaf_count=32 41 86 29 26 29 45 33 42 44 116 28 46 39 36 37 26
internal_value=-9.47598e-05 -0.000750128 0.00281294 0.00524678 0.013695 0.00042141 0.00523635 -0.00242961 -0.00322814 -0.00211473 0.00411901 -0.00376691 -0.000633337 -0.00417878 -0.0062538 -0.00400975
internal_weight=106.919 100.76 32.2424 23.7875 8.60945 15.178 8.70802 68.5176 62.3692 49.898 10.423 39.475 17.515 11.8282 21.96 8.45491
internal_count=735 694 220 162 58 104 59 474 432 346 72 274 121 82 153 58
is_linear=0
shrinkage=0.0102786


Tree=20
num_leaves=15
num_cat=0
split_feature=46 31 39 29 19 45 31 33 36 22 12 38 29 31
split_gain=16.9013 13.881 10.3041 8.86295 10.3676 9.0378 10.4195 11.2932 7.68811 5.84678 4.06909 3.66143 5.00677 2.52405
threshold=110.70440698498284 -1.4686460527160143 1.0151122300801652 0.63401024362500424 0.019771839718735317 115.40512915931785 0.090671338774537161 7.7100000000000017 41.321657287766755 -5.201043757630166 0.0017444144719299672 20.70125952793364 0.78725270489605659 0.011395165846946645
decision_type=2 2 2 2 2 2 2 2 2 2 2 2 2 2
left_child=-1 -2 11 -4 10 9 8 -8 -7 -6 -5 -3 13 -13
right_child=1 2 3 4 5 6 7 -9 -10 -11 -12 12 -14 -15
leaf_value=0.010118847760562055 0.0079260938330726199 -0.011068125600785466 -0.0092878681332142221 0.0026942354168061379 0.011415571251194535 -0.0012976962241681544 0.0078101295813295807 -0.0022649731055884663 -0.0077146643483779623 0.00082184570921230464 0.012282646381993447 -0.011080237650380039 0.00015217746942845496 -0.0037114410420572281
leaf_weight=16.410126000642776 18.447274804115295 10.289278030395506 10.709539979696272 9.3862297832965869 9.7927887737751025 51.239408135414124 21.282214552164078 26.129708617925644 32.123593181371689 12.591264784336088 9.4315758347511274 10.2936107814312 16.109744429588318 9.6230812668800336
leaf_count=45 51 29 30 26 27 143 59 73 90 35 26 29 45 27
internal_value=2.9783e-05 -0.000640251 -0.00133223 -0.000233145 0.000331926 -0.0005525 -0.00158673 0.00225726 -0.00377474 0.00547524 0.00752379 -0.00566029 -0.00410105 -0.00754195
internal_weight=263.859 247.449 229.002 182.686 171.977 153.159 130.775 47.4119 83.363 22.3841 18.8178 46.3157 36.0264 19.9167
internal_count=735 690 639 509 479 427 365 132 233 62 52 130 101 56
is_linear=0
shrinkage=0.0102786


Tree=21
num_leaves=21
num_cat=0
split_feature=38 30 30 4 13 19 19 24 30 14 46 1 31 47 35 40 3 13 1 1
split_gain=13.1327 13.072 12.7658 12.3339 9.83701 9.80781 17.5036 10.3339 16.3276 6.93881 5.53634 5.50136 5.45746 4.60324 3.88513 3.79786 3.37713 5.17872 2.88474 0.361938
threshold=25.087709702405554 101945.25000000031 -1364128.0999999994 111.20200000000001 -0.013745030993409844 0.026487143934297266 0.038134674830509613 108.13021614076042 -2959071.149999999 -0.038250068966576116 180.53753997536813 0.99790159725486738 0.011395165846946645 -0.0049741032314635164 -0.055347019943349667 1.0091985196985969 0.97180049293061399 -0.0083943205918220447 1.0010863744545262 1.006815486550414
decision_type=2 2 2 2 2 2 2 2 2 2 2 2 2 2 2 2 2 2 2 2
left_child=4 2 3 -2 13 7 16 -5 12 -6 19 -3 -9 14 -1 18 -7 -18 -11 -4
right_child=1 11 10 5 9 6 -8 8 -10 15 -12 -13 -14 -15 -16 -17 17 -19 -20 -21
leaf_value=-0.0028444499709724216 -0.0086205022207391929 0.00052556420737722332 -0.013127323972776642 0.0074612055819645324 -0.0019715317676747665 0.012551757507118809 -0.0057775004734374677 -0.0042171745142463328 0.0046872923751701528 0.0063196646414424192 -0.0035345309507580813 0.010981206450759088 -0.01200594067562359 -0.0064288503608021848 0.0063113446376159054 0.0035057457617634798 0 0.010086882919921774 0.012765197375167535 -0.010024094474070964
leaf_weight=9.7396679222583789 19.053292214870453 10.121262431144716 9.732320964336397 9.7441885471343976 9.742055267095564 11.245931297540663 13.853238105773924 22.096640318632126 16.118169814348221 14.237638890743257 16.839832037687302 11.241199910640715 16.846151351928711 11.615230917930601 9.7467998862266558 16.112158566713333 9.74698558449745 11.995326787233354 15.741171061992643 9.7348249554634076
leaf_count=26 51 27 26 26 26 30 37 59 43 38 45 30 45 31 26 43 26 32 42 26
internal_value=7.66039e-06 -0.00151687 -0.00248619 -0.000986159 0.00331184 0.000318042 0.00390068 -0.00227007 -0.00399909 0.00589144 -0.00787498 0.00604464 -0.00759921 -0.00131593 0.00173124 0.00755684 0.0079715 0.00557679 0.00972158 -0.011607
internal_weight=275.304 188.369 167.007 130.7 86.9347 111.647 46.8415 64.8052 55.061 55.833 36.307 21.3625 38.9428 31.1017 19.4865 46.091 32.9882 21.7423 29.9788 19.4671
internal_count=735 503 446 349 232 298 125 173 147 149 97 57 104 83 52 123 88 58 80 52
is_linear=0
shrinkage=0.0102786


Tree=22
num_leaves=17
num_cat=0
split_feature=22 28 16 18 49 29 15 47 5 3 16 3 13 1 21 23
split_gain=6.89513 5.6224 5.45021 10.5978 6.39883 6.46482 4.12275 2.87902 4.8253 7.09548 4.13792 6.83042 2.40635 1.52575 0.542421 0.199114
threshold=36.250123345823418 0.64058010953671152 0.020178803092162526 3.0814285714285732 -0.2067368163196189 0.85907160602864796 0.027003278212289036 -0.020800706218797305 0.97520721492184292 0.97395884102684416 0.019068828622439544 1.0141882081255587 0.0090872116123288955 0.99056592329870086 46.527818798729285 121.53718297681813
decision_type=2 2 2 2 2 2 2 2 2 2 2 2 2 2 2 2
left_child=1 2 3 -1 -5 -6 7 -3 9 -9 13 14 -4 -10 -12 -15
right_child=-2 6 12 4 5 -7 -8 8 10 -11 11 -13 -14 15 -16 -17
leaf_value=-0.0045344082429329587 0.010380456576124479 -0.007643167385671684 -0.0062623162793126489 0.020352300197864541 0.015031035811191973 -0.0029252499431368104 0.0055647982236911586 -0.0027494595241002963 -0.0004458489473169522 0.014495103960591395 -0.0020802251854703854 0.010141766303793832 0.0030594892321904273 -0.004801539168914121 -0.007568131901672037 -0.0076486940687317114
leaf_weight=6.6361939162015942 6.2099542468786231 12.393142968416212 7.4507500380277616 5.0909928530454627 4.0328046530485135 4.3684395104646683 6.1700973361730567 6.3126660287380201 4.2899699509143856 4.1337428390979767 3.7175896167755109 5.152164414525032 4.7448947578668594 3.7045763731002834 4.1662510931491852 18.32570281624794
leaf_count=46 41 86 51 34 27 30 42 44 30 28 26 35 32 26 29 128
internal_value=-9.35656e-05 -0.000744902 0.00278309 0.00606602 0.0112886 0.00570766 -0.00241577 -0.00321292 -0.00210224 0.00409007 -0.00375209 0.000972423 -0.00262548 -0.00609551 -0.00502261 -0.00718622
internal_weight=106.9 100.69 32.3241 20.1284 13.4922 8.40124 68.3659 62.1958 49.8027 10.4464 39.3563 13.036 12.1956 26.3202 7.88384 22.0303
internal_count=735 694 220 137 91 57 474 432 346 72 274 90 83 184 55 154
is_linear=0
shrinkage=0.0102786


Tree=23
num_leaves=19
num_cat=0
split_feature=46 29 28 8 23 30 22 25 30 2 14 41 15 27 18 13 14 41
split_gain=16.4558 11.6801 9.72323 9.04759 13.9985 9.67912 10.8082 8.57222 8.31098 13.8949 6.22064 5.73327 4.8194 11.1592 3.29461 2.87658 2.43156 0.492771
threshold=110.70440698498284 0.63401024362500424 0.80717500669990683 115.51513208105371 133.70897637310392 -112492.44999999969 -26.249370716350416 0.11816553839924092 139359.40000000034 157.10300000000004 0.028944235276307521 0.47762949954632755 0.015005808211393227 83841.190000000017 5.3799999999999981 -0.0059642108781426386 -0.018659330557878325 0.34355486172316135
decision_type=2 2 2 2 2 2 2 2 2 2 2 2 2 2 2 2 2 2
left_child=-1 16 7 -4 15 6 -6 12 9 11 -8 -9 13 -3 17 -5 -2 -14
right_child=1 2 3 4 5 -7 10 8 -10 -11 -12 -13 14 -15 -16 -17 -18 -19
leaf_value=0.0099695972319150464 -0.0040666772160951594 -0.0093196466684776005 0.0096617713923440353 -0.0024021754945834795 -0.0043098668334172257 -0.003876263727576594 0.0086409682509695634 -0.0052504448422667658 -0.0066294882714835641 0.01294654609535094 0.001010821314291742 0.0049671107483683329 -0.0077989513360336308 0.0038370442218725411 -0.0024058414737393361 -0.010197145140570421 -0.011021675596824083 -0.011100607802969554
leaf_weight=16.456435054540634 10.009447336196901 11.702590405941011 14.486606538295744 9.2923063933849352 11.807994723320006 17.925285190343857 40.160625040531158 13.607509434223177 11.088805645704268 11.256571739912031 15.77526271343231 10.045225083827971 9.2504556477069908 16.163526326417923 9.2909340858459455 11.025918483734129 11.673505157232283 12.783490806818007
leaf_count=45 28 33 40 26 33 50 111 38 31 31 44 28 26 45 26 31 33 36
internal_value=2.93762e-05 -0.0006329 5.93995e-05 0.00205335 0.00100875 0.00282946 0.00460723 -0.00222282 0.00110275 0.00356788 0.00649398 -0.000903854 -0.00480861 -0.00168848 -0.00757381 -0.00665124 -0.00783134 -0.00973794
internal_weight=263.802 247.346 225.663 120.474 105.987 85.6692 67.7439 105.189 45.9981 34.9093 55.9359 23.6527 59.191 27.8661 31.3249 20.3182 21.683 22.0339
internal_count=735 690 629 335 295 238 188 294 128 97 155 66 166 78 88 57 61 62
is_linear=0
shrinkage=0.0102786


Tree=24
num_leaves=20
num_cat=0
split_feature=38 30 30 23 38 35 31 13 2 35 14 46 1 29 11 48 40 1 1
split_gain=12.8862 12.7852 12.5488 13.5966 9.89101 12.115 17.8197 9.64635 7.67628 6.87018 6.8269 5.44336 5.42692 5.05505 5.04579 4.53393 3.72337 2.84915 0.363306
threshold=25.087709702405554 101945.25000000031 -1364128.0999999994 180.61049076436115 33.078610961689286 -0.08991974343316593 0.010555892343329749 -0.013745030993409844 127.75500000000001 -0.016770980572835822 -0.038250068966576116 180.53753997536813 0.99790159725486738 0.97556245336111169 -0.092470502334813076 -0.010902521535943342 1.0091985196985969 1.0010863744545262 1.006815486550414
decision_type=2 2 2 2 2 2 2 2 2 2 2 2 2 2 2 2 2 2 2
left_child=7 2 3 4 9 -6 13 15 -8 -2 -9 18 -3 -7 -11 -1 17 -12 -4
right_child=1 12 11 -5 5 6 8 10 -10 14 16 -13 -14 -15 -16 -17 -18 -19 -20
leaf_value=0.0022964068571559573 -0.010862084523851546 0.00049346065054481315 -0.013029723622380663 0.010442700681569968 -0.0076605742233883754 0.0036811186557283142 0.0013095213539029453 -0.0019635080564999173 -0.008465132416859613 0.0032124753381135638 0.0062508546144790251 -0.0035019566113188134 0.010878041712954577 0.012097711807463439 -0.0068748828340868783 -0.0055682600251544872 0.0034766146581660636 0.012657380740275342 -0.0099246613173137339
leaf_weight=16.859778225421909 17.946432411670685 10.12118247151375 9.7254072129726428 10.119996845722197 16.837569296360016 15.357933282852175 19.464476972818375 9.7417249679565412 14.971000075340269 9.7337811887264269 14.23418700695038 16.835721909999847 11.241250634193419 14.992035180330275 11.229733824729918 14.236864447593687 16.110853016376495 15.734719783067701 9.7284691631793958
leaf_count=45 48 27 26 27 45 41 52 26 40 26 38 45 30 40 30 38 43 42 26
internal_value=7.62888e-06 -0.00150286 -0.00246184 -0.000974399 -0.00193738 9.44714e-05 0.00211577 0.00328089 -0.00294077 -0.00619909 0.00583567 -0.00780599 0.00597505 0.00785406 -0.002187 -0.00130211 0.00748794 0.00963191 -0.0115083
internal_weight=275.223 188.305 166.943 130.653 120.533 81.623 64.7854 86.9181 34.4355 38.9099 55.8215 36.2896 21.3624 30.35 20.9635 31.0966 46.0798 29.9689 19.4539
internal_count=735 503 446 349 322 218 173 232 92 104 149 97 57 81 56 83 123 80 52
is_linear=0
shrinkage=0.0102786


Tree=25
num_leaves=18
num_cat=0
split_feature=22 38 7 37 38 22 13 12 19 7 50 17 41 50 29 27 37
split_gain=6.7398 5.41561 5.33824 4.69804 7.99486 10.0677 8.01702 6.81442 3.69724 3.54106 2.99124 4.22603 1.41786 0.584327 0.195649 0.182809 0.135984
threshold=36.250123345823418 73.056217299320267 1.0831136944838706 50.273115962126717 28.379003463965585 -4.3054264292344824 -0.0041050413651120823 -0.0044600584903189957 0.025726185774253285 1.0061564964376097 0.25293574319644135 0.90969128229722263 0.21604020099527285 0.20589441683013479 0.66380077375475921 86098.655000000013 26.526890570480909
decision_type=2 2 2 2 2 2 2 2 2 2 2 2 2 2 2 2 2
left_child=1 2 3 4 5 7 -7 8 -1 12 11 -5 -6 -13 -12 -14 -9
right_child=-2 -3 -4 10 9 6 -8 16 -10 -11 14 13 15 -15 -16 -17 -18
leaf_value=0.013542855183312861 0.010216022932692194 0.010144370544904491 0.0092338375392040095 0.0064211872971879427 -0.0013680026389867909 0.0046705804746792184 0.023785777725172964 -0.0075999625550357214 -0.00033056453547856794 0.0037519233997930987 -0.0048026348112867089 -0.0075966483643999201 -0.0048224920565338907 -0.0021607381060814168 -0.0076362689833281852 -0.0076475758811761782 -0.0047837950268819632
leaf_weight=3.8369577825069445 6.2637155801057807 4.5661790817975989 4.8165734708309165 5.0605095177888861 6.5363667309284272 5.7954361587762833 3.8795768171548826 5.7561335712671298 4.2123269289731979 5.3648062497377387 3.704307988286021 5.0667059421539289 3.7241236269474056 3.7629466354846954 17.708229809999466 13.136647164821623 3.6865584850311279
leaf_count=26 41 30 32 34 45 40 26 40 29 37 26 35 26 26 125 91 26
internal_value=-9.22663e-05 -0.000739307 -0.0012623 -0.00182189 2.92721e-05 0.00402739 0.0124178 -0.000623054 0.00629929 -0.00374242 -0.00475543 -0.00102374 -0.00547057 -0.00531691 -0.00716285 -0.00704527 -0.006541
internal_weight=106.878 100.614 96.0482 91.2316 55.9289 27.167 9.67501 17.492 8.04928 28.7619 35.3027 13.8902 23.3971 8.82965 21.4125 16.8608 9.44269
internal_count=735 694 664 632 386 187 66 121 55 199 246 95 162 61 151 117 66
is_linear=0
shrinkage=0.0102786


Tree=26
num_leaves=17
num_cat=0
split_feature=4 29 38 19 17 7 16 13 50 6 2 50 15 36 14 36
split_gain=15.2382 9.96848 8.85046 11.6442 8.67956 11.3463 8.40335 7.6759 7.60431 6.91151 6.69182 6.29592 5.01261 4.88303 3.16333 1.12115
threshold=111.20200000000001 0.63401024362500424 22.034475367256402 0.018641061828222238 1.2660140426701418 1.0230646295599792 0.017290877634114996 -0.0067067440137639203 0.23151942926307237 162.94300000000001 182.11350000000002 0.25836578264632931 0.022450944542127423 59.96996041531245 -0.018659330557878325 61.915520292187345
decision_type=2 2 2 2 2 2 2 2 2 2 2 2 2 2 2 2
left_child=13 14 6 -4 5 8 -3 -8 12 -10 11 -7 -5 -1 -2 -9
right_child=1 2 3 4 -6 10 7 15 9 -11 -12 -13 -14 -15 -16 -17
leaf_value=0.013823206663380171 -0.0030448125309189508 -0.0093880855555290368 0.0098485451138590249 -0.0045056178442880526 0.0086781008066126528 -0.0090127513235908115 0.0043270739883794077 -0.002540487587810654 -0.00039031146652661618 0.0069417840418835221 -0.011058448165309482 0.00076451472540139238 0.0034567039274994503 0.0034656821572175969 -0.010962156086214246 -0.0072891919332034151
leaf_weight=9.9199137985706347 10.007742762565615 17.755793809890747 14.833515644073485 25.749824494123459 12.037196755409239 9.9334747791290265 16.922347635030746 10.686506450176241 22.560824155807495 33.937640577554703 12.40046241879463 22.920308172702789 12.300023108720778 9.457602530717848 11.63332027196884 10.672107130289076
leaf_count=27 28 50 41 72 33 28 47 30 63 94 35 64 34 26 33 30
internal_value=2.88853e-05 -0.000666893 -1.85226e-05 0.00116898 0.0003177 -0.000403403 -0.00355148 -0.000833436 0.00162131 0.00401318 -0.00463446 -0.0021947 -0.00192694 0.00879328 -0.0073201 -0.00492936
internal_weight=263.729 244.351 222.71 166.673 151.84 139.803 56.0368 38.281 94.5483 56.4985 45.2542 32.8538 38.0498 19.3775 21.6411 21.3586
internal_count=735 682 621 464 423 390 157 107 263 157 127 92 106 53 61 60
is_linear=0
shrinkage=0.0102786


Tree=27
num_leaves=13
num_cat=0
split_feature=2 17 31 17 27 29 6 2 17 17 39 12
split_gain=10.6478 10.3138 9.47957 8.19673 9.7088 13.1451 13.1186 12.2635 6.28635 5.80212 3.44796 1.08968
threshold=110.45100000000001 0.63850153073161897 -2.1121624421887275 1.25561996092728 143941.02000000005 1.1840680249310405 170.73690000000002 158.37000000000003 1.0036271312020768 0.9663140190023024 1.0312782709308841 0.0020928307193879285
decision_type=2 2 2 2 2 2 2 2 2 2 2 2
left_child=-1 -2 -3 4 5 6 7 -4 -8 -6 -11 -7
right_child=1 2 3 -5 9 11 8 -9 -10 10 -12 -13
leaf_value=-0.0076449255064213869 -0.0087326170539991452 -0.0083258564990010189 0.0021992560036962153 -0.0065014536694801266 0.0030907724624106982 0.012485552678587232 0.0031765032821519956 -0.0061751598300816548 0.011628906141044202 -0.00082241208623469843 -0.0072046532749300354 0.0079329067798146139
leaf_weight=17.903127044439316 11.960406392812727 10.842964351177214 69.661700218915939 12.70739760994911 17.230804473161697 12.364348143339159 19.860633373260498 25.096294581890106 17.610973596572876 17.223569512367249 18.716854780912399 11.241257220506666
leaf_count=48 32 29 186 34 46 33 53 67 47 46 50 30
internal_value=-1.89204e-06 0.000558294 0.00103819 0.00149824 0.00198647 0.00328062 0.00201632 -1.88261e-05 0.00716113 -0.0018033 -0.00415454 0.010341
internal_weight=262.42 244.517 232.557 221.714 209.006 155.835 132.23 94.758 37.4716 53.1712 35.9404 23.6056
internal_count=701 653 621 592 558 416 353 253 100 142 96 63
is_linear=0
shrinkage=0.0102786


Tree=28
num_leaves=16
num_cat=0
split_feature=24 13 1 37 35 35 41 30 31 25 37 47 34 29 11
split_gain=6.26542 4.67776 6.8989 8.3923 6.58987 7.12614 8.33115 5.37503 3.55916 3.91609 7.30053 2.14577 0.804743 0.660828 0.200321
threshold=103.5777104008104 -0.0027497748990883415 1.002628703990702 43.1426583225389 0.081206157390750225 -0.022079233560793606 0.5183486238373618 -2440443.4499999993 -0.92719790664747237 0.095187498964440162 27.819986340077651 -0.015446064193148581 0.056916558032925453 0.97080525159104158 2.482278069757121
decision_type=2 2 2 2 2 2 2 2 2 2 2 2 2 2 2
left_child=-1 8 3 -3 5 6 11 -5 -2 10 -10 -4 -7 -12 -11
right_child=1 2 4 7 -6 12 -8 -9 9 14 13 -13 -14 -15 -16
leaf_value=0.01095389703683285 0.0033404087359099098 0.020034864633057214 -0.0075695836845409443 -0.0053793088867309293 0.0096352229181802286 -0.0076324504548287266 0.015734167512755685 0.011028454001650458 0.0077704308807755376 -0.0076544427861035659 -0.0076045594175195427 0.0030413448604118543 -0.0022829184910741042 -0.0022611598600053399 -0.004809831223425454
leaf_weight=4.9140218198299399 7.4278696328401557 4.038525164127349 4.1695840507745743 4.6166194677352896 5.2939454913139334 15.437273204326635 3.9093098193407059 3.8099567741155616 6.6128790676593807 18.984592676162723 7.3931103944778425 3.8030318319797498 3.8344777822494498 3.8454198092222214 3.7117858231067649
leaf_count=32 51 27 29 32 35 109 26 26 45 132 52 26 26 27 26
internal_value=-0.000318182 -0.000895726 0.00133845 0.00792724 -0.000917212 -0.00272524 0.00352007 0.00203925 -0.00317579 -0.00437522 -0.000761035 -0.00250003 -0.00658264 -0.00580386 -0.00720505
internal_weight=101.802 96.8884 48.9127 12.4651 36.4476 31.1537 11.8819 8.42658 47.9757 40.5478 17.8514 7.97262 19.2718 11.2385 22.6964
internal_count=701 669 336 85 251 216 81 58 333 282 124 55 135 79 158
is_linear=0
shrinkage=0.0102786


Tree=29
num_leaves=12
num_cat=0
split_feature=45 31 6 6 39 27 13 31 27 38 15
split_gain=13.3249 11.4577 8.41977 10.2562 9.1102 9.65075 7.84517 8.52425 3.77169 3.10625 3.23837
threshold=109.86226857027496 -2.1121624421887275 111.54130000000002 114.88300000000001 1.0151122300801652 76817.730000000025 0.018200290958393987 0.044824752431071306 138384.16500000004 23.612261380345156 0.013909848477858953
decision_type=2 2 2 2 2 2 2 2 2 2 2
left_child=-1 -2 -3 -4 9 -6 7 -7 -8 -5 -11
right_child=1 2 3 4 5 6 8 -9 -10 10 -12
leaf_value=0.010307581238270937 0.0098438740599145255 0.0073134561371249488 -0.008855929006353163 -0.0089005869968482067 0.0088282219526268357 -0.00068814295335778485 -0.0072728970714707672 0.0058798371663066279 -0.00091334231479082539 0.00092184670975227294 -0.0066940458241602366
leaf_weight=12.857935100793837 10.92432329058647 12.383294790983198 17.783102989196777 14.798684298992155 13.038875102996824 78.108360230922699 20.995911926031113 28.434481590986252 18.667045295238495 11.782475411891939 11.696619421243666
leaf_count=35 30 34 50 42 36 218 59 79 52 33 33
internal_value=0.000131394 -0.000418005 -0.000912665 -0.00138775 -0.000712972 0.000368799 -0.000386863 0.00106494 -0.00428749 -0.00521284 -0.00287096
internal_weight=251.471 238.613 227.689 215.306 197.522 159.245 146.206 106.543 39.663 38.2778 23.4791
internal_count=701 666 636 602 552 444 408 297 111 108 66
is_linear=0
shrinkage=0.0102786


Tree=30
num_leaves=19
num_cat=0
split_feature=17 14 31 31 17 6 24 3 22 14 47 22 24 38 7 19 40 17
split_gain=10.4695 10.6895 10.5496 12.4892 9.01137 8.00077 7.60778 7.47271 7.44089 10.3373 6.69777 10.7059 6.59923 6.4995 6.9443 5.57522 3.83479 3.27774
threshold=0.63850153073161897 0.016830860025316034 0.034152814488648146 -2.1121624421887275 1.2052528711400614 112.20950000000001 107.53793548466359 0.99793515816544576 -6.2672066953438614 0.085286358923803998 -0.015544388028838859 -22.896808224199642 152.71506183146676 25.743909247611501 0.97059146725113321 0.033565192416090121 0.99730094051415585 0.92093299800497319
decision_type=2 2 2 2 2 2 2 2 2 2 2 2 2 2 2 2 2 2
left_child=-1 2 3 -2 5 -3 -5 -4 9 -7 11 -8 -9 16 -15 -13 -12 -10
right_child=1 4 7 6 -6 8 10 12 17 -11 13 15 -14 14 -16 -17 -18 -19
leaf_value=-0.0085766357843367631 -0.010744556268528965 -0.0033216481508538953 -0.01229154563049302 -0.0045524145502383621 -0.0042133015935504857 0.0077590653914517728 0.0082327121959674607 -0.0070535300045561885 0.0065711025786414955 -0.0048788899149081692 0.0049760890220941012 -0.0072937931291849637 0.0032020573872860469 0.0065528030599760166 -0.0053596579605719175 0.00096446601950720171 0.012485590161031967 0.013226754352913228
leaf_weight=14.188393682241438 9.7090438604354841 10.470962464809416 12.343282908201216 19.067100793123245 13.468564152717589 16.482871472835541 11.6109661757946 15.31642132997513 16.481322586536415 11.6160551905632 16.859069317579273 17.215157121419907 11.608594626188276 10.487217426300051 10.113462835550306 17.220597207546234 12.734646260738371 15.355348855257033
leaf_count=38 26 28 33 51 36 44 31 41 44 31 45 46 31 28 27 46 34 41
internal_value=-1.64274e-06 0.000489357 -0.00103425 0.000424881 0.00347443 0.00494872 0.00137006 -0.00567901 0.00639729 0.00252986 0.00254635 -0.000281994 -0.0026283 0.00514202 0.000698521 -0.00316349 0.00822512 0.00979853
internal_weight=262.349 248.161 164.286 125.017 83.8751 70.4066 115.308 39.2683 59.9356 28.0989 96.2411 46.0467 26.925 50.1944 20.6007 34.4358 29.5937 31.8367
internal_count=701 663 439 334 224 188 308 105 160 75 257 123 72 134 55 92 79 85
is_linear=0
shrinkage=0.0102786


Tree=31
num_leaves=14
num_cat=0
split_feature=24 17 7 37 22 34 38 32 25 29 2 7 28
split_gain=6.11081 6.25062 4.67476 4.79801 8.71385 12.4572 4.33183 6.07454 3.86749 2.95387 4.11505 1.55526 0.836154
threshold=103.5777104008104 0.63850153073161897 1.0831136944838706 49.50589957682385 4.4511382083027167 -0.0047483648718141249 21.659032207336612 -19.619999999999987 0.10933057252171512 1.1196458023968476 173.26350000000005 1.0122130561007265 0.50395638661733766
decision_type=2 2 2 2 2 2 2 2 2 2 2 2 2
left_child=-1 -2 3 4 6 -6 8 -8 -3 12 -11 -9 -5
right_child=1 2 -4 9 5 -7 7 11 -10 10 -12 -13 -14
leaf_value=0.010759212045141509 0.01006575975817515 0.0080009575644999463 0.0089103109973129278 -0.0023896432446963616 -0.0016479578005802829 0.022335787489293848 0.0081625765357037673 -0.0067435571517670814 -0.0048324983842132404 0.0059766714967755168 -0.0075618608253654003 -0.00083894168572372395 -0.0076423176275546394
leaf_weight=4.9629655182361594 5.1638793796300879 7.1716737747192365 4.2877908945083609 3.9239497780799892 5.1302105933427811 4.0670395195484144 3.8549995422363201 22.662098363041888 3.7338859140872955 5.2350841313600522 4.2684571444988251 6.037033110857009 21.262156575918198
leaf_count=32 34 49 28 27 35 27 26 159 26 36 30 42 150
internal_value=-0.000315383 -0.000888959 -0.00151206 -0.00202925 -7.03916e-05 0.0089933 -0.00199845 -0.00387787 0.00359203 -0.00499492 -9.50627e-05 -0.0055095 -0.0068349
internal_weight=101.761 96.7983 91.6344 87.3466 52.6569 9.19725 43.4597 32.5541 10.9056 34.6896 9.50354 28.6991 25.1861
internal_count=701 669 635 607 364 62 302 227 75 243 66 201 177
is_linear=0
shrinkage=0.0102786


Tree=32
num_leaves=13
num_cat=0
split_feature=45 31 11 6 6 0 31 20 13 38 38 7
split_gain=13.003 11.1723 8.48976 10.2082 8.83256 7.91511 14.1181 8.0164 7.16396 5.96178 5.52947 4.11016
threshold=109.86226857027496 -2.1121624421887275 -3.9020227460258865 111.77670000000002 114.66170000000001 172.30100000000002 0.090671338774537161 55.054939883439609 0.018476259946182187 56.775048969980944 16.03077789356194 0.9762250676484524
decision_type=2 2 2 2 2 2 2 2 2 2 2 2
left_child=-1 -2 8 -4 -5 6 7 -6 9 -3 -7 -12
right_child=1 2 3 4 5 10 -8 -9 -10 -11 11 -13
leaf_value=0.010170459455277602 0.0097054224664863548 0.012567120136888522 0.0070012284619095453 -0.011012958274089829 -0.00022323384327628721 0.0026439793598607825 0.0092931564298558596 -0.0088275450620170642 -0.0037941237666391787 0.0023357954624073462 -0.011092118587675977 -0.0043133982920009377
leaf_weight=12.88712418079376 10.953734487295149 10.554376542568209 13.121746301650999 11.658793449401854 74.290300041437149 9.6167147755622846 14.785485863685606 13.490414202213286 9.3802868127822858 14.080933213233946 12.05817013978958 44.535008370876312
leaf_count=35 30 29 36 33 208 27 41 38 26 39 34 125
internal_value=0.000129979 -0.000413512 -0.000902848 -0.00173574 -0.00237335 -0.00177318 1.41346e-05 -0.00155069 0.00382863 0.00673849 -0.00454244 -0.0057672
internal_weight=251.413 238.526 227.572 193.557 180.435 168.776 102.566 87.7807 34.0156 24.6353 66.2099 56.5932
internal_count=701 666 636 542 506 473 287 246 94 68 186 159
is_linear=0
shrinkage=0.0102786


Tree=33
num_leaves=20
num_cat=0
split_feature=17 14 31 31 17 24 3 15 47 22 10 37 35 22 11 12 7 13 14
split_gain=10.2765 10.4953 10.3718 12.2182 8.86447 7.46767 7.36832 7.17397 6.57445 10.5374 7.62871 5.66569 5.56846 7.06062 8.18322 5.88777 4.60962 4.41593 3.6899
threshold=0.63850153073161897 0.016830860025316034 0.034152814488648146 -2.1121624421887275 1.2052528711400614 107.53793548466359 0.99793515816544576 0.020104663550881443 -0.015544388028838859 -22.896808224199642 -0.73069779373276578 42.183234884952114 0.0029686065681617806 -6.2672066953438614 2.119973846601019 0.007866879302144027 0.90590693448147952 0.0015076767834716345 0.096724481932199582
decision_type=2 2 2 2 2 2 2 2 2 2 2 2 2 2 2 2 2 2 2
left_child=-1 2 3 -2 12 -5 -4 -8 9 -7 17 -12 -3 18 15 -15 -11 -10 -14
right_child=1 4 6 5 -6 8 7 -9 10 16 11 -13 13 14 -16 -17 -18 -19 -20
leaf_value=-0.008500556010667128 -0.01063264512538222 0.011407587880186271 -0.012200380310598511 -0.0045124325679857056 -0.0041823464986248393 0.0081674857307328375 -0.0068375754317040955 0.0040232909781051911 0.011612662259149928 0.00069599939683745785 -0.0041986192645359381 0.0062273433268342244 0.0029086782702024195 0.0085583381427899001 0.013157719061229116 -0.0015314793328448603 -0.0068148204841537987 0.0030121394585817707 -0.0055647345733242093
leaf_weight=14.177078276872633 9.6974889636039716 11.605784654617308 12.335015058517454 19.059834450483322 13.465611129999159 11.609454005956648 16.430901229381565 10.483436912298201 18.349012821912766 16.844411671161652 11.990396708250051 10.10915821790695 11.608556330204012 10.858458131551744 12.355386555194853 13.839982330799101 17.585461914539337 9.733926445245741 10.116428792476652
leaf_count=38 26 31 33 51 36 31 44 28 49 45 32 27 31 29 33 37 47 26 27
internal_value=-1.4784e-06 0.000484942 -0.00102504 0.00042186 0.00344319 0.00135644 -0.00563172 -0.00260204 0.00252188 -0.00028045 0.00509391 0.000566676 0.00490571 0.00361248 0.00633845 0.00290527 -0.0031395 0.00864542 -0.00103334
internal_weight=262.256 248.079 164.228 124.979 83.8502 115.282 39.2494 26.9143 96.2218 46.0393 50.1825 22.0996 70.3846 58.7788 37.0538 24.6984 34.4299 28.0829 21.725
internal_count=701 663 439 334 224 308 105 72 257 123 134 59 188 157 99 66 92 75 58
is_linear=0
shrinkage=0.0102786


Tree=34
num_leaves=14
num_cat=0
split_feature=24 17 7 37 38 13 34 32 39 7 34 28 12
split_gain=5.95847 6.07902 4.58856 4.75693 5.39497 5.88724 5.54459 5.59149 3.72135 2.04784 1.29029 1.54975 0.527751
threshold=103.5777104008104 0.63850153073161897 1.0831136944838706 49.50589957682385 21.659032207336612 -0.0027497748990883415 1.0000000180025095e-35 -19.619999999999987 1.0187361911146 1.0122130561007265 0.060422346812751666 0.48850723819356967 -0.012754236743110601
decision_type=2 2 2 2 2 2 2 2 2 2 2 2 2
left_child=-1 -2 3 4 5 8 7 -6 -3 -9 11 -5 -13
right_child=1 2 -4 10 6 -7 -8 9 -10 -11 -12 12 -14
leaf_value=0.01056720763799953 0.0098587455833318571 0.0080921238829247434 0.0087876214364235906 8.7590411357436917e-05 0.0080882498359241758 0.015181652537467201 0.0078057292443170414 -0.0060686805431125817 -0.0054272198393039445 0.0014072480084230895 -0.00048778896033666101 -0.0039392869064612144 -0.0076310917128795883
leaf_weight=5.0121004432439795 5.2212039232254019 3.870852664113043 4.3176631182432166 3.9425374865531948 3.8721054047346035 4.4555484205484381 5.2722494900226584 25.932326272130023 4.7345899641513824 4.4974364638328543 5.7223045527935019 5.6163964271545437 19.248128667473793
leaf_count=32 34 26 28 27 26 30 36 182 33 31 39 40 137
internal_value=-0.000312242 -0.000881815 -0.0015005 -0.00201564 -6.72445e-05 0.00564767 -0.00196092 -0.00347375 0.000646507 -0.00495857 -0.0049779 -0.00586283 -0.00681081
internal_weight=101.715 96.7033 91.4821 87.1645 52.6351 13.061 39.5741 34.3019 8.60544 30.4298 34.5294 28.8071 24.8645
internal_count=701 669 635 607 364 89 275 239 59 213 243 204 177
is_linear=0
shrinkage=0.0102786


Tree=35
num_leaves=15
num_cat=0
split_feature=8 31 6 11 17 20 47 7 13 27 23 31 0 7
split_gain=11.0867 10.6752 9.44626 10.5917 12.4284 6.90457 8.53164 7.09706 6.25716 5.79383 4.07806 3.942 7.71368 1.00568
threshold=109.6213715474954 -2.1121624421887275 111.54130000000002 -3.9020227460258865 1.25561996092728 55.054939883439609 -0.003204502190128329 1.0009931774830161 0.018476259946182187 80974.945000000007 187.11727184816678 0.071194186532130693 172.42700000000002 1.0305777165495711
decision_type=2 2 2 2 2 2 2 2 2 2 2 2 2 2
left_child=-1 -2 -3 8 5 6 9 -8 10 -5 -4 13 -13 -7
right_child=1 2 3 4 -6 11 7 -9 -10 -11 -12 12 -14 -15
leaf_value=0.010524823360997358 0.0095611968716700288 0.0076489678420844105 0.010152435806835653 0.0018984745651843739 0.0088936691385157005 -0.011072604539863069 0.0085769570749978808 -0.00078080953834617638 -0.0030366524766456222 -0.0049006396441334645 0.0016346771197253737 0.0016003702982859041 -0.007977373844854108 -0.0065181703653580175
leaf_weight=10.349514007568358 10.982513725757597 13.155529230833052 14.547160923480989 16.892810463905334 9.8756442666053754 13.109382450580599 13.310980498790739 23.788660645484924 9.7423992753028852 60.451047331094742 10.122753649950026 16.008873581886292 19.828997910022736 9.1721267402172071
leaf_count=28 30 36 40 47 27 37 37 67 27 170 28 45 56 26
internal_value=0.000128516 -0.000319051 -0.000793055 -0.00130721 -0.00229437 -0.00293743 -0.00146959 0.00257842 0.00391859 -0.00341353 0.00667167 -0.00582223 -0.00369792 -0.00921955
internal_weight=251.338 240.989 230.006 216.851 182.439 172.563 114.443 37.0996 34.4123 77.3439 24.6699 58.1194 35.8379 22.2815
internal_count=701 673 643 607 512 485 321 104 95 217 68 164 101 63
is_linear=0
shrinkage=0.0102786


Tree=36
num_leaves=13
num_cat=0
split_feature=11 46 17 17 29 18 8 37 19 23 32 6
split_gain=13.6458 13.8568 11.3542 10.5925 9.96514 12.668 9.35554 7.10859 6.55391 4.47239 3.32906 1.82289
threshold=-3.9020227460258865 111.62862824328442 1.2660140426701418 0.63850153073161897 0.65232325003840119 2.5439285714285731 115.09702113104149 62.609078998896059 0.026487143934297266 187.11727184816678 -0.79499999999998738 163.79680000000005
decision_type=2 2 2 2 2 2 2 2 2 2 2 2
left_child=9 7 3 -3 10 -6 -7 -2 -8 11 -5 -1
right_child=1 2 -4 4 5 6 8 -9 -10 -11 -12 -13
leaf_value=-0.0052311321871368567 -0.011760179906233974 -0.0086111327936682462 -0.0095287498635087346 0.013124937110567406 -0.0091935082245552559 -0.005336066873326252 0.00078297329257143004 -0.00025898846611551363 0.005202760489754178 -0.0011312533485206451 0.0049498435953425554 -0.010867211523604181
leaf_weight=10.466404438018801 13.745789647102358 9.7033593654632551 9.6932235360145551 10.476008445024492 10.832922577857969 15.346623361110685 67.788539290428162 9.7009969055652601 74.494367361068726 12.72571289539337 10.852329552173613 15.298807412385939
leaf_count=28 37 26 26 28 29 41 181 26 199 34 29 41
internal_value=-0.000469166 0.00046857 0.00130943 0.0018386 0.00237535 0.00153515 0.00227557 -0.00701648 0.00309887 -0.00613505 0.00898936 -0.00859517
internal_weight=271.125 232.634 209.187 199.494 189.791 168.462 157.63 23.4468 142.283 38.4909 21.3283 25.7652
internal_count=725 622 559 533 507 450 421 63 380 103 57 69
is_linear=0
shrinkage=0.0102786


Tree=37
num_leaves=12
num_cat=0
split_feature=38 7 32 0 24 48 30 46 41 24 38
split_gain=9.19649 6.3493 4.50569 4.74114 5.11052 6.60177 6.38341 5.78188 3.29333 3.5225 2.2162
threshold=71.524317886360308 1.0816060188116696 -20.09 189.93400000000003 148.28930632695798 0.010492152148165125 -3184466.5 184.25172812833424 0.080407650172670139 104.27338517692515 26.765637999845225
decision_type=2 2 2 2 2 2 2 2 2 2 2
left_child=1 2 -1 4 8 6 -6 -8 -4 -10 -11
right_child=-2 -3 3 -5 5 -7 7 -9 9 10 -12
leaf_value=0.0086769466877104091 0.013752418812003396 0.0094398720044633292 0.0058822420632003592 -0.0076290358996893431 0.010865737240238142 0.014035094571444169 -0.0044011778883140066 0.0086712463096325337 0.0049707652540385075 -0.0019763604611198254 -0.007175214233498226
leaf_weight=4.3560470044612876 4.7473051697015753 5.939983442425727 3.7588956952095023 13.317059144377707 4.9432418495416668 4.2166511863470069 18.997500479221348 4.3567169904708853 4.010205850005149 14.46697576344013 22.054549247026443
leaf_count=29 31 38 26 94 33 28 134 29 26 101 156
internal_value=-0.000163604 -0.000828222 -0.00147911 -0.00197529 -0.000989598 0.00210068 0.000299651 -0.0019455 -0.00326134 -0.00411793 -0.0051243
internal_weight=105.165 100.418 94.4778 90.1218 76.8047 32.5141 28.2975 23.3542 44.2906 40.5317 36.5215
internal_count=725 694 656 627 533 224 196 163 309 283 257
is_linear=0
shrinkage=0.0102786


Tree=38
num_leaves=12
num_cat=0
split_feature=45 31 6 6 29 46 0 49 17 27 36
split_gain=15.119 11.1349 10.0337 11.2441 8.3566 10.1476 18.8904 8.37309 10.4271 7.3362 3.40714
threshold=109.86226857027496 -2.1121624421887275 111.77670000000002 114.66170000000001 0.53443347934928198 166.8301593192538 160.83400000000003 0.16451646417992302 0.84378713040443853 149689.38750000004 79.734301061047503
decision_type=2 2 2 2 2 2 2 2 2 2 2
left_child=-1 -2 -3 -4 -5 6 9 8 -7 -6 -9
right_child=1 2 3 4 5 7 -8 10 -10 -11 -12
leaf_value=0.01063710301649041 0.0093927774877372913 0.008549400819284134 -0.010184719397868112 -0.0098633053805052533 -0.0012644531870812377 0.0082306521812944167 0.012988580641689756 -0.011043184764267985 -0.002489821630071715 0.0053627483052931029 -0.0039889990131194439
leaf_weight=14.780924767255781 12.47106423974037 12.064293891191481 13.365541100502012 9.5057364702224714 69.885305225849152 11.925798177719114 14.537813216447828 12.732798367738726 48.110573410987854 23.55929496884346 17.077148795127869
leaf_count=40 34 33 38 27 196 33 40 36 135 65 48
internal_value=0.000555955 -5.27207e-05 -0.000560965 -0.00106111 -0.000470391 -1.63947e-05 0.00210597 -0.0025686 -0.000353734 0.000406437 -0.00701785
internal_weight=260.016 245.235 232.764 220.7 207.334 197.829 107.982 89.8463 60.0364 93.4446 29.8099
internal_count=725 685 651 618 580 553 301 252 168 261 84
is_linear=0
shrinkage=0.0102786


Tree=39
num_leaves=13
num_cat=0
split_feature=11 46 17 17 29 18 9 43 37 23 32 4
split_gain=13.3774 13.5526 11.1783 10.4256 9.79592 12.4785 10.2891 11.0744 6.98461 4.38043 3.27503 1.80799
threshold=-3.9020227460258865 111.62862824328442 1.2660140426701418 0.63850153073161897 0.65232325003840119 2.5439285714285731 115.10486662606685 1.5000000000000002 62.609078998896059 187.11727184816678 -0.79499999999998738 149.73050000000003
decision_type=2 2 2 2 2 2 2 2 2 2 2 2
left_child=9 8 3 -3 10 -6 -7 -8 -2 11 -5 -1
right_child=1 2 -4 4 5 6 7 -9 -10 -11 -12 -13
leaf_value=-0.0051610842430990303 -0.011651210867209515 -0.008549918678510746 -0.009462551720861306 0.013017485574077104 -0.0091305862682546594 -0.0060699422546684314 -0.001622978630412769 0.0048156422616147292 -0.00024511157335890327 -0.0011235512678206554 0.0049063929752769398 -0.01077571438645604
leaf_weight=10.460202246904375 13.719780862331392 9.6958904862403852 9.6845379471778852 10.467372685670854 10.826693087816237 14.217317581176756 38.550797462463379 104.83280798792839 9.6976996362209302 12.725091248750685 10.848490178585051 15.282879739999769
leaf_count=28 37 26 26 28 29 38 103 280 26 34 29 41
internal_value=-0.000463642 0.000464928 0.00129628 0.00182127 0.00235371 0.00152073 0.00225552 0.00308354 -0.00694249 -0.00607525 0.00891339 -0.00851167
internal_weight=271.01 232.541 209.124 199.439 189.743 168.428 157.601 143.384 23.4175 38.4682 21.3159 25.7431
internal_count=725 622 559 533 507 450 421 383 63 103 57 69
is_linear=0
shrinkage=0.0102786


Tree=40
num_leaves=13
num_cat=0
split_feature=38 7 15 17 29 17 29 39 22 6 29 29
split_gain=8.95678 6.23368 3.50925 4.56342 3.93269 5.43788 3.91189 7.55971 6.68213 3.47651 1.02717 0.828239
threshold=71.524317886360308 1.0816060188116696 0.027409062530215758 1.1090738522728139 0.69079138889142599 0.68281006918731346 1.0866636369903442 1.0205714509060904 -1.8412175163588029 206.61170000000001 0.56879065442803967 0.96089074989116685
decision_type=2 2 2 2 2 2 2 2 2 2 2 2
left_child=1 2 3 4 10 -6 7 -7 -8 -4 -1 -5
right_child=-2 -3 9 11 5 6 8 -9 -10 -11 -12 -13
leaf_value=-0.0019184057084419507 0.013487582277348175 0.0093157549196983894 0.011290225752000498 -0.0021355947876043257 0.0098184864717602589 0.003221934765838081 -0.0040835302298242743 -0.0066029275258427103 0.010646122093762462 -0.0021681925166057154 -0.0076294785705790678 -0.007619833345609164
leaf_weight=5.3765235543251029 4.8038603365421286 5.9804468750953665 4.286679342389105 3.7479925900697735 5.8179845958948126 14.100105613470076 5.8249931186437607 19.87441398203373 7.2553229779005033 3.7668191492557526 9.1972648799419385 15.098391532897947
leaf_count=37 31 38 28 26 38 97 41 141 50 26 64 108
internal_value=-0.000161498 -0.000821676 -0.00146954 -0.00207688 -0.000823362 0.000478234 -0.000680967 -0.00252214 0.00408315 0.004998 -0.00554371 -0.00654382
internal_weight=105.131 100.327 94.3465 86.293 67.4466 52.8728 47.0548 33.9745 13.0803 8.0535 14.5738 18.8464
internal_count=725 694 656 602 468 367 329 238 91 54 101 134
is_linear=0
shrinkage=0.0102786


Tree=41
num_leaves=14
num_cat=0
split_feature=8 29 18 27 17 9 29 36 17 11 35 50 11
split_gain=13.6892 11.6414 12.3822 11.7991 11.7698 10.1412 10.6273 12.3402 8.78926 6.93608 5.96487 4.42016 1.96273
threshold=109.78008597169911 0.63401024362500424 2.4000000000000035 139618.43500000003 1.25561996092728 115.10486662606685 0.80034837656483082 58.938542418648787 0.727550750478556 -3.4504339011317389 -0.086800949806836433 0.17199741679811578 -1.0533739942842224
decision_type=2 2 2 2 2 2 2 2 2 2 2 2 2
left_child=-1 12 -3 4 8 -5 -7 9 -4 -8 -10 -12 -2
right_child=1 2 3 5 -6 6 7 -9 10 -11 11 -13 -14
leaf_value=0.010674649297003702 -0.010916477704234926 0.011867117916435676 0.004660267211225773 0.013163155487452435 0.0090031488723546528 0.011990626480318428 0.0071814583269949953 -0.0070021526571515027 0.0043145758337783001 -0.0018375238370082687 -0.0086842375960006993 -0.003128481416015095 -0.0042429112972075618
leaf_weight=13.340056896209715 9.8362307548522967 9.8947218060493451 16.326398462057114 9.8530206084251386 10.266341865062712 9.4802505671977979 22.213974207639691 17.097478181123734 9.7172003686428052 15.077190220355989 18.254123240709305 89.455692023038864 9.1499557793140394
leaf_count=36 28 27 45 27 28 26 61 48 27 42 52 252 26
internal_value=0.000549228 0 0.000645334 0.000132607 -0.00157852 0.00347639 0.00197234 0.000215799 -0.00239429 0.00353304 -0.00337763 -0.00407431 -0.00772385
internal_weight=259.963 246.623 227.636 217.742 144.02 73.7219 63.8689 54.3886 133.753 37.2912 117.427 107.71 18.9862
internal_count=725 689 635 608 404 204 177 151 376 103 331 304 54
is_linear=0
shrinkage=0.0102786


Tree=42
num_leaves=13
num_cat=0
split_feature=11 46 17 17 29 18 9 43 37 23 32 0
split_gain=13.0843 13.2509 10.9461 10.2335 9.59646 12.1904 10.046 10.8836 6.90855 4.32257 3.23262 1.77908
threshold=-3.9020227460258865 111.62862824328442 1.2660140426701418 0.63850153073161897 0.65232325003840119 2.5439285714285731 115.10486662606685 1.5000000000000002 62.609078998896059 187.11727184816678 -0.79499999999998738 148.22800000000004
decision_type=2 2 2 2 2 2 2 2 2 2 2 2
left_child=9 8 3 -3 10 -6 -7 -8 -2 11 -5 -1
right_child=1 2 -4 4 5 6 7 -9 -10 -11 -12 -13
leaf_value=-0.0051079598228701206 -0.011558892282466733 -0.0084788208414326386 -0.0093714782087690948 0.012903824990205639 -0.0090292769340563402 -0.0059985175714431438 -0.0016173165540891916 0.0047659257203076155 -0.0002090277403173208 -0.0010913544246947417 0.0048429251139638753 -0.010679880625753249
leaf_weight=10.454926043748857 13.693634808063509 9.6867056488990766 9.6721347570419294 10.456613689661028 10.814828038215635 14.209291875362394 38.548217952251434 104.81078225374222 9.6926892399787885 12.722406834363936 10.845366150140761 15.263993978500364
leaf_count=28 37 26 26 28 29 38 103 280 26 34 29 41
internal_value=-0.000458323 0.000460143 0.00128201 0.00180137 0.00232882 0.00150437 0.00223042 0.00304853 -0.00686955 -0.00601014 0.00882363 -0.00843211
internal_weight=270.872 232.43 209.044 199.372 189.685 168.383 157.568 143.359 23.3863 38.4413 21.302 25.7189
internal_count=725 622 559 533 507 450 421 383 63 103 57 69
is_linear=0
shrinkage=0.0102786


Tree=43
num_leaves=12
num_cat=0
split_feature=38 7 32 0 24 17 28 41 24 41 38
split_gain=8.72229 6.11058 4.43751 4.70861 5.04281 6.32026 7.44316 3.23723 3.46598 2.45061 2.21158
threshold=71.524317886360308 1.0816060188116696 -20.09 189.93400000000003 148.28930632695798 0.68281006918731346 0.4944805491062973 0.080407650172670139 104.27338517692515 0.56502144185203762 26.765637999845225
decision_type=2 2 2 2 2 2 2 2 2 2 2
left_child=1 2 -1 4 7 -6 -7 -4 -9 -8 -10
right_child=-2 -3 3 -5 5 6 9 8 10 -11 -12
leaf_value=0.0085937868830940779 0.013228180281419685 0.0091827762752583302 0.0057951514677195655 -0.0076190701515013066 0.01184754988307928 0.012966597569528504 -0.004808648265421319 0.0048886427905225549 -0.0019555151480371521 0.0021629300108608621 -0.0071625445487862273
leaf_weight=4.3768689036369315 4.8603994250297538 6.0244567245244971 3.7814570367336264 13.189477875828741 5.7314566522836676 3.9384955167770412 14.538601085543634 4.0340580493211737 14.421354681253431 8.3303269296884519 21.867627993226051
leaf_count=29 31 38 26 94 37 26 103 26 101 58 156
internal_value=-0.000159214 -0.000814909 -0.00145945 -0.00195455 -0.000974332 0.00209098 -4.26124e-06 -0.00323897 -0.00409477 -0.00226345 -0.00510176
internal_weight=105.095 100.234 94.2097 89.8329 76.6434 32.5389 26.8074 44.1045 40.323 22.8689 36.289
internal_count=725 694 656 627 533 224 187 309 283 161 257
is_linear=0
shrinkage=0.0102786


Tree=44
num_leaves=14
num_cat=0
split_feature=8 31 6 6 9 23 28 38 17 17 16 16 15
split_gain=13.3679 10.7138 11.336 11.9396 7.7154 19.1378 8.64382 7.24445 5.8542 7.27308 10.6532 5.17544 4.58081
threshold=109.78008597169911 -2.1121624421887275 111.77670000000002 114.66170000000001 167.16096868682777 168.66820022609042 0.88446908233112664 25.087709702405554 0.7296730279311846 1.2462111864476559 0.022842852182647259 0.015566123955016034 0.016235724755198817
decision_type=2 2 2 2 2 2 2 2 2 2 2 2 2
left_child=-1 -2 -3 -4 5 6 11 -8 -6 10 -10 -5 -7
right_child=1 2 3 4 8 12 7 -9 9 -11 -12 -13 -14
leaf_value=0.010539584049762052 0.0092564003402360751 0.0091681318350179623 -0.010191808486659374 -0.0075080668473509844 0.0043144549902258411 0.005054121169035343 -0.0030953027997726 0.0055922579372170685 -0.0080539575357312116 0.0043511933668036124 0.00046557594063322368 -0.00090572333703835771 0.014540230102327963
leaf_weight=13.362631022930143 12.496330469846724 12.112697839736937 14.025471210479735 20.453916251659393 10.900917172431944 10.479626983404161 15.270405054092405 29.934960216283798 42.503821790218353 10.191294342279432 24.343813359737396 32.520470172166824 11.291210621595381
leaf_count=36 34 33 40 58 30 29 43 83 121 28 68 91 31
internal_value=0.000542651 -2.72033e-07 -0.000496686 -0.00102645 -0.000405535 0.00128896 -0.000644185 0.00265422 -0.00271802 -0.00371675 -0.00495082 -0.00346149 0.00999854
internal_weight=259.888 246.525 234.029 221.916 207.89 119.951 98.1798 45.2054 87.9398 77.0389 66.8476 52.9744 21.7708
internal_count=725 689 655 622 582 335 275 126 247 217 189 149 60
is_linear=0
shrinkage=0.0102786


Tree=45
num_leaves=16
num_cat=0
split_feature=17 0 17 20 22 29 12 12 14 34 41 14 25 27 1
split_gain=12.9342 11.3435 10.5081 8.2686 7.92772 7.16674 6.05563 6.13886 5.70479 9.90377 5.2629 5.23007 4.04747 6.1999 3.47021
threshold=0.65681985205009841 111.64300000000001 1.2639410687205357 32.970440087827654 -22.896808224199642 0.96089074989116685 0.006105749934848915 0.0026735829196437026 0.0080097341718337062 -0.0050623206858135253 0.78032218225197258 0.10201005957669913 0.08967141472340584 133365.99250000002 0.97921544324111254
decision_type=2 2 2 2 2 2 2 2 2 2 2 2 2 2 2
left_child=-1 5 3 4 -3 -2 7 8 9 -5 12 -10 -8 -14 -6
right_child=1 2 -4 6 14 -7 10 -9 11 -11 -12 -13 13 -15 -16
leaf_value=-0.0085253674071799901 -0.00094959723730431492 0.004121686947065893 -0.0077696906985910245 0.0056915747176062665 -0.0099696889791172673 -0.011719693092695709 -0.0053425735456312986 0.0114428452566587 0.0083690573078717637 -0.0032729285501857338 0.0071360786368976428 -0.00022489263572547411 0.0055785486596512945 -0.0034367364714319787 -0.0025299590332439857
leaf_weight=17.81008368730545 14.486901342868807 14.22141322493553 12.651358067989348 26.175892263650891 10.441259294748308 11.900753140449522 16.078402519226074 11.592958152294157 31.790459156036377 25.811285763978962 9.7246245145797712 9.7346310615539533 15.712475717067717 16.448179215192795 18.312721520662308
leaf_count=48 39 38 34 70 28 32 43 31 85 69 26 26 42 44 49
internal_value=-7.76892e-05 0.00053691 0.00130589 0.00186526 -0.00214222 -0.00582291 0.00292256 0.00439312 0.00351301 0.00123887 0.000252287 0.00635263 -0.00113723 0.000964732 -0.00524679
internal_weight=262.893 245.083 218.696 206.044 42.9754 26.3877 163.069 105.105 93.5123 51.9872 57.9637 41.5251 48.2391 32.1607 28.754
internal_count=704 656 585 551 115 71 436 281 250 139 155 111 129 86 77
is_linear=0
shrinkage=0.0102786


Tree=46
num_leaves=16
num_cat=0
split_feature=27 47 31 33 35 38 47 22 22 36 10 16 27 24 17
split_gain=6.57883 5.51207 8.44662 4.2966 9.70144 5.04153 2.96104 2.5283 2.45387 2.90912 2.38926 1.87111 3.22757 0.796587 0.181604
threshold=207055.75000000003 0.0227341234124901 0.18445094486326971 -4.1749999999999963 -0.033957228666999954 18.476329457382768 -0.041936309803697051 -26.249370716350416 -0.77454270966691741 45.233303933873621 -1.783487691645689 0.015566123955016034 79470.617500000022 181.44865985029864 1.1445010265231348
decision_type=2 2 2 2 2 2 2 2 2 2 2 2 2 2 2
left_child=1 3 -3 4 5 -1 -7 -5 -9 -10 14 12 -11 -13 -8
right_child=-2 2 -4 7 -6 6 10 8 9 11 -12 13 -14 -15 -16
leaf_value=0.0077423448517108511 0.011502975771407329 -0.0031662028248985669 0.016468282098883267 0.0036384474935063542 0.012159691314293126 0.0035948926414787192 -0.0076281097630540636 -0.0076164522682915844 0.0057562291111691762 -0.007525158790613393 0.00049913875915861552 -0.0076273771035798802 0.0043502970291052247 -0.0020019339752251871 -0.0047716533370262592
leaf_weight=5.2933964431285849 4.7615129947662345 4.5532319247722608 4.6241372227668762 4.5092186331748954 6.6804751753807059 5.419594630599021 12.066453099250795 16.002149894833561 3.7912871688604417 4.0068068504333514 6.2521090060472515 10.814842477440832 5.9604176878929138 3.6712875813245764 3.6733586490154257
leaf_count=36 30 30 29 31 44 36 85 115 26 29 43 76 42 26 26
internal_value=-0.000239826 -0.00082041 0.00673993 -0.00161199 0.00090962 -0.00139611 -0.00317496 -0.00365102 -0.00439983 -0.00256398 -0.00485346 -0.00386731 -0.000420157 -0.0062213 -0.00698467
internal_weight=102.08 97.3188 9.17737 88.1414 39.3854 32.7049 27.4115 48.756 44.2468 28.2446 21.9919 24.4534 9.96722 14.4861 15.7398
internal_count=704 674 59 615 270 226 190 345 314 199 154 173 71 102 111
is_linear=0
shrinkage=0.0102786


Tree=47
num_leaves=12
num_cat=0
split_feature=45 31 6 6 9 2 17 17 38 24 24
split_gain=14.4537 11.5828 8.41645 9.09322 8.58277 15.4426 9.37443 8.25721 9.42856 7.40971 12.9741
threshold=109.86226857027496 -1.864011461347318 111.77670000000002 114.66170000000001 167.16096868682777 159.30100000000002 1.2097760576902334 0.7296730279311846 15.845238882455051 148.28930632695798 142.60038545186896
decision_type=2 2 2 2 2 2 2 2 2 2 2
left_child=-1 -2 -3 -4 5 9 7 -6 -9 10 -5
right_child=1 2 3 4 6 -7 -8 8 -10 -11 -12
leaf_value=0.010136671174607233 0.0091785397698429978 0.0073431279767388023 -0.010027671123304799 -0.0018205839877631885 0.0039732206053295794 0.0095135533380210722 0.0051634130736802186 0.0028511044471567128 -0.0078919133843510514 -0.0079218194559124398 0.0077146731395043681
leaf_weight=14.47388783097267 12.51476991176605 12.140337646007536 12.240536510944365 65.225946068763733 9.8176907896995527 18.441044390201569 11.581863164901732 10.272316008806227 52.796870291233063 13.069534569978712 19.561549693346024
leaf_count=39 34 33 35 183 27 51 32 29 150 37 54
internal_value=0.000178701 -0.000428758 -0.000964979 -0.00144049 -0.000914296 0.000895869 -0.00340752 -0.00477358 -0.00613914 -0.000729895 0.000380231
internal_weight=252.136 237.662 225.148 213.007 200.767 116.298 84.4687 72.8869 63.0692 97.857 84.7875
internal_count=704 665 631 598 563 325 238 206 179 274 237
is_linear=0
shrinkage=0.0102786


Tree=48
num_leaves=17
num_cat=0
split_feature=17 0 17 29 33 43 27 27 6 8 22 6 38 43 15 7
split_gain=12.6578 11.1346 10.2974 7.08192 6.97192 6.98492 19.003 7.51172 7.49544 9.4376 4.38776 7.0333 3.9449 3.33723 1.86436 0.782997
threshold=0.65681985205009841 111.64300000000001 1.2639410687205357 0.96089074989116685 -7.4499999999999948 1.5000000000000002 99976.135000000009 137718.05250000002 171.21290000000002 158.39950307363776 -26.039633584945868 192.72570000000005 38.801679072286298 4.5000000000000009 0.019004979581438718 1.0238388421571558
decision_type=2 2 2 2 2 2 2 2 2 2 2 2 2 2 2 2
left_child=-1 3 4 -2 10 6 -6 8 9 -7 -3 12 -12 -9 -8 -10
right_child=1 2 -4 -5 5 7 14 13 15 -11 11 -13 -14 -15 -16 -17
leaf_value=-0.0084397556453020498 -0.00092835924988435476 0.0050882739206556289 -0.0076958137795962965 -0.011639829384052754 -0.0083884178887193954 0.0071783739242555324 0.0023165737762973534 0.0029440213161606088 0.0087770288008968099 -0.0013965040477174589 -0.0089974942617618917 0.0034685749265606896 -0.0018655671601596714 -0.0046307402112333446 0.0079694119164579885 0.012860959561552376
leaf_weight=17.785308212041855 14.479186564683916 9.7205283939838392 12.638878196477888 11.884409636259077 18.330650508403778 37.002537161111832 11.588269829750063 13.464057445526125 9.711348235607149 21.333036243915558 14.93472984433174 14.578662574291227 18.29799011349678 11.227125197649 13.469204187393187 12.32118037343025
leaf_count=48 39 26 34 32 49 99 31 36 26 57 40 39 49 30 36 33
internal_value=-7.67451e-05 0.000531095 0.00129291 -0.00577294 0.00184657 0.00302386 -0.000442327 0.00445635 0.00597923 0.00404129 -0.0011886 -0.00247103 -0.00508208 -0.000496275 0.00536893 0.0110869
internal_weight=262.767 244.982 218.618 26.3636 205.979 148.447 43.3881 105.059 80.3681 58.3356 57.5319 47.8114 33.2327 24.6912 25.0575 22.0325
internal_count=704 656 585 71 551 397 116 281 215 156 154 128 89 66 67 59
is_linear=0
shrinkage=0.0102786


Tree=49
num_leaves=17
num_cat=0
split_feature=24 17 2 7 11 38 46 5 10 42 29 22 49 32 48 41
split_gain=4.87779 4.83809 8.19221 4.92391 3.68778 5.53322 5.61314 2.4476 6.18953 7.82026 2.9184 4.24221 2.86976 0.634038 1.4596 0.129403
threshold=103.10165528456976 0.68281006918731346 152.93300000000002 1.0816060188116696 -2.4840025446786087 33.238927298819569 160.90434645098077 0.98527405494384557 -1.881914697405932 6.0000000000000009 1.1072649791304479 5.2076233565683205 -0.69248808015196872 3.9749999999999948 0.010728695326736483 0.45824402400679559
decision_type=2 2 2 2 2 2 2 2 2 2 2 2 2 2 2 2
left_child=-1 2 -2 4 5 -3 -7 8 -6 -10 13 -12 -11 -9 -15 -8
right_child=1 3 -4 -5 7 6 15 10 9 12 11 -13 -14 14 -16 -17
leaf_value=0.010111141471595168 -0.0050250732862248517 0.010355566331191944 0.014216389359436012 0.0093784123605047242 -0.0076047733067037011 0.0063357144573172892 -0.0076004912755536207 -0.0076236777296096675 0.014458193053888698 -0.0075588352956476043 -0.0075334261940728144 0.0051256687413512528 0.0033350654582352778 0.00074526589397874222 -0.0075803169424425235 -0.0048224406232038252
leaf_weight=4.5536836534738532 3.9657813161611539 5.6630153059959438 5.5685506910085678 4.1562113463878623 8.4565094858407992 5.8190869092941275 5.4831936061382276 19.376086011528972 4.6017512530088416 4.6444174498319617 4.9085322692990285 6.3870513588190079 5.5632412880659095 3.6495251655578596 5.5155350267887115 3.7237638980150223
leaf_count=28 27 39 35 26 60 39 38 139 31 33 36 44 38 26 39 26
internal_value=-0.000236975 -0.00072586 0.0062103 -0.00148197 -0.00202668 0.00173212 -0.00152729 -0.00326168 -0.000603997 0.00339361 -0.004808 -0.000369761 -0.00161762 -0.00655638 -0.00426051 -0.00651872
internal_weight=102.036 97.4823 9.53433 87.9479 83.7917 20.6891 15.026 63.1026 23.2659 14.8094 39.8367 11.2956 10.2077 28.5411 9.16506 9.20696
internal_count=704 676 62 614 588 142 103 446 162 102 284 80 71 204 65 64
is_linear=0
shrinkage=0.0102786


Tree=50
num_leaves=20
num_cat=0
split_feature=0 31 31 10 17 38 20 47 6 9 38 38 29 16 28 1 19 7 22
