tree
version=v4
num_class=3
num_tree_per_iteration=3
label_index=0
max_feature_idx=55
objective=multiclass num_class:3
feature_names=Column_0 Column_1 Column_2 Column_3 Column_4 Column_5 Column_6 Column_7 Column_8 Column_9 Column_10 Column_11 Column_12 Column_13 Column_14 Column_15 Column_16 Column_17 Column_18 Column_19 Column_20 Column_21 Column_22 Column_23 Column_24 Column_25 Column_26 Column_27 Column_28 Column_29 Column_30 Column_31 Column_32 Column_33 Column_34 Column_35 Column_36 Column_37 Column_38 Column_39 Column_40 Column_41 Column_42 Column_43 Column_44 Column_45 Column_46 Column_47 Column_48 Column_49 Column_50 Column_51 Column_52 Column_53 Column_54 Column_55
feature_infos=[1835.848:3730.0020000000004] [0.92116724401749528:1.058701717330139] [1853.9670000000001:3802.8760000000002] [0.88039473639776988:1.0893227616956505] [1891.3314999999998:3836.4834999999998] [0.83619939938618981:1.0913864305552559] [1937.7772:3939.8435999999997] [0.74776851566546254:1.1273460048981445] [1865.6789210046159:3779.3187611841186] [1899.1323814479624:3834.2467240307228] [-160.15831415052571:74.314342262026457] [-141.42705470051135:61.237891145952652] [-0.078767826583000522:0.064035798872080774] [-0.13255362523791847:0.10664379262376533] [-0.2783984321602172:0.14659299428369243] [0.0037851050551485827:0.029072963706990872] [0.0058777088310839904:0.024423343932012519] [0.24669354896697623:1.4520638061693421] [19.836428571428542:141.32928571428576] [0.0067251249564103163:0.060224350569288217] [7.2397404457343129:96.451671400984921] [0:99.999999999781835] [-72.899526183573883:65.976141655342204] [1991.5453421838565:4092.6625460510854] [1741.7457250166003:3670.3367858522183] [0.015529143259161264:0.34815027194481618] [-0.51399043846353309:1.3961642943695836] [316530.45445000002:2349142.1464999998] [0.091714231967499768:4.6230954847789496] [0.25229049076686011:1.9120177752496248] [-40939762.714000016:-1534873.995000022] [-2.4527283076219923:0.81294678259231712] [-504.88999999999987:383.90000000000009] [-656.84999999999991:430.0300000000002] [-0.21888939438044519:0.13040649473958632] [-0.25494890276841287:0.14898736274759017] [0.70144927536223822:99.828918036160587] [4.4487849389727536:94.549256657920296] [11.835857273173101:99.471153139978995] [1.0024759219949673:1.1578187431891955] [0.92123480101195621:1.0640320319469441] [0.0001300897619384062:0.94925249599040251] [0:20] [0:6] [0:1] [1853.8196107066708:3747.2607444870273] [1889.1872405571294:3819.2258049054635] [-0.081559717481628727:0.034879258935913586] [-0.063135960915280398:0.046852008333124084] [-3.0656227718526821:3.1180186545559359] [0.052090087753404131:0.96623830458743876] [0:1] none none none none
tree_sizes=562 652 668 640 531 726 754 525 735 742 548 632 729 532 731 634 534 646 626 607 721 640 607 716 553 624 697 734 626 642 642 443 719 634 526 716 631 610 828 632 629 635 632 528 635 734 530 730 639 532 630 732 629 616 620 617 728 649 629 645 732 525 720 731 535 711 649 706 722 740 617 724 717 532 618 719 441 635 720 533 642 748 440 628 742 710 705 761 627 645 625 715 646 712 623 613 647 703 645 626 533 649 647 624 644 648 533 626 655 529 727 738 706 823 718 529 743 741 533 731 743 445 716 647 612 655 736 618 653 636 626 654 731 630 739 634 622 640 648 545 714 650 617 654 739 446 731 706 530 752 760 533 617 730 628 740 744 616 712 737 631 721 737 611 740 722 718 719 645 615 707 731 690 618 723 620 747 725 621 617 655 645 631 648 649 718 745 649 722 737 533 633 655 621 699 824 650 660 554 620 633 658 610 741 649 622 650 715 702 646 572 609 733 572 549 748 726 515 616 750 616 629 631 624 738 657 518 658 653 513 616 741 514 825 715 533 742 725 619 619 653 451 615 737 532 726 738 537 737 733 450 732 613 438 716 716 538 627 736 625 629 634 536 627 737 535 539 736 622 629 631 532 722 630 449 736 628 536 795 607 536 618 613 451 722 779 449 714 628 531 800 711 529 737 632 543 761 739 535 735 618 531 648 737 612 637 804 517 617 556 512 629 643 537 649 649 536 724 632 535 536 637 510 620 621 523 721 619 429 628 601 617 718 648 430 713 622 597 703 742 430 655 715 605 718 727 625 622 628 532 710 720 626 621 625 616 719 709 534 619 622 613 729 746 614 633 710 442 728 736 226 632 629 532 539 645 442 631 651 567 748 617 625 634 621 568 744 537 619 747 628 563 619 620 534 746 624 521 626 710 515 629 709 521 531 616 427 715 635 614 621 634 428 537 626 345 649 639 532 618 705 441 722 623 442 653 735 226 634 697 539 533 730 425 697 749 546 697 547 542 615 719 528 613 621 531 646 727 518 696 657 532 621 652 435 454 643 615 533 727 610 642 543 429 643 735 527 613 732 432 621 615 525 713 646 433 628 701 226 709 720 226 637 538 345 814 603 610 725 520 614 721 609 614 628 624 610 636 615 527 720 702 534 624 726 226 626 721 226 697 712 226 712 621 226 616 650 226 702 621 226 516 722 608 637 620 598 452 614 611 536 621 612 528 610 527 526 623 528 533 627 516 717 703 518 546 712 431 549 528 427 623 537 429 542 530 431 542 524 226 710 700 440 620 622 430 599 704 430 685 619 344 714 629 344 702 642 444 551 572 342 630 622 431 632 742 343 635 572 226 623 623 430 550 534 345 534 453 344 546 654 226 547 656 344 545 771 344 548 632 226 437 538 526 732 636 527 623 646 226 530 636 226 615 622 226 531 548 226 706 613 514 794 624 434 546 430 517 607 452 517 619 542 616 724 453 528 622 609 601 639 602 600 637 625 519 525 624 515 610 754 516 540 629 548 604 613 443 542 618 438 542 713 439 539 618 436 527 627 226 226 621 440 620 518 528 609 612 525 534 611 430 636 618 443 601 527 428 448 518 430 433 627 534 538 617 226 636 536 436 226 435 226 226 434 437 452 536 226 452 226 533 615 638 530 524 539 618 527 558 532 537 541 533 441 561 226 536 709 619 350 627 517 537 706 522 350 621 617 451 623 627 452 625 629 452 623 226 535 538 226 532 622 444 558 539 446 706 539 226 625 452 226 517 529 226 528 629 431 450 521 226 602 614 427 431 530 226 453 534 226 226 546 226 722 614 343 536 630 226 728 428 226 724 602 344 452 610 343 727 517 523 618 602 614 618 526 621 616 603 614 226 518 623 430 514 523 619 619 226 631 723 226 531 535 226 620 226 226 448 549 226 543 723 226 539 610 513 532 610 226 624 611 344 628 629 528 600 599 443 614 697 512 701 604 516 528 601 516 526 624 517 522 622 533 625 696 518 527 520 529 446 616 609 452 529 511 226 531 613 544 531 526 453 530 612 452 531 431 543 705 433 226 612 434 226 638 435 226 527 518 226 614 518 226 723 526 226 611 528 526 610 537 526 620 535 612 616 534 629 615 529 526 431 523 701 703 226 526 535 226 615 612 226 611 427 226 617 618 226 699 517 226 528 704 226 542 628 226 623 620 226 637 616 226 654 620 444 720 524 444 623 538 226 530 365 226 443 450 226 617 438 226 614 440 226 540 440 226 527 607 226 512 528 226 527 529 226 516 440 227 615 442 227 529 521 227 615 612 529 611 613 227 618 701 227 526 708 527 620 605 227 695 613 529 718 548 227 227 560 227 456 460 227 529 451 227 446 453 227 443 456 227 446 618 508 540 712 432 543 621 428 630 615 553 624 433 432 545 706 519 615 625 227 653 528 227 608 452 227 528 455 227 524 539 227 655 720 227 536 535 227 625 528 227 529 537 227 514 520 227 517 528 227 540 615 227 603 610 520 515 528 613 605 433 532 513 446 520 613 227 446 517 227 441 602 614 515 227 625 428 227 512 601 442 432 515 454 533 515 432 451 435 455 227 621 621 433 432 517 436 434 596 520 524 615 432 521 602 432 432 514 602 227 528 600 227 432 688 227 602 613 227 432 603 227 434 346 227 436 602 433 227 426 343 227 510 435 346 518 429 227 515 227 227 514 343 227 701 227 227 540 227 227 531 227 458 453 227 456 454 227 458 227 227 456 602 602 600 616 526 617 435 612 617 537 524 431 617 442 617 517 529 614 436 450 443 535 227 436 526 227 516 530 227 430 529 227 443 530 453 529 615 520 542 637 431 530 622 430 529 614 428 532 619 344 532 696 227 227 602 227 455 615 227 227 552 529 227 522 530 453 435 227 227 539 227 227 534 601 518 438 714 520 533 520 628 534 519 432 604 514 628 227 429 432 346 227 623 535 227 513 346 227 443 533 227 341 537 227 539 227 227 535 610 431 227 431 430 227 433 518 227 616 520 227 519 433 227 432 433 227 530 227 618 436 227 514 434 227 617 432 227 533 523 227 517 227 227 433 533 434 632 536 531 515 626 531 605 227 531 446 624 227 633 541 227 547 572 227 445 572 227 430 574 227 431 227 227 518 227 227 518 574 227 444 441 519 617 441 514 610 440 517 612 441 431 530 442 436 617 227 430 615 227 227 520 542 227 519 227 227 603 227 227 515 535 227 433 534 227 431 619 444 432 520 612 431 694 521 519 704 434 227 618 613 521 705 436 434 227 227 441 227 227 612 227 227 443 227 227 346 432 227 439 227 227 530 227 227 443 227 227 442 227 227 441 227 227 442 227 227 434 227 227 443 455 227 526 227 227 526 457 227 526 457 227 227

Tree=0
num_leaves=4
num_cat=0
split_feature=23 19 22
split_gain=12.9174 8.00935 3.7036
threshold=3252.4163914000792 0.025881501051409357 15.807016331865546
decision_type=2 2 2
left_child=1 2 -1
right_child=-2 -3 -4
leaf_value=-0.84436649187586321 -0.80352000782104327 -0.81848649876975887 -0.82417544296634948
leaf_weight=106.37119102478027 70.175438523292542 53.924284338951111 48.384118139743805
leaf_count=288 190 146 131
internal_value=-0.824175 -0.830894 -0.838573
internal_weight=278.855 208.68 154.755
internal_count=755 565 419
is_linear=0
shrinkage=1


Tree=1
num_leaves=5
num_cat=0
split_feature=24 2 42 28
split_gain=1.23163 5.35597 1.04547 0.653526
threshold=2769.0027868542666 3113.1625000000004 14.000000000000002 0.87846841089751349
decision_type=2 2 2 2
left_child=2 3 -1 -2
right_child=1 -3 -4 -5
leaf_value=-1.7917993366709948 -1.7539729116950891 -1.782107695252535 -1.7812881693607596 -1.7812881693607596
leaf_weight=48.10902926325798 26.68055334687233 39.915788471698761 22.268808305263519 21.638559013605118
leaf_count=229 127 190 106 103
internal_value=-1.78129 -1.777 -1.78679 -1.76203
internal_weight=158.613 88.2349 70.3778 48.3191
internal_count=755 420 335 230
is_linear=0
shrinkage=1


Tree=2
num_leaves=5
num_cat=0
split_feature=8 19 20 48
split_gain=6.81542 8.22934 7.31595 3.85109
threshold=2937.0794588519116 0.013973952962461971 59.216191909959385 -0.0076057506804059751
decision_type=2 2 2 2
left_child=2 -2 3 -1
right_child=1 -3 -4 -5
leaf_value=-0.93399030897355595 -0.92949021486356587 -0.9521344057600305 -0.93536458977323145 -0.90425097011725319
leaf_weight=40.791579008102417 38.644653797149658 104.48369359970093 35.782086849212646 50.452742457389832
leaf_count=114 108 292 100 141
internal_value=-0.93399 -0.942392 -0.924828 -0.915005
internal_weight=270.155 143.128 127.026 91.2443
internal_count=755 400 355 255
is_linear=0
shrinkage=1


Tree=3
num_leaves=5
num_cat=0
split_feature=23 8 8 5
split_gain=11.4101 5.67512 3.22196 2.93246
threshold=3252.4163914000792 2778.5295944898285 2040.5222174743492 0.99587240526544152
decision_type=2 2 2 2
left_child=1 2 -1 -3
right_child=-2 3 -4 -5
leaf_value=-0.0054628688090899132 0.019414144145806018 0 0.013007763087060753 -0.023241228551185759
leaf_weight=54.932570189237595 70.431650787591934 41.30571573972702 48.333361208438873 63.775948137044907
leaf_count=149 190 112 131 173
internal_value=0 -0.00628165 0 -0.015582
internal_weight=278.779 208.348 103.266 105.082
internal_count=755 565 280 285
is_linear=0
shrinkage=0.0552008


Tree=4
num_leaves=4
num_cat=0
split_feature=39 25 43
split_gain=4.86436 1.25029 0.707542
threshold=1.011986124795164 0.062643327682205943 3.5000000000000004
decision_type=2 2 2
left_child=-1 -2 -3
right_child=1 2 -4
leaf_value=0.016357597552625804 0 -0.012384464428029976 0
leaf_weight=40.532283365726471 22.120734363794327 64.823021203279495 31.385125815868378
leaf_count=191 105 309 150
internal_value=0 -0.00579713 -0.00899625
internal_weight=158.861 118.329 96.2081
internal_count=755 564 459
is_linear=0
shrinkage=0.0552008


Tree=5
num_leaves=6
num_cat=0
split_feature=6 27 25 21 0
split_gain=6.8707 5.29148 5.86749 4.13556 3.74437
threshold=3064.6750000000006 800581.02705000015 0.054649353651600986 35.256020720047893 2070.3850000000007
decision_type=2 2 2 2 2
left_child=1 2 -1 -2 -3
right_child=3 4 -4 -5 -6
leaf_value=0 0 0.0091620173365406891 0.027384263434399037 -0.022457310746330561 -0.012456681854125837
leaf_weight=36.953203797340393 35.593751549720764 35.886163353919983 54.149152636528015 53.401763588190079 54.114229738712311
leaf_count=103 100 100 151 150 151
internal_value=0 0.00603892 0.0157949 -0.0126898 0
internal_weight=270.098 181.103 91.1024 88.9955 90.0004
internal_count=755 505 254 250 251
is_linear=0
shrinkage=0.0552008


Tree=6
num_leaves=6
num_cat=0
split_feature=2 16 7 2 6
split_gain=7.67483 4.67519 3.2499 2.91139 1.90889
threshold=3159.0050000000006 0.01057320860265175 1.014070649040937 2043.4285000000002 2932.4147000000003
decision_type=2 2 2 2 2
left_child=1 -1 3 -3 -5
right_child=-2 2 -4 4 -6
leaf_value=-0.022410137258221257 0.018331357086838519 -0.017189478819028818 0.011440362592356148 0.0098691033416034336 -0.0061257259585521173
leaf_weight=37.133867353200912 56.48681965470314 42.303339183330536 47.935608059167862 37.687537282705307 57.181747198104858
leaf_count=101 152 115 130 102 155
internal_value=0 -0.0044515 0 -0.00514331 0
internal_weight=278.729 222.242 185.108 137.173 94.8693
internal_count=755 603 502 372 257
is_linear=0
shrinkage=0.0552008


Tree=7
num_leaves=4
num_cat=0
split_feature=39 1 24
split_gain=4.39697 1.18695 1.80376
threshold=1.011986124795164 1.0094164449035274 2893.3460394064864
decision_type=2 2 2
left_child=-1 2 -2
right_child=1 -3 -4
leaf_value=0.015457660983815968 -0.015291487731449007 0 0
leaf_weight=41.041095554828644 54.330991640686989 27.730409488081932 35.617117345333099
leaf_count=191 261 133 170
internal_value=0 -0.00552439 -0.0089519
internal_weight=158.72 117.679 89.9481
internal_count=755 564 431
is_linear=0
shrinkage=0.0552008


Tree=8
num_leaves=6
num_cat=0
split_feature=23 43 13 0 38
split_gain=6.05025 3.81257 1.60208 0.730025 0.719499
threshold=3200.2051752446951 1.5000000000000002 -0.0075162953660368173 2104.9390000000008 35.845907982459714
decision_type=2 2 2 2 2
left_child=1 -1 -2 -3 -5
right_child=2 3 -4 4 -6
leaf_value=0.016854805236712674 0 0.0051588889923689998 -0.019689360733519096 -0.0092681576917828072 0
leaf_weight=59.732506304979324 35.411359667778015 50.358951807022095 46.340780049562454 35.815009772777557 42.334775865077972
leaf_count=166 100 140 131 100 118
internal_value=0 0.00533215 -0.0126507 0 -0.00336359
internal_weight=269.993 188.241 81.7521 128.509 78.1498
internal_count=755 524 231 358 218
is_linear=0
shrinkage=0.0552008


Tree=9
num_leaves=6
num_cat=0
split_feature=30 27 16 6 7
split_gain=8.49837 12.8282 3.24954 2.23963 0.474337
threshold=-9738747.8965000194 884142.20947500004 0.0098268431486870748 2947.4100000000008 0.98651596980924905
decision_type=2 2 2 2 2
left_child=1 3 -2 -1 -3
right_child=2 4 -4 -5 -6
leaf_value=-0.0024118807428704704 0 0 0.020548645157609072 -0.036470348468016424 0.0085764641498872057
leaf_weight=55.480628788471222 37.661068260669708 44.351625233888626 63.431778758764267 40.055053919553757 37.663973957300186
leaf_count=151 102 120 171 109 102
internal_value=0 -0.00712473 0.0129228 -0.0221274 0.00401957
internal_weight=278.644 177.551 101.093 95.5357 82.0156
internal_count=755 482 273 260 222
is_linear=0
shrinkage=0.0552008


Tree=10
num_leaves=4
num_cat=0
split_feature=9 0 1
split_gain=0.766929 5.65712 2.01427
threshold=2938.2978815631395 3106.8180000000007 1.0048679777957368
decision_type=2 2 2
left_child=2 -2 -1
right_child=1 -3 -4
leaf_value=-0.013101713119854605 0.019813417659725101 -0.0021878734307325415 0
leaf_weight=43.523112267255783 45.946282222867012 42.546967267990112 26.537582620978355
leaf_count=211 213 203 128
internal_value=0 0.00336738 -0.00436264
internal_weight=158.554 88.4932 70.0607
internal_count=755 416 339
is_linear=0
shrinkage=0.0552008


Tree=11
num_leaves=5
num_cat=0
split_feature=30 14 18 38
split_gain=7.98599 6.23465 4.81456 3.8346
threshold=-10976804.732000012 0.030575245995600301 45.67071428571429 30.691836500536386
decision_type=2 2 2 2
left_child=1 3 -2 -1
right_child=2 -3 -4 -5
leaf_value=0 0 -0.0008214006835742802 -0.019123032771869445 0.023264005908084574
leaf_weight=36.026718765497208 38.013359159231186 41.635704576969147 78.742240101099014 75.50152924656868
leaf_count=100 106 116 223 210
internal_value=0 0.00816419 -0.0109991 0.0161748
internal_weight=269.92 153.164 116.756 111.528
internal_count=755 426 329 310
is_linear=0
shrinkage=0.0552008


Tree=12
num_leaves=6
num_cat=0
split_feature=8 15 25 2 45
split_gain=6.26297 5.77899 1.82547 1.07347 5.67732
threshold=3190.4557158885796 0.011859595628005501 0.043362587642519858 2043.4285000000002 2752.8246130423272
decision_type=2 2 2 2 2
left_child=1 2 -1 -3 -5
right_child=-2 3 -4 4 -6
leaf_value=0 0.018034019510550323 -0.0016604357701618126 -0.022996307295347119 0.023394666927833083 0
leaf_weight=36.923637390136719 49.26169741153717 40.77591797709465 49.606479793787003 37.377939820289612 64.523867428302765
leaf_count=101 132 111 135 101 175
internal_value=0 -0.00365525 -0.0154561 0 0.00556739
internal_weight=278.47 229.208 86.5301 142.678 101.902
internal_count=755 623 236 387 276
is_linear=0
shrinkage=0.0552008


Tree=13
num_leaves=4
num_cat=0
split_feature=39 25 43
split_gain=3.75297 1.07764 0.702507
threshold=1.011986124795164 0.062643327682205943 3.5000000000000004
decision_type=2 2 2
left_child=-1 -2 -3
right_child=1 2 -4
leaf_value=0.014101223367777763 0 -0.011588247323961957 0
leaf_weight=41.819489404559135 22.204137340188026 63.625164151191711 30.988905921578407
leaf_count=191 105 309 150
internal_value=0 -0.00516789 -0.00822682
internal_weight=158.638 116.818 94.6141
internal_count=755 564 459
is_linear=0
shrinkage=0.0552008


Tree=14
num_leaves=6
num_cat=0
split_feature=6 5 13 17 7
split_gain=5.00282 4.5062 2.83748 2.82582 0.300629
threshold=3064.6750000000006 1.0268098658061076 -0.0089119161716807987 0.93613137022382131 0.98483132074223889
decision_type=2 2 2 2 2
left_child=1 3 -2 -1 -5
right_child=2 -3 -4 4 -6
leaf_value=0.019425718143251402 0 -0.0045649192479801145 -0.019166539556307573 0.0049863803743398945 0
leaf_weight=69.704117387533188 35.64470648765564 35.780192375183105 52.215928375720978 36.841271936893463 39.622449338436127
leaf_count=193 101 100 149 102 110
internal_value=0 0.00508679 -0.0109507 0.0110021 0
internal_weight=269.809 181.948 87.8606 146.168 76.4637
internal_count=755 505 250 405 212
is_linear=0
shrinkage=0.0552008


Tree=15
num_leaves=5
num_cat=0
split_feature=23 27 30 24
split_gain=7.94387 7.88348 2.47727 0.254469
threshold=3252.4163914000792 884142.20947500004 -9738747.8965000194 1986.6999643212855
decision_type=2 2 2 2
left_child=1 2 -1 -3
right_child=-2 3 -4 -5
leaf_value=-0.020020937090317516 0.016077594541891692 0 0 0.006718618569249343
leaf_weight=90.595551341772079 70.924374788999557 36.888010770082474 37.771030604839325 42.170372694730759
leaf_count=248 190 100 103 114
internal_value=0 -0.0053208 -0.0149697 0.00377764
internal_weight=278.349 207.425 128.367 79.0584
internal_count=755 565 351 214
is_linear=0
shrinkage=0.0552008


Tree=16
num_leaves=4
num_cat=0
split_feature=39 15 30
split_gain=3.41632 0.643938 0.334871
threshold=1.011986124795164 0.010566779271325346 -12115028.948000012
decision_type=2 2 2
left_child=-1 -2 -3
right_child=1 2 -4
leaf_value=0.013464525433499836 0 -0.010102458753743115 0
leaf_weight=42.194356754422188 21.337078735232353 56.266590863466263 38.523254126310349
leaf_count=191 101 278 185
internal_value=0 -0.00487525 -0.00705818
internal_weight=158.321 116.127 94.7898
internal_count=755 564 463
is_linear=0
shrinkage=0.0552008


Tree=17
num_leaves=5
num_cat=0
split_feature=6 7 13 17
split_gain=4.45876 4.07999 2.64542 1.45253
threshold=3064.6750000000006 0.98741405698241358 -0.0089119161716807987 0.87450012351970352
decision_type=2 2 2 2
left_child=1 -1 -2 -3
right_child=2 3 -4 -5
leaf_value=0.015822388559087762 0 0.0053861077354610152 -0.018365364797158931 -0.0067084723975823646
leaf_weight=66.243773132562637 35.603454381227493 49.5748171210289 51.869023889303207 66.389133393764496
leaf_count=183 101 137 149 185
internal_value=0 0.00477364 -0.0103852 0
internal_weight=269.68 182.208 87.4725 115.964
internal_count=755 505 250 322
is_linear=0
shrinkage=0.0552008


Tree=18
num_leaves=5
num_cat=0
split_feature=30 27 16 0
split_gain=4.59475 12.3118 1.8904 0.820207
threshold=-9738747.8965000194 935364.32505000022 0.011191475641364903 2790.489
decision_type=2 2 2 2
left_child=1 3 -2 -1
right_child=2 -3 -4 -5
leaf_value=0 0 0.0074938461094684137 0.016122368031130065 -0.026880332146691034
leaf_weight=50.441751807928085 43.616073817014694 68.774261206388474 52.165778547525406 58.615562915802002
leaf_count=138 118 186 140 161
internal_value=0 -0.00590517 0.00902382 -0.0191165
internal_weight=273.613 177.832 95.7819 109.057
internal_count=743 485 258 299
is_linear=0
shrinkage=0.0552008


Tree=19
num_leaves=5
num_cat=0
split_feature=8 30 1 24
split_gain=2.42116 4.70146 2.9998 0.58676
threshold=2909.9190166665808 -8612237.736500008 1.002900025777232 2939.4210140099744
decision_type=2 2 2 2
left_child=2 3 -1 -2
right_child=1 -3 -4 -5
leaf_value=-0.017740581808136535 0.026833180463845859 0 0 0
leaf_weight=41.083512142300606 27.361259996891022 38.332537740468979 27.657705441117287 21.496258869767189
leaf_count=204 123 181 135 100
internal_value=0 0.00641468 -0.007425 0.0191479
internal_weight=155.931 87.1901 68.7412 48.8575
internal_count=743 404 339 223
is_linear=0
shrinkage=0.0552008


Tree=20
num_leaves=6
num_cat=0
split_feature=2 19 16 19 10
split_gain=4.85204 5.27632 4.18268 3.92696 3.34541
threshold=2932.8150000000005 0.013973952962461971 0.015816976243406961 0.027092110052840106 -11.754978713771946
decision_type=2 2 2 2 2
left_child=3 -2 -3 4 -1
right_child=1 2 -4 -5 -6
leaf_value=0.028662605776983836 0.0014207597480466899 -0.024278096540057706 0 0 0
leaf_weight=37.566586524248123 37.629433542490005 59.085919082164764 41.293883204460144 44.626148253679276 45.196971774101257
leaf_count=103 105 168 118 124 125
internal_value=0 -0.0066378 -0.0148319 0.00826588 0.0158032
internal_weight=265.399 138.009 100.38 127.39 82.7636
internal_count=743 391 286 352 228
is_linear=0
shrinkage=0.0552008


Tree=21
num_leaves=5
num_cat=0
split_feature=47 30 19 11
split_gain=4.13265 7.58208 10.1928 0.00714118
threshold=0.011983590381422059 -9738747.8965000194 0.025622028547197442 -12.560199444689493
decision_type=2 2 2 2
left_child=1 2 -1 -3
right_child=-2 3 -4 -5
leaf_value=-0.022803893945992672 0.01520981777389164 0 0 0.010105227065595782
leaf_weight=102.50579655170441 41.832192093133926 37.179579198360443 54.73905411362648 37.146351486444473
leaf_count=282 113 100 148 100
internal_value=0 -0.00354792 -0.0118945 0.00712342
internal_weight=273.403 231.571 157.245 74.3259
internal_count=743 630 430 200
is_linear=0
shrinkage=0.0552008


Tree=22
num_leaves=5
num_cat=0
split_feature=8 0 1 43
split_gain=2.05223 4.77087 2.8375 0.513033
threshold=2909.9190166665808 3106.8180000000007 1.002900025777232 3.5000000000000004
decision_type=2 2 2 2
left_child=2 3 -1 -2
right_child=1 -3 -4 -5
leaf_value=-0.01715949168900413 0 0 0 0.028998056496955832
leaf_weight=40.432842180132866 26.007184967398643 39.263916730880737 27.573694884777069 22.706265524029732
leaf_count=204 117 188 135 99
internal_value=0 0.00583346 -0.00692308 0.0189704
internal_weight=155.984 87.9774 68.0065 48.7135
internal_count=743 404 339 216
is_linear=0
shrinkage=0.0552008


Tree=23
num_leaves=6
num_cat=0
split_feature=30 14 38 18 23
split_gain=7.24943 6.65189 3.66072 2.7655 2.24396
threshold=-10976804.732000012 0.032138244233455911 30.691836500536386 45.67071428571429 3351.5796060492903
decision_type=2 2 2 2 2
left_child=1 2 -1 -2 -5
right_child=3 -3 -4 4 -6
leaf_value=0 0 -0.0020899094630849086 0.023012652036209582 -0.025706211147203759 0
leaf_weight=36.208204448223114 35.731973439455032 39.543465197086334 78.851662009954453 40.624982535839081 34.219001650810242
leaf_count=100 100 110 217 116 100
internal_value=0 0.00824423 0.016309 -0.0102342 -0.0163503
internal_weight=265.179 154.603 115.06 110.576 74.844
internal_count=743 427 317 316 216
is_linear=0
shrinkage=0.0552008


Tree=24
num_leaves=4
num_cat=0
split_feature=35 30 19
split_gain=3.64549 6.22278 9.23678
threshold=0.033136228578744494 -9738747.8965000194 0.025622028547197442
decision_type=2 2 2
left_child=1 2 -1
right_child=-2 -3 -4
leaf_value=-0.023406142784779586 0.010699485297987754 0.0048890388456845962 0
leaf_weight=89.243274033069611 67.224891394376755 68.065304785966873 48.402739763259888
leaf_count=247 182 183 131
internal_value=0 -0.00407277 -0.012277
internal_weight=272.936 205.711 137.646
internal_count=743 561 378
is_linear=0
shrinkage=0.0552008


Tree=25
num_leaves=5
num_cat=0
split_feature=39 21 21 21
split_gain=4.3834 1.90664 0.944397 0.129977
threshold=1.011986124795164 72.384251462429418 41.101047347192342 22.839750407906241
decision_type=2 2 2 2
left_child=-1 2 3 -2
right_child=1 -3 -4 -5
leaf_value=0.015373734218063848 -0.0042907778846808858 0 -0.016989126190640681 0
leaf_weight=42.41540490090847 21.510806456208229 21.968874037265778 41.639967426657677 28.483226031064987
leaf_count=187 107 106 203 140
internal_value=0 -0.00541529 -0.00998784 0
internal_weight=156.018 113.603 91.634 49.994
internal_count=743 556 450 247
is_linear=0
shrinkage=0.0552008


Tree=26
num_leaves=6
num_cat=0
split_feature=8 20 18 48 4
split_gain=3.81242 4.08009 3.6298 3.39016 1.73032
threshold=2927.4427735809654 58.315440330531821 42.452142857142846 -0.0076057506804059751 3204.7157500000003
decision_type=2 2 2 2 2
left_child=1 3 -2 -1 -4
right_child=2 -3 4 -5 -6
leaf_value=0 0 0 -0.017578562168542086 0.025045894157920905 0
leaf_weight=43.306888699531555 35.863254100084305 36.005560994148254 68.994710445404053 46.854341834783554 34.255258560180664
leaf_count=119 100 100 196 128 100
internal_value=0 0.00724887 -0.00598748 0.0145403 -0.0124669
internal_weight=265.28 126.167 139.113 90.1612 103.25
internal_count=743 347 396 247 296
is_linear=0
shrinkage=0.0552008


Tree=27
num_leaves=6
num_cat=0
split_feature=16 47 8 16 3
split_gain=3.60151 5.83269 3.97791 2.92536 2.55844
threshold=0.0094322990809299154 0.0096397554544561479 2946.1291673158671 0.015807429691863703 0.98667606668838348
decision_type=2 2 2 2 2
left_child=-1 2 4 -4 -2
right_child=1 -3 3 -5 -6
leaf_value=-0.015138787668310403 0 0.022577667013844682 0.017795746049342524 0 -0.014495738863024929
leaf_weight=42.082032114267349 39.905372351408005 37.472553133964539 43.075578570365906 37.760951071977615 72.283640682697296
leaf_count=115 109 101 117 102 199
internal_value=0 0.0024016 0 0.00764775 -0.00811776
internal_weight=272.58 230.498 193.026 80.8365 112.189
internal_count=743 628 527 219 308
is_linear=0
shrinkage=0.0552008


Tree=28
num_leaves=5
num_cat=0
split_feature=39 21 21 21
split_gain=3.96058 1.84607 0.838566 0.127843
threshold=1.011986124795164 72.384251462429418 41.101047347192342 22.839750407906241
decision_type=2 2 2 2
left_child=-1 2 3 -2
right_child=1 -3 -4 -5
leaf_value=0.014465810163559297 -0.004257127394205612 0 -0.016545397385439763 0
leaf_weight=42.934379070997238 21.49342854321003 21.959523633122444 41.145855560898781 28.540082886815071
leaf_count=187 107 106 203 140
internal_value=0 -0.00522065 -0.00977302 0
internal_weight=156.073 113.139 91.1794 50.0335
internal_count=743 556 450 247
is_linear=0
shrinkage=0.0552008


Tree=29
num_leaves=5
num_cat=0
split_feature=30 6 0 18
split_gain=5.82279 6.77139 4.20405 2.58543
threshold=-10976804.732000012 2890.0576000000005 2066.2640000000006 45.67071428571429
decision_type=2 2 2 2
left_child=1 2 -1 -2
right_child=3 -3 -4 -5
leaf_value=0.0093125893481379313 0 0.024052917600239629 -0.012676705510166406 -0.015496792678136482
leaf_weight=57.478248625993729 35.646071881055832 49.116151213645935 48.694639086723328 74.275137364864349
leaf_count=157 100 135 135 216
internal_value=0 0.00707963 0 -0.00951861
internal_weight=265.21 155.289 106.173 109.921
internal_count=743 427 292 316
is_linear=0
shrinkage=0.0552008


Tree=30
num_leaves=5
num_cat=0
split_feature=16 7 19 19
split_gain=3.3277 5.44264 5.31377 4.4127
threshold=0.0094322990809299154 1.0251424294739 0.01751920543036271 0.025730438135956782
decision_type=2 2 2 2
left_child=-1 2 -2 -4
right_child=1 -3 3 -5
leaf_value=-0.014596405986233872 0.016270843937920755 0.019699291333049512 -0.015627085914508971 0
leaf_weight=41.964298725128174 36.80320817232132 45.824553161859512 81.463050812482834 66.277507543563843
leaf_count=115 101 124 224 179
internal_value=0 0.0022813 0 -0.00660636
internal_weight=272.333 230.368 184.544 147.741
internal_count=743 628 504 403
is_linear=0
shrinkage=0.0552008


Tree=31
num_leaves=3
num_cat=0
split_feature=39 42
split_gain=3.63683 1.32918
threshold=1.011986124795164 10.000000000000002
decision_type=2 2
left_child=-1 -2
right_child=1 -3
leaf_value=0.013830732219190312 -0.011492854276482545 0
leaf_weight=43.308764770627022 51.838483616709709 60.760654658079147
leaf_count=187 257 299
internal_value=0 -0.00498409
internal_weight=155.908 112.599
internal_count=743 556
is_linear=0
shrinkage=0.0552008


Tree=32
num_leaves=6
num_cat=0
split_feature=2 19 19 7 4
split_gain=3.03952 4.39405 3.12173 5.11398 1.50976
threshold=2932.8150000000005 0.013973952962461971 0.027092110052840106 0.98651596980924905 3202.3292500000002
decision_type=2 2 2 2 2
left_child=2 -2 3 -1 -3
right_child=1 4 -4 -5 -6
leaf_value=0.028007846428571098 0.0010968164311480862 -0.018507465078174634 0 0 0
leaf_weight=38.449450671672821 37.654311686754227 64.633180528879166 44.809152066707611 45.051094383001328 34.369163691997528
leaf_count=104 105 185 124 124 101
internal_value=0 -0.00554028 0.00628417 0.0132136 -0.0133098
internal_weight=264.966 136.657 128.31 83.5005 99.0023
internal_count=743 391 352 228 286
is_linear=0
shrinkage=0.0552008


Tree=33
num_leaves=5
num_cat=0
split_feature=35 30 7 8
split_gain=2.84652 5.19409 4.2579 1.5504
threshold=0.033136228578744494 -9738747.8965000194 0.96568333025490383 2159.1088905315687
decision_type=2 2 2 2
left_child=1 2 -1 -4
right_child=-2 -3 3 -5
leaf_value=0 0.0095624198625686978 0.004278705084553659 0 -0.031061079256157222
leaf_weight=58.435715943574905 67.308428108692169 68.100687354803085 42.210139453411102 36.066326022148132
leaf_count=160 182 183 117 101
internal_value=0 -0.00350692 -0.0111836 -0.0196008
internal_weight=272.121 204.813 136.712 78.2765
internal_count=743 561 378 218
is_linear=0
shrinkage=0.0552008


Tree=34
num_leaves=4
num_cat=0
split_feature=45 0 1
split_gain=1.44839 4.04699 2.65794
threshold=2915.9527046172775 3106.8180000000007 1.002900025777232
decision_type=2 2 2
left_child=2 -2 -1
right_child=1 -3 -4
leaf_value=-0.015965523717376168 0.017166568206571323 0 0
leaf_weight=40.890018746256828 48.934670954942703 39.243475392460823 26.874855890870094
leaf_count=210 212 188 133
internal_value=0 0.00486766 -0.00585623
internal_weight=155.943 88.1781 67.7649
internal_count=743 400 343
is_linear=0
shrinkage=0.0552008


Tree=35
num_leaves=6
num_cat=0
split_feature=8 19 20 3 18
split_gain=2.73906 4.11201 3.3887 3.36277 1.59912
threshold=2927.4427735809654 0.013973952962461971 58.315440330531821 0.98667606668838348 73.211428571428613
decision_type=2 2 2 2 2
left_child=2 -2 3 -1 -3
right_child=1 4 -4 -5 -6
leaf_value=0 0.0010173530178121703 -0.018194620618503358 0 0.022160335575330089 0
leaf_weight=39.400024712085724 37.664727240800858 63.789624482393265 35.964642077684402 51.242176055908203 36.728654205799103
leaf_count=108 105 184 100 139 107
internal_value=0 -0.00521223 0.0060225 0.0128288 -0.0127126
internal_weight=264.79 138.183 126.607 90.6422 100.518
internal_count=743 396 347 247 291
is_linear=0
shrinkage=0.0552008


Tree=36
num_leaves=5
num_cat=0
split_feature=23 6 8 46
split_gain=3.97195 7.66237 2.45689 1.15066
threshold=3252.4163914000792 2948.5019000000007 2040.5222174743492 2969.3135832963549
decision_type=2 2 2 2
left_child=1 2 -1 -3
right_child=-2 3 -4 -5
leaf_value=0 0.011999615880764071 -0.028202449323717058 0.010540995237594887 0
leaf_weight=54.136229306459427 69.569668620824814 35.750298798084259 71.909048974514008 46.272975116968155
leaf_count=150 186 100 196 127
internal_value=0 -0.00316586 0.00199904 -0.0174336
internal_weight=277.638 208.069 126.045 82.0233
internal_count=759 573 346 227
is_linear=0
shrinkage=0.0552008


Tree=37
num_leaves=5
num_cat=0
split_feature=39 3 31 22
split_gain=2.9164 1.62572 1.00034 0.38103
threshold=1.011986124795164 1.0184980730706292 -0.22219636965907735 -7.74743466615472
decision_type=2 2 2 2
left_child=-1 2 -2 -4
right_child=1 -3 3 -5
leaf_value=0.0097824931887494377 0 0 0 -0.017484761346702092
leaf_weight=45.291544839739799 27.06208510696888 21.458668723702431 20.43639662861824 44.860959589481354
leaf_count=193 133 106 103 224
internal_value=0 -0.00632417 -0.0101451 -0.0138657
internal_weight=159.11 113.818 92.3594 65.2974
internal_count=759 566 460 327
is_linear=0
shrinkage=0.0552008


Tree=38
num_leaves=7
num_cat=0
split_feature=23 6 49 30 27 24
split_gain=2.74313 4.35858 2.81197 2.13271 1.84017 0.000167702
threshold=3205.5898260495906 2978.8758000000003 -0.1891281512817754 -30369966.663000003 931442.25687500008 2769.0027868542666
decision_type=2 2 2 2 2 2
left_child=1 3 -2 -1 5 -5
right_child=2 -3 -4 4 -6 -7
leaf_value=0.011213122437688754 0 0.020280282450883522 -0.020158707591681944 0.00010787963965086796 -0.014347919136729432 0
leaf_weight=37.099686205387115 41.09378919005394 39.239430665969849 34.61912015080452 43.907102227210999 36.143999546766281 38.299911141395569
leaf_count=101 119 109 103 120 100 107
internal_value=0 0.00383155 -0.00852334 0 -0.00393624 0
internal_weight=270.403 194.69 75.7129 155.451 118.351 82.207
internal_count=759 537 222 428 327 227
is_linear=0
shrinkage=0.0552008


Tree=39
num_leaves=5
num_cat=0
split_feature=23 19 29 6
split_gain=3.56742 7.33021 5.24739 2.14519
threshold=3252.4163914000792 0.025881501051409357 0.67627468857902417 2165.6422000000002
decision_type=2 2 2 2
left_child=1 2 -1 -4
right_child=-2 -3 3 -5
leaf_value=0 0.011306821797981642 0.009725823345063854 0 -0.023609692542755502
leaf_weight=37.837472647428513 69.586155533790588 55.72809511423111 39.727666556835175 74.565093964338303
leaf_count=105 186 151 110 207
internal_value=0 -0.0030817 -0.0111868 -0.0175064
internal_weight=277.444 207.858 152.13 114.293
internal_count=759 573 422 317
is_linear=0
shrinkage=0.0552008


Tree=40
num_leaves=5
num_cat=0
split_feature=25 17 42 20
split_gain=0.563734 2.69052 0.82371 0.269229
threshold=0.099628161021278985 0.99807625570681757 14.000000000000002 48.345120349233589
decision_type=2 2 2 2
left_child=1 3 -2 -1
right_child=2 -3 -4 -5
leaf_value=0 -0.010014502518354552 0.016566289031322703 0 -0.0046539035621345351
leaf_weight=27.224708840250969 41.648595333099365 30.05590283870697 21.88239549100399 37.875792756676674
leaf_count=125 211 136 110 177
internal_value=0 0.000729413 -0.00512258 0
internal_weight=158.687 95.1564 63.531 65.1005
internal_count=759 438 321 302
is_linear=0
shrinkage=0.0552008


Tree=41
num_leaves=5
num_cat=0
split_feature=23 27 38 49
split_gain=2.42876 3.72412 3.46591 2.64771
threshold=3205.5898260495906 950010.80130000005 31.631839627592207 -0.1891281512817754
decision_type=2 2 2 2
left_child=1 2 -1 -2
right_child=3 -3 -4 -5
leaf_value=0 0 -0.0021477045503817444 0.017551324584536204 -0.019365168451195951
leaf_weight=56.425571441650391 41.008730471134186 59.721451640129089 78.657492339611053 34.321144253015518
leaf_count=156 119 165 216 103
internal_value=0 0.00365145 0.0100595 -0.00798521
internal_weight=270.134 194.805 135.083 75.3299
internal_count=759 537 372 222
is_linear=0
shrinkage=0.0552008


Tree=42
num_leaves=5
num_cat=0
split_feature=30 27 29 46
split_gain=3.29425 11.1415 2.54942 0.95045
threshold=-9738747.8965000194 935364.32505000022 0.79115760864607654 3149.4528243270856
decision_type=2 2 2 2
left_child=1 2 -1 -2
right_child=3 -3 -4 -5
leaf_value=0 0 0.0087176254339431224 -0.023767720621869118 0.014091634916896771
leaf_weight=38.242488086223602 46.282735913991928 71.6123086810112 68.81132698059082 52.05453023314476
leaf_count=107 126 194 193 139
internal_value=0 -0.00381265 -0.0170453 0.00869858
internal_weight=277.003 178.666 107.054 98.3373
internal_count=759 494 300 265
is_linear=0
shrinkage=0.0552008


Tree=43
num_leaves=4
num_cat=0
split_feature=39 3 26
split_gain=2.60428 1.53228 3.0627
threshold=1.011986124795164 1.0184980730706292 0.24383612932466875
decision_type=2 2 2
left_child=-1 2 -2
right_child=1 -3 -4
leaf_value=0.009275853855494948 0 0 -0.018406155076462923
leaf_weight=45.602188944816589 38.323205888271332 21.439064905047417 53.168525263667107
leaf_count=193 192 106 268
internal_value=0 -0.00596018 -0.00974061
internal_weight=158.533 112.931 91.4917
internal_count=759 566 460
is_linear=0
shrinkage=0.0552008


Tree=44
num_leaves=5
num_cat=0
split_feature=23 27 25 7
split_gain=2.0603 3.31004 3.85505 2.43137
threshold=3205.5898260495906 950010.80130000005 0.044328670145760481 0.98050761141365972
decision_type=2 2 2 2
left_child=1 2 -1 -2
right_child=3 -3 -4 -5
leaf_value=0 0 -0.0019374805974143627 0.01561562056010102 -0.016946964224957787
leaf_weight=38.305259048938751 34.544100105762482 59.655898183584213 97.141587287187576 40.414997041225433
leaf_count=106 101 165 266 121
internal_value=0 0.00326441 0.00938942 -0.00748429
internal_weight=270.062 195.103 135.447 74.9591
internal_count=759 537 372 222
is_linear=0
shrinkage=0.0552008


Tree=45
num_leaves=6
num_cat=0
split_feature=35 35 2 33 18
split_gain=3.51261 3.77287 1.6267 2.2666 0.598548
threshold=0.033136228578744494 0.0056428533796671907 2940.5580000000004 -126.5899999999999 55.124285714285698
decision_type=2 2 2 2 2
left_child=1 2 4 -4 -1
right_child=-2 -3 3 -5 -6
leaf_value=-0.0083237340420518127 0.011648800047386223 -0.016339122172005022 0 0.016143162800285493 0
leaf_weight=44.257767051458359 66.782803654670715 49.208852916955948 37.129203259944916 40.753313571214676 38.403972715139389
leaf_count=125 181 137 100 111 105
internal_value=0 -0.00279713 0 0.00690566 -0.00387717
internal_weight=276.536 209.753 160.544 77.8825 82.6617
internal_count=759 578 441 211 230
is_linear=0
shrinkage=0.0552008


Tree=46
num_leaves=4
num_cat=0
split_feature=39 3 31
split_gain=2.35122 1.4495 0.909851
threshold=1.011986124795164 1.0184980730706292 -0.22219636965907735
decision_type=2 2 2
left_child=-1 2 -2
right_child=1 -3 -4
leaf_value=0.008884332449714101 0 0 -0.012967406740602759
leaf_weight=45.853309839963913 26.878755122423172 21.415396213531494 63.834918186068535
leaf_count=193 133 106 327
internal_value=0 -0.00562278 -0.00936846
internal_weight=157.982 112.129 90.7137
internal_count=759 566 460
is_linear=0
shrinkage=0.0552008


Tree=47
num_leaves=6
num_cat=0
split_feature=0 27 38 17 39
split_gain=1.5468 4.35087 3.08263 0.201873 0.087588
threshold=2940.5410000000006 984903.49159999995 31.631839627592207 0.93613137022382131 1.0142176820191271
decision_type=2 2 2 2 2
left_child=1 3 -2 -1 -4
right_child=2 -3 4 -5 -6
leaf_value=0.019247589356539266 -0.015409830385980707 -0.00073010105273478045 0.0027562222697274114 0 0
leaf_weight=43.938437223434448 49.14909303188324 55.211402982473373 35.130904287099838 38.963304489850998 47.567191302776337
leaf_count=119 142 153 101 106 138
internal_value=0 0.00419888 -0.00415684 0.0137453 0
internal_weight=269.96 138.113 131.847 82.9017 82.6981
internal_count=759 378 381 225 239
is_linear=0
shrinkage=0.0552008


Tree=48
num_leaves=5
num_cat=0
split_feature=35 30 27 33
split_gain=3.27589 4.83569 6.39693 0.170275
threshold=0.033136228578744494 -9738747.8965000194 950010.80130000005 -54.890000000000093
decision_type=2 2 2 2
left_child=1 2 3 -1
right_child=-2 -3 -4 -5
leaf_value=0 0.011224000383793344 0.0048921879460742052 0 -0.025763164135256048
leaf_weight=35.524468868970871 66.812579840421677 69.474486976861954 52.336890161037445 52.199971854686737
leaf_count=100 181 187 142 149
internal_value=0 -0.00273286 -0.0102227 -0.0197242
internal_weight=276.348 209.536 140.061 87.7244
internal_count=759 578 391 249
is_linear=0
shrinkage=0.0552008


Tree=49
num_leaves=4
num_cat=0
split_feature=43 0 16
split_gain=0.961235 1.9762 0.142421
threshold=3.5000000000000004 2916.8240000000005 0.014094324990192043
decision_type=2 2 2
left_child=2 -2 -1
right_child=1 -3 -4
leaf_value=0 0 0.013031758376029063 -0.0072527228276870514
leaf_weight=39.009949877858162 29.403332456946373 40.061567291617393 49.063875406980515
leaf_count=186 150 174 249
internal_value=0 0.00335528 -0.00493725
internal_weight=157.539 69.4649 88.0738
internal_count=759 324 435
is_linear=0
shrinkage=0.0552008


Tree=50
num_leaves=5
num_cat=0
split_feature=30 27 43 27
split_gain=1.87268 6.01514 4.10449 1.55519
threshold=-10976804.732000012 950010.80130000005 3.5000000000000004 587467.3382750001
decision_type=2 2 2 2
left_child=1 2 -1 -2
right_child=3 -3 -4 -5
leaf_value=0.024061131544923592 0 -0.0035658887628863957 0 -0.011422083568299907
leaf_weight=56.0801020860672 49.406569123268127 64.512185961008072 38.488495737314224 61.263405740261078
leaf_count=152 140 179 105 183
internal_value=0 0.00392622 0.0145282 -0.0054224
internal_weight=269.751 159.081 94.5686 110.67
internal_count=759 436 257 323
is_linear=0
shrinkage=0.0552008


Tree=51
num_leaves=6
num_cat=0
split_feature=16 35 2 29 21
split_gain=3.22293 5.95761 2.0993 1.98223 1.64438
threshold=0.0094322990809299154 0.033136228578744494 2940.5580000000004 0.95185040744101179 37.877552003150122
decision_type=2 2 2 2 2
left_child=-1 2 3 -2 -4
right_child=1 -3 4 -5 -6
leaf_value=-0.012895657960119718 0 0.019840724757960167 0 -0.012982990711643794 0.013560223507695769
leaf_weight=43.874479055404663 41.096941828727722 52.526363164186478 38.336696475744247 61.774370342493057 38.256093323230743
leaf_count=122 115 142 104 172 104
internal_value=0 0.00329856 0 -0.00651967 0.00514069
internal_weight=275.865 231.99 179.464 102.871 76.5928
internal_count=759 637 495 287 208
is_linear=0
shrinkage=0.0552008


Tree=52
num_leaves=5
num_cat=0
split_feature=42 24 0 30
split_gain=0.359571 1.12074 0.290892 0.10769
threshold=14.000000000000002 2846.7781550923432 3000.5470000000009 -8338700.2785000093
decision_type=2 2 2 2
left_child=1 -1 -2 -3
right_child=2 3 -4 -5
leaf_value=-0.0092426937354791617 0.0057477533436408948 0.0032472070189898394 0 0
leaf_weight=50.571334645152092 32.591906651854515 31.119137704372406 21.743354827165604 21.497365459799767
leaf_count=262 158 135 102 102
internal_value=0 -0.00296191 0.00187186 0
internal_weight=157.523 103.188 54.3353 52.6165
internal_count=759 499 260 237
is_linear=0
shrinkage=0.0552008


Tree=53
num_leaves=5
num_cat=0
split_feature=7 2 16 16
split_gain=1.63711 2.81782 2.53114 2.57161
threshold=0.98483132074223889 2941.3250000000003 0.01049667511791434 0.015816976243406961
decision_type=2 2 2 2
left_child=1 -1 -2 -4
right_child=2 -3 3 -5
leaf_value=0.012859024797245497 0 0 -0.015811607525334434 0
leaf_weight=69.193011701107025 43.190157234668732 47.076592355966568 70.723929673433304 39.303604066371918
leaf_count=188 123 138 200 110
internal_value=0 0.00495557 -0.00373122 -0.00945959
internal_weight=269.487 116.27 153.218 110.028
internal_count=759 326 433 310
is_linear=0
shrinkage=0.0552008


Tree=54
num_leaves=5
num_cat=0
split_feature=7 7 7 29
split_gain=1.9236 2.42566 1.72642 1.01348
threshold=1.0242620292814024 0.96568333025490383 0.93934819421802807 0.84523441761807871
decision_type=2 2 2 2
left_child=1 2 -1 -3
right_child=-2 3 -4 -5
leaf_value=0 0.008511111992034066 0 0.011897428603973404 -0.013354018924738999
leaf_weight=52.632812798023224 63.48246818780899 50.917547762393951 37.163219183683395 65.844130784273148
leaf_count=143 172 142 102 184
internal_value=0 -0.0024725 0 -0.00860907
internal_weight=270.04 206.558 89.796 116.762
internal_count=743 571 245 326
is_linear=0
shrinkage=0.0552008


Tree=55
num_leaves=5
num_cat=0
split_feature=28 16 18 18
split_gain=0.431735 1.54094 1.82542 0.183671
threshold=0.8864135969531094 0.017128405078970416 43.062142857142824 61.433928571428581
decision_type=2 2 2 2
left_child=1 2 -1 -2
right_child=3 -3 -4 -5
leaf_value=0 -0.0052065914926028786 0 0.016833810700058099 0
leaf_weight=26.704917430877686 41.884124174714088 20.657113596796989 38.807265892624855 26.076542809605598
leaf_count=118 208 108 177 132
internal_value=0 0.00292999 0.0091084 -0.00291071
internal_weight=154.13 86.1693 65.5122 67.9607
internal_count=743 403 295 340
is_linear=0
shrinkage=0.0552008


Tree=56
num_leaves=6
num_cat=0
split_feature=18 38 7 30 4
split_gain=2.63845 6.48379 6.29252 1.50915 1.64731
threshold=45.304999999999957 36.933084822992733 1.0291611459403354 -12214824.085000003 3169.2737500000003
decision_type=2 2 2 2 2
left_child=1 -1 3 -2 -5
right_child=2 -3 -4 4 -6
leaf_value=0 0.0066795635162786192 0.025539492703734561 -0.025589215219558443 -0.013293757105810388 0
leaf_weight=51.594565987586975 68.800383597612381 37.743306517601013 34.132485896348953 37.053207099437714 33.949095904827118
leaf_count=143 188 103 101 106 102
internal_value=0 0.0073776 -0.00427381 0 -0.0046403
internal_weight=263.273 89.3379 173.935 139.803 71.0023
internal_count=743 246 497 396 208
is_linear=0
shrinkage=0.0552008


Tree=57
num_leaves=5
num_cat=0
split_feature=43 30 15 37
split_gain=2.04745 3.70443 2.07783 1.62289
threshold=3.5000000000000004 -10375585.352000015 0.015650635901822866 43.857050178029361
decision_type=2 2 2 2
left_child=1 2 -1 -2
right_child=3 -3 -4 -5
leaf_value=-0.0097689916603316222 -0.011575907258708345 0.014963786221053583 0.0060991990064450967 0
leaf_weight=52.034671723842621 61.879766285419464 63.324819207191467 36.703630775213242 55.851705700159073
leaf_count=147 171 171 100 154
internal_value=0 0.00436085 0 -0.00533187
internal_weight=269.795 152.063 88.7383 117.731
internal_count=743 418 247 325
is_linear=0
shrinkage=0.0552008


Tree=58
num_leaves=5
num_cat=0
split_feature=39 21 21 21
split_gain=2.10813 0.897569 0.530053 0.0219451
threshold=1.011986124795164 72.384251462429418 41.101047347192342 23.512589309481303
decision_type=2 2 2 2
left_child=-1 2 3 -2
right_child=1 -3 -4 -5
leaf_value=0.010244818508485161 -0.0017573861583336811 0 -0.012087252368056156 0
leaf_weight=45.456981584429741 21.650355234742165 22.001588836312294 41.084629833698273 24.13225245475769
leaf_count=188 111 109 212 123
internal_value=0 -0.00389608 -0.00710693 0
internal_weight=154.326 108.869 86.8672 45.7826
internal_count=743 555 446 234
is_linear=0
shrinkage=0.0552008


Tree=59
num_leaves=5
num_cat=0
split_feature=18 38 10 8
split_gain=2.35372 6.09732 3.60889 0.719058
threshold=45.304999999999957 36.933084822992733 21.611146888277293 2916.0966041936022
decision_type=2 2 2 2
left_child=1 -1 3 -2
right_child=2 -3 -4 -5
leaf_value=0 0.0039267392531753455 0.024612475729136392 -0.019637733521511529 -0.0040538084725252159
leaf_weight=51.594384700059891 70.379520058631897 37.842101633548737 35.844115734100342 67.290827870368958
leaf_count=143 192 103 108 197
internal_value=0 0.00697028 -0.00403621 0
internal_weight=262.951 89.4365 173.514 137.67
internal_count=743 246 497 389
is_linear=0
shrinkage=0.0552008


Tree=60
num_leaves=6
num_cat=0
split_feature=16 20 2 27 27
split_gain=3.24012 4.16982 1.67281 2.74538 0.873408
threshold=0.0094322990809299154 64.218223289777171 2934.2975000000006 984903.49159999995 755537.40022500011
decision_type=2 2 2 2 2
left_child=-1 2 3 -2 -4
right_child=1 -3 4 -5 -6
leaf_value=-0.013872350007877742 -0.013768770699783297 0.018772839066643142 0.010187615181215944 0 0
leaf_weight=42.295140832662582 60.204625815153122 40.970677256584167 45.383214861154556 41.673965394496918 38.915304690599442
leaf_count=118 172 111 124 113 105
internal_value=0 0.00276245 0 -0.00546996 0.00493009
internal_weight=269.443 227.148 186.177 101.879 84.2985
internal_count=743 625 514 285 229
is_linear=0
shrinkage=0.0552008


Tree=61
num_leaves=4
num_cat=0
split_feature=43 9 42
split_gain=0.9492 1.79713 0.695923
threshold=3.5000000000000004 2924.8853338193962 14.000000000000002
decision_type=2 2 2
left_child=2 -2 -1
right_child=1 -3 -4
leaf_value=-0.0076386387635239139 0 0.013040125895326195 0
leaf_weight=55.3832878023386 27.498172104358673 42.67758783698082 28.584519371390343
leaf_count=278 142 183 140
internal_value=0 0.0050381 -0.00363756
internal_weight=154.144 70.1758 83.9678
internal_count=743 325 418
is_linear=0
shrinkage=0.0552008


Tree=62
num_leaves=6
num_cat=0
split_feature=5 6 21 15 6
split_gain=1.22722 1.56978 3.91916 0.842784 0.443473
threshold=1.0238091289251752 3070.5208000000007 43.119797900039281 0.014376524699374501 2890.0576000000005
decision_type=2 2 2 2 2
left_child=1 2 -1 -3 -4
right_child=-2 3 4 -5 -6
leaf_value=0 -0.0086560579770804686 -0.0081453598993446053 0 0 0.021577967269718862
leaf_weight=67.850206732749939 44.52577206492424 39.174987733364105 37.231558948755264 34.278351247310638 39.621663838624954
leaf_count=186 130 116 101 102 108
internal_value=0 0.00135946 0.0059688 -0.000651325 0.0149153
internal_weight=262.683 218.157 144.703 73.4533 76.8532
internal_count=743 613 395 218 209
is_linear=0
shrinkage=0.0552008


Tree=63
num_leaves=6
num_cat=0
split_feature=16 30 27 16 3
split_gain=3.0019 3.79506 4.20397 5.5882 1.03471
threshold=0.0094322990809299154 -10926306.929000011 984903.49159999995 0.013892070678159152 0.99847498812443114
decision_type=2 2 2 2 2
left_child=-1 2 3 -2 -3
right_child=1 4 -4 -5 -6
leaf_value=-0.013325376556579619 0 0 0.0087394611967573609 -0.022753046276377534 0.020538852953073467
leaf_weight=42.151633679866791 42.710432410240173 41.135941207408905 54.716476380825043 49.561363071203232 38.826076000928879
leaf_count=118 120 111 148 141 105
internal_value=0 0.00270632 0 -0.00967134 0.0128609
internal_weight=269.102 226.95 146.988 92.2718 79.962
internal_count=743 625 409 261 216
is_linear=0
shrinkage=0.0552008


Tree=64
num_leaves=4
num_cat=0
split_feature=39 25 25
split_gain=1.85893 0.110807 0.0788832
threshold=1.011986124795164 0.13842240944317208 0.062643327682205943
decision_type=2 2 2
left_child=-1 2 -2
right_child=1 -3 -4
leaf_value=0.0096034165152150772 0 0 -0.0057051465287861446
leaf_weight=45.850069224834442 20.647630095481873 25.783013984560966 61.866194128990173
leaf_count=188 100 136 319
internal_value=0 -0.003641 -0.00463585
internal_weight=154.147 108.297 82.5138
internal_count=743 555 419
is_linear=0
shrinkage=0.0552008


Tree=65
num_leaves=6
num_cat=0
split_feature=18 38 11 1 0
split_gain=2.00528 5.58767 3.29991 0.296703 0.0457104
threshold=45.304999999999957 36.933084822992733 -21.847050459375513 0.99631242580049661 2943.2710000000011
decision_type=2 2 2 2 2
left_child=1 -1 4 -4 -2
right_child=2 -3 3 -5 -6
leaf_value=0 0.0017854109025485568 0.023296018966579637 0 -0.015907353705594471 0
leaf_weight=51.577156901359558 43.693344473838806 37.940975457429886 40.50515079498291 53.366815358400345 35.375224828720093
leaf_count=143 119 103 116 157 105
internal_value=0 0.00631074 -0.00383626 -0.0115857 0
internal_weight=262.459 89.5181 172.941 93.872 79.0686
internal_count=743 246 497 273 224
is_linear=0
shrinkage=0.0552008


Tree=66
num_leaves=5
num_cat=0
split_feature=47 33 0 18
split_gain=2.3769 2.64152 0.811764 0.131344
threshold=0.0093628641285848861 -12.150000000000089 2940.5410000000006 52.716428571428544
decision_type=2 2 2 2
left_child=1 2 3 -1
right_child=-2 -3 -4 -5
leaf_value=-0.0035062389010071982 0.011080338278401304 -0.010852850122449026 0.0059888858827017227 0
leaf_weight=35.485419392585754 50.210084587335587 77.48828113079071 67.95858246088028 37.505975395441055
leaf_count=102 136 218 184 103
internal_value=0 -0.00222153 0 -0.000702699
internal_weight=268.648 218.438 140.95 72.9914
internal_count=743 607 389 205
is_linear=0
shrinkage=0.0552008


Tree=67
num_leaves=6
num_cat=0
split_feature=28 27 33 28 28
split_gain=0.297947 1.98084 0.423022 0.0405939 0.120347
threshold=0.8864135969531094 884142.20947500004 -19.629999999999878 1.5824467652526877 1.1520400834945359
decision_type=2 2 2 2 2
left_child=1 2 -1 4 -2
right_child=3 -3 -4 -5 -6
leaf_value=0 0 0 0.014933881259707221 0 -0.0064817649650331394
leaf_weight=24.395340576767921 20.327212914824486 27.345747604966164 35.070301458239555 25.569720610976219 21.454627335071564
leaf_count=107 101 143 153 128 111
internal_value=0 0.00239233 0.0104811 -0.00247035 -0.00357738
internal_weight=154.163 86.8114 59.4656 67.3516 41.7818
internal_count=743 403 260 340 212
is_linear=0
shrinkage=0.0552008


Tree=68
num_leaves=6
num_cat=0
split_feature=7 16 7 38 23
split_gain=0.907489 3.12019 2.42296 1.87506 0.00365306
threshold=0.98483132074223889 0.011191475641364903 1.0256913228984359 31.931995824606183 3071.7747783602103
decision_type=2 2 2 2 2
left_child=3 -2 -3 -1 -5
right_child=1 2 -4 4 -6
leaf_value=0 0.00081820189897130902 0 -0.023431889782797796 0.01343279070053857 0
leaf_weight=37.736866235733032 48.445990920066833 64.343459010124207 33.5922572016716 38.257509589195251 39.839573860168457
leaf_count=107 138 179 100 104 115
internal_value=0 -0.00329208 -0.0106276 0.00319002 0.00939422
internal_weight=262.216 146.382 97.9357 115.834 78.0971
internal_count=743 417 279 326 219
is_linear=0
shrinkage=0.0552008


Tree=69
num_leaves=6
num_cat=0
split_feature=16 38 38 30 0
split_gain=2.75656 4.63807 4.76007 2.66176 4.13695
threshold=0.0094322990809299154 31.631839627592207 23.099095214083501 -10796269.081000006 2617.7820000000006
decision_type=2 2 2 2 2
left_child=-1 2 -2 4 -3
right_child=1 3 -4 -5 -6
leaf_value=-0.012713063444212153 0 0 0.025461313115707467 0.0062351885508393993 -0.023006514304307148
leaf_weight=41.966637402772903 36.51140084862709 64.549394905567169 46.662349104881287 42.688597619533539 36.00783172249794
leaf_count=118 100 180 128 115 102
internal_value=0 0.00267206 0.0137593 -0.000140494 -0.00801125
internal_weight=268.386 226.42 83.1737 143.246 100.557
internal_count=743 625 228 397 282
is_linear=0
shrinkage=0.0552008


Tree=70
num_leaves=5
num_cat=0
split_feature=43 30 21 21
split_gain=0.795807 1.90822 1.60073 0.901539
threshold=3.5000000000000004 -19814683.633499999 63.034580417860319 37.877552003150122
decision_type=2 2 2 2
left_child=2 -2 3 -1
right_child=1 -3 -4 -5
leaf_value=0 0 0.012274292749374364 0 -0.018050009870899435
leaf_weight=29.894096240401268 22.723070025444031 48.007989093661308 27.269648090004921 26.490743905305862
leaf_count=150 117 208 134 134
internal_value=0 0.00447811 -0.00346863 -0.0102154
internal_weight=154.386 70.7311 83.6545 56.3848
internal_count=743 325 418 284
is_linear=0
shrinkage=0.0552008


Tree=71
num_leaves=6
num_cat=0
split_feature=5 6 3 13 6
split_gain=0.900712 1.28614 3.69642 0.839315 0.664519
threshold=1.0238091289251752 3070.5208000000007 0.98856810019616326 -0.0072087660858073379 2950.3747000000008
decision_type=2 2 2 2 2
left_child=1 2 -1 -3 -4
right_child=-2 3 4 -5 -6
leaf_value=0 -0.007531189346495033 0 0 -0.0081127720373938613 0.021782045815735975
leaf_weight=49.619838804006577 43.986572474241257 34.215903967618942 58.328543335199356 38.970902949571609 36.776282012462616
leaf_count=136 130 100 159 118 100
internal_value=0 0.00107032 0.00536206 -0.000321076 0.0127351
internal_weight=261.898 217.911 144.725 73.1868 95.1048
internal_count=743 613 395 218 259
is_linear=0
shrinkage=0.0552008


Tree=72
num_leaves=6
num_cat=0
split_feature=25 14 30 38 43
split_gain=2.44638 6.75635 4.11646 3.83869 0.0276223
threshold=0.098505121563536344 0.025906785467793406 -9819836.4200000111 31.631839627592207 3.5000000000000004
decision_type=2 2 2 2 2
left_child=2 4 3 -1 -2
right_child=1 -3 -4 -5 -6
leaf_value=0 0 0.02567447520769886 0 -0.023802531623491552 -0.0015139200794588165
leaf_weight=44.827883660793304 44.426136314868927 37.353776633739471 60.694092690944672 48.816853195428848 36.722165465354919
leaf_count=127 123 101 165 140 101
internal_value=0 0.00583614 -0.00470604 -0.0130555 0
internal_weight=272.841 118.502 154.339 93.6447 81.1483
internal_count=757 325 432 267 224
is_linear=0
shrinkage=0.0552008


Tree=73
num_leaves=4
num_cat=0
split_feature=30 30 50
split_gain=0.479954 4.83264 1.30009
threshold=-12115028.948000012 -8618926.7410000209 0.2167228905997646
decision_type=2 2 2
left_child=2 -2 -1
right_child=1 -3 -4
leaf_value=0 0.019381001485136162 0 -0.0091307057885249288
leaf_weight=24.515628054738045 42.769578918814659 40.80380667746067 48.983998656272888
leaf_count=121 185 193 258
internal_value=0 0.00400435 -0.00129033
internal_weight=157.073 83.5734 73.4996
internal_count=757 378 379
is_linear=0
shrinkage=0.0552008


Tree=74
num_leaves=5
num_cat=0
split_feature=0 16 16 25
split_gain=1.67446 2.78078 2.71312 2.3779
threshold=2940.5410000000006 0.0094322990809299154 0.015816976243406961 0.11302915628130557
decision_type=2 2 2 2
left_child=3 -2 -3 -1
right_child=1 2 -4 -5
leaf_value=0.010746811783203004 0 -0.020109577881147134 0 0
leaf_weight=76.215504109859467 36.082045435905457 50.162587136030197 40.977065801620483 63.581550538539886
leaf_count=207 103 150 121 176
internal_value=0 -0.00527902 -0.0114835 0.00333709
internal_weight=267.019 127.222 91.1397 139.797
internal_count=757 374 271 383
is_linear=0
shrinkage=0.0552008


Tree=75
num_leaves=6
num_cat=0
split_feature=25 35 30 29 47
split_gain=2.14914 6.44068 3.8209 2.67908 0.00438869
threshold=0.098505121563536344 0.014248964437312829 -9819836.4200000111 0.85169658110604074 -0.021418804203509004
decision_type=2 2 2 2 2
left_child=2 4 3 -1 -2
right_child=1 -3 -4 -5 -6
leaf_value=0 0 0.024127011072627446 0 -0.021758421863855067 -0.00061196712005945298
leaf_weight=45.175404369831085 42.846101254224777 39.881778746843338 60.68423119187355 48.081843078136444 35.70687335729599
leaf_count=129 117 108 165 138 100
internal_value=0 0.00550634 -0.0043833 -0.0125124 0
internal_weight=272.376 118.435 153.941 93.2572 78.553
internal_count=757 325 432 267 217
is_linear=0
shrinkage=0.0552008


Tree=76
num_leaves=3
num_cat=0
split_feature=39 29
split_gain=2.506 1.02399
threshold=1.011986124795164 0.8070371014151706
decision_type=2 2
left_child=-1 -2
right_child=1 -3
leaf_value=0.011920608545070183 -0.012636519571175979 0
leaf_weight=46.645236760377884 25.848751619458199 84.793693229556084
leaf_count=189 136 432
internal_value=0 -0.00301767
internal_weight=157.288 110.642
internal_count=757 568
is_linear=0
shrinkage=0.0552008


Tree=77
num_leaves=5
num_cat=0
split_feature=30 27 43 25
split_gain=2.0556 3.18807 3.7859 1.48176
threshold=-10976804.732000012 950010.80130000005 3.5000000000000004 0.080324801692202755
decision_type=2 2 2 2
left_child=1 2 -1 -2
right_child=3 -3 -4 -5
leaf_value=0.019662809247584095 0 -0.00043067410622686251 0 -0.01361844201431181
leaf_weight=59.074118852615356 57.249650508165359 61.975036174058914 38.809024155139923 49.484243333339691
leaf_count=160 164 173 106 154
internal_value=0 0.00316472 0.0107463 -0.00660937
internal_weight=266.592 159.858 97.8831 106.734
internal_count=757 439 266 318
is_linear=0
shrinkage=0.0552008


Tree=78
num_leaves=6
num_cat=0
split_feature=25 10 38 38 43
split_gain=1.8623 5.48937 3.70527 0.699711 0.00943731
threshold=0.097938103091961257 7.1668710151479909 31.631839627592207 24.256341201839213 3.5000000000000004
decision_type=2 2 2 2 2
left_child=2 4 3 -1 -2
right_child=1 -3 -4 -5 -6
leaf_value=0 0 0.023083726668360161 -0.01346491866888827 0.00732256806506689 -0.00085980968491307396
leaf_weight=35.782055407762527 43.87233766913414 37.298163533210754 76.204862743616104 39.761858910322189 38.89718833565712
leaf_count=100 122 101 216 111 107
internal_value=0 0.00512084 -0.00408 0 0
internal_weight=271.816 120.068 151.749 75.5439 82.7695
internal_count=757 330 427 211 229
is_linear=0
shrinkage=0.0552008


Tree=79
num_leaves=4
num_cat=0
split_feature=39 49 31
split_gain=2.29806 0.814097 1.45886
threshold=1.011986124795164 0.53686911649630786 -0.11755557437125508
decision_type=2 2 2
left_child=-1 2 -2
right_child=1 -3 -4
leaf_value=0.011398735553303374 0 0 -0.012599227443853602
leaf_weight=46.963079497218132 35.802867472171783 25.170899748802185 49.301229134202003
leaf_count=189 180 126 262
internal_value=0 -0.00285732 -0.00630293
internal_weight=157.238 110.275 85.1041
internal_count=757 568 442
is_linear=0
shrinkage=0.0552008


Tree=80
num_leaves=5
num_cat=0
split_feature=30 28 14 25
split_gain=1.82526 2.79014 1.67223 1.34554
threshold=-10976804.732000012 0.60981201210808011 0.0050212040575405301 0.080324801692202755
decision_type=2 2 2 2
left_child=1 -1 -3 -2
right_child=3 2 -4 -5
leaf_value=-0.00071889617105838611 0 0.015540907375460541 0 -0.013041144187482373
leaf_weight=54.44894602894783 57.247338175773621 61.588298678398132 43.825794994831085 49.130520313978195
leaf_count=150 164 167 122 154
internal_value=0 0.00285808 0.00963184 -0.00632511
internal_weight=266.241 159.863 105.414 106.378
internal_count=757 439 289 318
is_linear=0
shrinkage=0.0552008


Tree=81
num_leaves=6
num_cat=0
split_feature=16 46 16 45 8
split_gain=2.10215 2.872 4.03726 2.50493 3.0224
threshold=0.0094322990809299154 2967.2416815529082 0.015782710207222845 2752.8246130423272 2040.5222174743492
decision_type=2 2 2 2 2
left_child=-1 3 -3 4 -2
right_child=1 2 -4 -5 -6
leaf_value=-0.011883288348195289 -0.001392069007667904 0.022136032862485017 0 -0.013627910522897234 0.013422063048417032
leaf_weight=38.924946069717407 52.809026598930359 44.818670630455017 43.173470795154572 40.660511374473572 51.002368658781052
leaf_count=111 150 122 118 116 140
internal_value=0 0.00197703 0.0104776 0 0.00088395
internal_weight=271.389 232.464 87.9921 144.472 103.811
internal_count=757 646 240 406 290
is_linear=0
shrinkage=0.0552008


Tree=82
num_leaves=3
num_cat=0
split_feature=39 29
split_gain=2.06981 0.944838
threshold=1.011986124795164 0.8070371014151706
decision_type=2 2
left_child=-1 -2
right_child=1 -3
leaf_value=0.010849809635748 -0.011934972756828303 0
leaf_weight=47.302318871021271 25.394598186016083 84.285589247941971
leaf_count=189 136 432
internal_value=0 -0.00259475
internal_weight=156.983 109.68
internal_count=757 568
is_linear=0
shrinkage=0.0552008


Tree=83
num_leaves=5
num_cat=0
split_feature=30 17 11 41
split_gain=1.7356 1.85367 1.03142 0.224547
threshold=-30369966.663000003 0.99807625570681757 -55.323736538087232 0.37403663523509162
decision_type=2 2 2 2
left_child=-1 3 -3 -2
right_child=1 2 -4 -5
leaf_value=0.010114450241420755 0.0035159289487113848 0 -0.011729564416393518 0
leaf_weight=36.574418634176254 55.348662525415421 35.581245809793472 75.139206171035767 63.266836792230606
leaf_count=100 155 102 222 178
internal_value=0 -0.00259706 -0.00806129 0
internal_weight=265.91 229.336 110.72 118.615
internal_count=757 657 324 333
is_linear=0
shrinkage=0.0552008


Tree=84
num_leaves=6
num_cat=0
split_feature=43 6 23 27 2
split_gain=1.68299 6.4576 5.2319 4.71708 0.182105
threshold=3.5000000000000004 2957.9380000000006 3209.3148466405714 901185.20977500011 2922.5295000000001
decision_type=2 2 2 2 2
left_child=2 -2 3 4 -1
right_child=1 -3 -4 -5 -6
leaf_value=-0.016585257417783671 0.001143426750468948 -0.019349223559962173 0.01943254266031879 0.011489751768144625 0
leaf_weight=35.526963144540787 53.0030238032341 60.656286597251892 47.581849753856659 39.052044868469238 35.366914182901382
leaf_count=104 148 170 129 106 100
internal_value=0 -0.00522412 0.00358651 0 -0.0114027
internal_weight=271.187 113.659 157.528 109.946 70.8939
internal_count=757 318 439 310 204
is_linear=0
shrinkage=0.0552008


Tree=85
num_leaves=6
num_cat=0
split_feature=43 6 6 27 42
split_gain=0.779223 2.70879 0.743851 0.150522 0.0422693
threshold=3.5000000000000004 2957.9380000000006 2952.0557000000003 853271.62342500023 10.000000000000002
decision_type=2 2 2 2 2
left_child=2 -2 3 -1 -4
right_child=1 -3 4 -5 -6
leaf_value=0.0045511169029766102 0 0.016021747244357041 -0.010679510266389107 0 0
leaf_weight=22.142465502023697 29.726086810231209 40.287702858448029 23.512182950973511 19.30301758646965 21.996207401156425
leaf_count=110 148 170 112 110 107
internal_value=0 0.005461 -0.00181471 0 -0.0074898
internal_weight=156.968 70.0138 86.9539 41.4455 45.5084
internal_count=757 318 439 220 219
is_linear=0
shrinkage=0.0552008


Tree=86
num_leaves=6
num_cat=0
split_feature=0 8 28 14 8
split_gain=1.17232 2.6929 2.08228 1.2962 0.108095
threshold=2940.5410000000006 3046.1696915801858 0.62748034275991749 0.0045193735639126884 3190.4557158885796
decision_type=2 2 2 2 2
left_child=2 -2 -1 -4 -3
right_child=1 4 3 -5 -6
leaf_value=0 -0.0152521491635089 0.0028588882624179307 0.014040303438399713 0 0
leaf_weight=46.508237510919571 46.331929415464401 40.298356503248215 57.290794372558594 35.777706414461136 39.312670052051544
leaf_count=128 132 118 155 100 124
internal_value=0 -0.00451977 0.0026758 0.00888324 0
internal_weight=265.52 125.943 139.577 93.0685 79.611
internal_count=757 374 383 255 242
is_linear=0
shrinkage=0.0552008


Tree=87
num_leaves=6
num_cat=0
split_feature=16 30 45 30 11
split_gain=1.91165 4.00182 2.90441 3.08887 1.53179
threshold=0.0094322990809299154 -10926306.929000011 2752.8246130423272 -30369966.663000003 -23.274881857457824
decision_type=2 2 2 2 2
left_child=-1 2 3 -2 -3
right_child=1 4 -4 -5 -6
leaf_value=-0.01134828480886688 -0.0052555998348634758 0 -0.0137137872155952 0.011152517821097137 0.019873498983301915
leaf_weight=38.765495985746384 35.172540634870529 36.892490059137344 47.077138811349869 68.099353700876236 44.71391761302948
leaf_count=111 100 100 135 189 122
internal_value=0 0.00189449 -0.000472165 0.000535861 0.012618
internal_weight=270.721 231.955 150.349 103.272 81.6064
internal_count=757 646 424 289 222
is_linear=0
shrinkage=0.0552008


Tree=88
num_leaves=5
num_cat=0
split_feature=43 6 6 27
split_gain=0.623596 2.38757 0.679973 0.132131
threshold=3.5000000000000004 2957.9380000000006 2952.0557000000003 853271.62342500023
decision_type=2 2 2 2
left_child=2 -2 3 -1
right_child=1 -3 -4 -5
leaf_value=0.0042537256623917143 0 0.014785129654598751 -0.0071369047852737665 0
leaf_weight=22.249969810247421 29.690917193889618 40.926195204257965 45.165197372436523 19.209161445498466
leaf_count=110 148 170 219 110
internal_value=0 0.00486521 -0.00162454 0
internal_weight=157.241 70.6171 86.6243 41.4591
internal_count=757 318 439 220
is_linear=0
shrinkage=0.0552008


Tree=89
num_leaves=5
num_cat=0
split_feature=7 25 18 35
split_gain=1.05232 3.38692 1.93225 1.83396
threshold=0.98483132074223889 0.10969607465129114 58.416071428571456 0.021898837975681377
decision_type=2 2 2 2
left_child=2 3 -1 -2
right_child=1 -3 -4 -5
leaf_value=0.012507975855069178 -0.0050515107143641203 -0.018441958705970794 0 0.0088859925846449112
leaf_weight=44.849613428115845 65.314711630344391 36.451477527618408 69.000427305698395 49.663453698158264
leaf_count=123 183 112 198 141
internal_value=0 -0.0037039 0.00314917 0
internal_weight=265.28 151.43 113.85 114.978
internal_count=757 436 321 324
is_linear=0
shrinkage=0.0552008


Tree=90
num_leaves=5
num_cat=0
split_feature=7 7 16 7
split_gain=1.4186 2.70055 1.88145 0.322606
threshold=0.99889900373941309 0.96238085813992236 0.011191475641364903 0.9362663351719902
decision_type=2 2 2 2
left_child=1 3 -2 -1
right_child=2 -3 -4 -5
leaf_value=0 0 -0.012558602269992414 0.010012717691440043 0.0051410648680536896
leaf_weight=45.610610485076904 36.090365409851074 70.128385245800018 72.053334563970566 37.191265255212784
leaf_count=125 102 201 199 103
internal_value=0 -0.00430316 0.00371285 0
internal_weight=261.074 152.93 108.144 82.8019
internal_count=730 429 301 228
is_linear=0
shrinkage=0.0552008


Tree=91
num_leaves=6
num_cat=0
split_feature=35 11 32 49 20
split_gain=0.357831 1.62704 1.3766 0.224101 0.0173147
threshold=0.025978307821645456 -17.238116589333504 -21.359999999999896 0.48179398439155902 40.49056978063328
decision_type=2 2 2 2 2
left_child=1 4 -3 -2 -1
right_child=3 2 -4 -5 -6
leaf_value=-0.0013185061254449818 -0.0063500063865259988 0.019272338079344239 0 0 0
leaf_weight=30.347421452403069 22.578458338975906 26.963048800826073 32.158426910638809 20.211804866790771 19.72543016076088
leaf_count=154 115 124 142 99 96
internal_value=0 0.00281085 0.0099221 -0.00230632 0
internal_weight=151.985 109.194 59.1215 42.7903 50.0729
internal_count=730 516 266 214 250
is_linear=0
shrinkage=0.0552008


Tree=92
num_leaves=5
num_cat=0
split_feature=7 10 18 18
split_gain=1.45163 2.94818 2.26997 0.868816
threshold=0.98741405698241358 -1.2914910123658954 58.879285714285707 45.304999999999957
decision_type=2 2 2 2
left_child=2 -2 -1 -3
right_child=1 3 -4 -5
leaf_value=0.013769817262465763 -0.01763582827709638 0.0070697117920290892 0 -0.0029132031513488133
leaf_weight=50.428418099880219 34.599890828132629 42.023605078458786 63.598559826612473 64.445748493075371
leaf_count=139 98 116 183 194
internal_value=0 -0.00355046 0.00481622 0
internal_weight=255.096 141.069 114.027 106.469
internal_count=730 408 322 310
is_linear=0
shrinkage=0.0552008


Tree=93
num_leaves=6
num_cat=0
split_feature=7 7 18 18 7
split_gain=1.24417 2.51194 1.75135 0.509833 0.323359
threshold=0.99889900373941309 0.96238085813992236 45.905714285714232 45.905714285714232 0.9362663351719902
decision_type=2 2 2 2 2
left_child=1 4 -2 -3 -1
right_child=2 3 -4 -5 -6
leaf_value=0 0 0 0.0098900915536732394 -0.018168289347114248 0.0051484373306664478
leaf_weight=45.601554214954376 40.477395594120026 34.407578259706497 67.671724408864975 35.492486447095871 37.171375572681427
leaf_count=125 115 101 186 100 103
internal_value=0 -0.00405332 0.00344399 -0.0120575 0
internal_weight=260.822 152.673 108.149 69.9001 82.7729
internal_count=730 429 301 201 228
is_linear=0
shrinkage=0.0552008


Tree=94
num_leaves=5
num_cat=0
split_feature=7 7 18 11
split_gain=0.548614 3.84932 0.599188 0.0124982
threshold=1.011966643412636 0.97481375653239311 42.968928571428556 -59.011152335411794
decision_type=2 2 2 2
left_child=1 3 -3 -1
right_child=-2 2 -4 -5
leaf_value=0 -0.003227949754023698 0 0.021253081546867329 -0.0012013835374499
leaf_weight=22.714699521660805 47.382580175995827 23.016592353582382 32.616164684295654 26.384677723050117
leaf_count=116 230 101 148 135
internal_value=0 0.0033537 0.0152317 0
internal_weight=152.115 104.732 55.6328 49.0994
internal_count=730 500 249 251
is_linear=0
shrinkage=0.0552008


Tree=95
num_leaves=5
num_cat=0
split_feature=7 18 18 17
split_gain=1.32147 2.46726 2.17524 1.65806
threshold=0.98483132074223889 58.879285714285707 39.049642857142878 0.90624627535728908
decision_type=2 2 2 2
left_child=1 -1 -2 -4
right_child=2 -3 3 -5
leaf_value=0.015095485265063017 0 0 0 -0.014374137044302848
leaf_weight=44.022954404354095 37.417573690414429 63.586860507726669 46.029350459575653 63.852662771940231
leaf_count=121 103 183 131 192
internal_value=0 0.00483336 -0.00320464 -0.00860739
internal_weight=254.909 107.61 147.3 109.882
internal_count=730 304 426 323
is_linear=0
shrinkage=0.0552008


Tree=96
num_leaves=5
num_cat=0
split_feature=30 45 0 10
split_gain=1.77004 5.48655 2.13332 0.341041
threshold=-9738747.8965000194 2752.8246130423272 2066.2640000000006 -11.547563650774576
decision_type=2 2 2 2
left_child=1 2 -1 -2
right_child=3 -3 -4 -5
leaf_value=-0.0019190462702514176 0 -0.017411271080435921 0.011946743008100854 0.0078006010356625501
leaf_weight=54.750291734933853 42.065675467252731 65.499695956707001 44.13148757815361 54.134595692157745
leaf_count=156 114 190 121 149
internal_value=0 -0.00436958 0 0.00484146
internal_weight=260.582 164.381 98.8818 96.2003
internal_count=730 467 277 263
is_linear=0
shrinkage=0.0552008


Tree=97
num_leaves=6
num_cat=0
split_feature=43 43 20 21 25
split_gain=0.379483 1.48715 0.583078 1.30415 0.133647
threshold=3.5000000000000004 5.5000000000000009 45.629375266447163 63.034580417860319 0.088937832281442752
decision_type=2 2 2 2 2
left_child=2 4 -1 -4 -2
right_child=1 -3 3 -5 -6
leaf_value=0 0.015684336617078822 0 -0.01555719803712877 0 0
leaf_weight=34.165482684969902 24.371747478842735 23.387823686003685 24.169437602162361 24.580293715000153 21.709050074219704
leaf_count=174 101 107 124 122 102
internal_value=0 0.00390063 -0.00109464 -0.00620343 0.0110124
internal_weight=152.384 69.4686 82.9152 48.7497 46.0808
internal_count=730 310 420 246 203
is_linear=0
shrinkage=0.0552008


Tree=98
num_leaves=5
num_cat=0
split_feature=30 0 43 30
split_gain=2.26495 3.3964 1.96598 1.62503
threshold=-10976804.732000012 2737.7240000000006 3.5000000000000004 -30170006.063500013
decision_type=2 2 2 2
left_child=1 3 -2 -1
right_child=2 -3 -4 -5
leaf_value=0.0079072123941808636 -0.012604999006810155 0.016647510022056285 0 -0.0064581503362078517
leaf_weight=36.695085167884827 60.841351270675659 48.978809386491776 44.319378584623337 63.710158944129944
leaf_count=101 186 134 132 177
internal_value=0 0.00464641 -0.0059127 0
internal_weight=254.545 149.384 105.161 100.405
internal_count=730 412 318 278
is_linear=0
shrinkage=0.0552008


Tree=99
num_leaves=5
num_cat=0
split_feature=43 23 16 8
split_gain=1.38499 3.87911 1.97541 0.734877
threshold=3.5000000000000004 3209.3148466405714 0.015661757498456438 2367.8219322515829
decision_type=2 2 2 2
left_child=1 3 -2 -1
right_child=2 -3 -4 -5
leaf_value=0 0 0.016574985102898745 -0.014646822305975409 -0.0067684260899211167
leaf_weight=54.882498413324356 66.529956579208374 46.188588261604309 43.67526251077652 48.878430604934692
leaf_count=154 188 126 122 140
internal_value=0 0.00240821 -0.00551388 0
internal_weight=260.155 149.95 110.205 103.761
internal_count=730 420 310 294
is_linear=0
shrinkage=0.0552008


Tree=100
num_leaves=4
num_cat=0
split_feature=39 49 36
split_gain=0.372033 0.529667 0.745239
threshold=1.011986124795164 0.53686911649630786 48.123148321250774
decision_type=2 2 2
left_child=-1 2 -2
right_child=1 -3 -4
leaf_value=0.0048642281830398679 0 0 -0.011946743159390589
leaf_weight=46.918044582009315 53.776636570692062 24.284393876791 27.381985872983932
leaf_count=183 275 122 150
internal_value=0 -0.000471908 -0.00449172
internal_weight=152.361 105.443 81.1586
internal_count=730 547 425
is_linear=0
shrinkage=0.0552008


Tree=101
num_leaves=5
num_cat=0
split_feature=7 20 2 25
split_gain=1.11739 2.67457 1.71137 0.850394
threshold=0.98483132074223889 48.452323179893021 2941.3250000000003 0.081894384593058936
decision_type=2 2 2 2
left_child=2 -2 -1 -3
right_child=1 3 -4 -5
leaf_value=0.010785543374285014 -0.015308849291006952 0.0056680816869384646 0 -0.0036377539314309216
leaf_weight=63.800093472003937 39.883324444293976 62.326880544424057 43.767423868179321 44.494551509618759
leaf_count=173 116 173 131 137
internal_value=0 -0.00285723 0.00452973 0
internal_weight=254.272 146.705 107.568 106.821
internal_count=730 426 304 310
is_linear=0
shrinkage=0.0552008


Tree=102
num_leaves=5
num_cat=0
split_feature=30 45 0 11
split_gain=1.45067 4.95046 1.95121 0.59141
threshold=-9738747.8965000194 2752.8246130423272 2066.2640000000006 -10.345817313428208
decision_type=2 2 2 2
left_child=1 2 -1 -2
right_child=3 -3 -4 -5
leaf_value=-0.0015914555453221844 0 -0.016498617982588337 0.011466024375455495 0.0079462453183445827
leaf_weight=54.622758358716965 38.648833125829697 64.958174169063568 44.170244216918945 57.405582666397095
leaf_count=156 105 190 121 158
internal_value=0 -0.00398285 0 0.00435613
internal_weight=259.806 163.751 98.793 96.0544
internal_count=730 467 277 263
is_linear=0
shrinkage=0.0552008


Tree=103
num_leaves=5
num_cat=0
split_feature=7 7 18 42
split_gain=0.462063 3.49384 0.439579 0.04898
threshold=1.011966643412636 0.97481375653239311 42.968928571428556 10.000000000000002
decision_type=2 2 2 2
left_child=1 3 -3 -1
right_child=-2 2 -4 -5
leaf_value=-0.0024619343279121209 -0.002965724353705298 0 0.019776976388092428 0
leaf_weight=24.622485309839249 47.108119249343872 23.023827329277992 33.182678923010826 24.25937457382679
leaf_count=128 230 101 148 123
internal_value=0 0.00307488 0.0143904 0
internal_weight=152.196 105.088 56.2065 48.8819
internal_count=730 500 249 251
is_linear=0
shrinkage=0.0552008


Tree=104
num_leaves=5
num_cat=0
split_feature=30 6 43 30
split_gain=1.90383 3.58798 1.80642 1.5859
threshold=-10976804.732000012 2890.0576000000005 3.5000000000000004 -30170006.063500013
decision_type=2 2 2 2
left_child=1 3 -2 -1
right_child=2 -3 -4 -5
leaf_value=0.0073301014869360196 -0.011989243130534941 0.017098012754117091 0 -0.0065664492570197547
leaf_weight=36.706403493881226 60.368455454707146 46.385890960693359 44.288494318723679 66.33049064874649
leaf_count=101 186 126 132 185
internal_value=0 0.00419368 -0.0055064 0
internal_weight=254.08 149.423 104.657 103.037
internal_count=730 412 318 286
is_linear=0
shrinkage=0.0552008


Tree=105
num_leaves=5
num_cat=0
split_feature=23 6 45 25
split_gain=0.892069 3.68074 1.24748 2.90615
threshold=3252.4163914000792 2948.5019000000007 2002.7070754753538 0.092600335855927002
decision_type=2 2 2 2
left_child=1 2 -1 -4
right_child=-2 -3 3 -5
leaf_value=-0.0018564895151867062 0.0044270706489392877 -0.012849236952544205 0 0.017330472720732269
leaf_weight=38.407264918088913 66.929270803928375 76.448834121227264 35.855328351259232 41.698084086179733
leaf_count=111 182 222 101 114
internal_value=0 -0.00270365 0 0.00687797
internal_weight=259.339 192.41 115.961 77.5534
internal_count=730 548 326 215
is_linear=0
shrinkage=0.0552008


Tree=106
num_leaves=4
num_cat=0
split_feature=10 10 50
split_gain=0.465844 2.78442 0.256497
threshold=3.0147392879966906 -24.684420473381802 0.23855209634553207
decision_type=2 2 2
left_child=1 -1 -2
right_child=2 -3 -4
leaf_value=0 0 0.014030900079855094 -0.0057221497887048282
leaf_weight=44.726731047034264 24.252884864807129 48.452372774481773 35.01773527264595
leaf_count=226 111 219 174
internal_value=0 0.00336393 -0.00248172
internal_weight=152.45 93.1791 59.2706
internal_count=730 445 285
is_linear=0
shrinkage=0.0552008


Tree=107
num_leaves=5
num_cat=0
split_feature=30 36 8 30
split_gain=1.7202 2.89783 1.7018 0.184872
threshold=-10976804.732000012 35.351536552137752 3056.0354973762701 -22055220.922000002
decision_type=2 2 2 2
left_child=1 -1 -2 -3
right_child=2 3 -4 -5
leaf_value=0.013672120234703858 -0.015107759888479658 -0.0032679031214443866 0 0
leaf_weight=60.155523091554642 35.102920979261398 52.74880063533783 69.232214450836182 36.481783717870712
leaf_count=164 102 147 216 101
internal_value=0 0.00402061 -0.00520508 0
internal_weight=253.721 149.386 104.335 89.2306
internal_count=730 412 318 248
is_linear=0
shrinkage=0.0552008


Tree=108
num_leaves=5
num_cat=0
split_feature=30 6 0 11
split_gain=1.45986 5.30313 2.63467 1.51546
threshold=-9819836.4200000111 2947.4100000000008 2066.2640000000006 -9.6086580422533867
decision_type=2 2 2 2
left_child=1 2 -1 -2
right_child=3 -3 -4 -5
leaf_value=-0.00071187861527248443 0 -0.017530476463495478 0.011565034854994214 0.012159569276278412
leaf_weight=58.60835188627243 38.241757303476334 53.376192361116409 61.130739629268646 58.458586633205414
leaf_count=168 104 159 169 161
internal_value=0 -0.00156231 0.00121912 0.00645224
internal_weight=269.816 173.115 119.739 96.7003
internal_count=761 496 337 265
is_linear=0
shrinkage=0.0552008


Tree=109
num_leaves=4
num_cat=0
split_feature=42 39 17
split_gain=1.19902 1.75274 1.23658
threshold=10.000000000000002 1.0112377535166368 0.94264734608733158
decision_type=2 2 2
left_child=1 -1 -2
right_child=2 -3 -4
leaf_value=0 0 -0.012035426748877084 0.010499869195101123
leaf_weight=25.711242124438286 34.540173500776291 54.971821770071983 43.532171487808228
leaf_count=99 163 288 211
internal_value=0 -0.00570076 0.0036347
internal_weight=158.755 80.6831 78.0723
internal_count=761 387 374
is_linear=0
shrinkage=0.0552008


Tree=110
num_leaves=6
num_cat=0
split_feature=2 8 20 3 2
split_gain=0.936519 2.82144 1.86109 3.46841 0.987161
threshold=2932.8150000000005 3046.1696915801858 59.216191909959385 0.98856810019616326 3194.6115000000004
decision_type=2 2 2 2 2
left_child=2 -2 3 -1 -3
right_child=1 4 -4 -5 -6
leaf_value=0 -0.014146906245397453 0.008011762677779562 0 0.018226082917307575 -0.0028126547677735027
leaf_weight=44.20931002497673 52.938059389591217 42.306450113654137 36.706164240837097 51.46185290813446 36.951258763670921
leaf_count=121 151 126 105 139 119
internal_value=0 -0.00388741 0.0025428 0.00825961 0
internal_weight=264.573 132.196 132.377 95.6712 79.2577
internal_count=761 396 365 260 245
is_linear=0
shrinkage=0.0552008


Tree=111
num_leaves=6
num_cat=0
split_feature=30 6 30 47 7
split_gain=1.32284 4.97759 2.23144 2.85963 1.26015
threshold=-9819836.4200000111 2947.4100000000008 -30369966.663000003 0.0025981611676315669 0.9915230540243346
decision_type=2 2 2 2 2
left_child=1 2 -1 -4 -2
right_child=4 -3 3 -5 -6
leaf_value=-0.0025592138283632372 0 -0.01701236339369077 0.01852758469473232 0 0.011881094556764962
leaf_weight=36.474159449338913 43.468102961778641 53.12709441781044 44.936815291643143 38.29007688164711 53.199011653661728
leaf_count=105 118 159 126 106 147
internal_value=0 -0.0014451 0.00112605 0.00898053 0.00616151
internal_weight=269.495 172.828 119.701 83.2269 96.6671
internal_count=761 496 337 232 265
is_linear=0
shrinkage=0.0552008


Tree=112
num_leaves=6
num_cat=0
split_feature=17 10 33 3 11
split_gain=0.120166 0.717799 2.50956 0.418267 0.716851
threshold=1.0218736555897676 -32.189758130288276 50.789999999999971 0.99479352437408852 -7.093743255266558
decision_type=2 2 2 2 2
left_child=3 -2 -3 -1 -5
right_child=1 2 -4 4 -6
leaf_value=0 0 0.018982488731782248 0 0 -0.011012107899437731
leaf_weight=28.100327149033546 27.167733356356621 27.298775419592857 19.535785779356956 24.766436129808426 31.515860065817833
leaf_count=139 140 116 100 118 148
internal_value=0 0.00020202 0.00683843 -0.00207447 -0.00539411
internal_weight=158.385 74.0023 46.8346 84.3826 56.2823
internal_count=761 356 216 405 266
is_linear=0
shrinkage=0.0552008


Tree=113
num_leaves=7
num_cat=0
split_feature=30 6 19 30 35 16
split_gain=1.35885 2.1607 1.68777 1.14372 0.8107 0.625364
threshold=-10976804.732000012 2940.3207000000007 0.015977452890796967 -30369966.663000003 0.021898837975681377 0.015640679572308559
decision_type=2 2 2 2 2 2
left_child=1 3 -2 -1 -5 -4
right_child=2 -3 5 4 -6 -7
leaf_value=0.0061073585243963027 0 0.013460924417094506 -0.017683429804654219 -0.010207655681500829 0 0
leaf_weight=38.220532774925232 41.693685829639435 41.722636163234711 32.657856792211533 43.471393436193466 34.946913838386536 31.585671290755272
leaf_count=105 119 113 105 119 100 100
internal_value=0 0.00248298 -0.00546522 0 -0.00512457 -0.0113712
internal_weight=264.299 158.361 105.937 116.639 78.4183 64.2435
internal_count=761 437 324 324 219 205
is_linear=0
shrinkage=0.0552008


Tree=114
num_leaves=6
num_cat=0
split_feature=10 25 16 16 27
split_gain=1.08564 4.11273 0.994418 1.70881 0.1679
threshold=12.621886386102007 0.087019044773755119 0.013749810221336258 0.017502087144589392 617342.84597500006
decision_type=2 2 2 2 2
left_child=2 -2 4 -4 -1
right_child=1 -3 3 -5 -6
leaf_value=0 0 0.020864994427373613 -0.011673212290596809 0 0.0036783922115751645
leaf_weight=36.774030476808548 38.744723707437515 36.06797781586647 61.455965667963028 58.356428742408752 37.810144007205963
leaf_count=108 108 100 179 160 106
internal_value=0 0.00651011 -0.000840516 -0.00514164 0
internal_weight=269.209 74.8127 194.397 119.812 74.5842
internal_count=761 208 553 339 214
is_linear=0
shrinkage=0.0552008


Tree=115
num_leaves=4
num_cat=0
split_feature=39 3 3
split_gain=0.330946 1.30453 1.12527
threshold=1.011986124795164 1.0195407989121741 0.99435185875781973
decision_type=2 2 2
left_child=-1 2 -2
right_child=1 -3 -4
leaf_value=0.0024340922162609021 0 0 -0.014444485532366696
leaf_weight=48.79913355410099 49.954792007803917 20.670399188995361 38.932196885347366
leaf_count=188 260 105 208
internal_value=0 -0.00256231 -0.00726719
internal_weight=158.357 109.557 88.887
internal_count=761 573 468
is_linear=0
shrinkage=0.0552008


Tree=116
num_leaves=6
num_cat=0
split_feature=8 8 11 8 11
split_gain=0.832102 2.50936 1.81245 0.723854 0.139188
threshold=2916.0966041936022 3046.1696915801858 -21.847050459375513 3190.4557158885796 0.84860521423997548
decision_type=2 2 2 2 2
left_child=2 -2 -1 -3 -4
right_child=1 3 4 -5 -6
leaf_value=0.01126685036548513 -0.012845750795219078 0.0073475685196191754 -0.0032597107516315039 -0.0011988325001170584 0
leaf_weight=49.888275861740112 56.791163444519043 39.81211906671524 39.913533180952072 39.151137307286263 38.336561739444733
leaf_count=136 162 118 109 127 109
internal_value=0 -0.00356484 0.0025147 0 0
internal_weight=263.893 135.754 128.138 78.9633 78.2501
internal_count=761 407 354 245 218
is_linear=0
shrinkage=0.0552008


Tree=117
num_leaves=6
num_cat=0
split_feature=30 43 45 9 30
split_gain=1.12559 4.15406 2.95165 4.77296 2.07218
threshold=-9819836.4200000111 3.5000000000000004 2752.8246130423272 2963.3574503391101 -30369966.663000003
decision_type=2 2 2 2 2
left_child=2 -2 4 -4 -1
right_child=1 -3 3 -5 -6
leaf_value=-0.0021998177308636953 0.016310034347656238 0 -0.026678161888215455 0 0.0095746031647011443
leaf_weight=36.353052347898483 59.242851108312607 37.29171296954155 33.504707336425781 35.423709511756897 67.158774465322495
leaf_count=105 163 102 103 102 186
internal_value=0 0.00566865 -0.00137865 -0.0116176 0.000422788
internal_weight=268.975 96.5346 172.44 68.9284 103.512
internal_count=761 265 496 205 291
is_linear=0
shrinkage=0.0552008


Tree=118
num_leaves=4
num_cat=0
split_feature=42 17 21
split_gain=1.06147 1.12025 0.512882
threshold=10.000000000000002 0.94264734608733158 41.692775406370785
decision_type=2 2 2
left_child=2 -2 -1
right_child=1 -3 -4
leaf_value=0 0 0.010031504117829384 -0.0090216533221785314
leaf_weight=33.147615417838097 34.290808364748955 43.772817894816399 46.758012562990189
leaf_count=160 163 211 227
internal_value=0 0.00356383 -0.00529806
internal_weight=157.969 78.0636 79.9056
internal_count=761 374 387
is_linear=0
shrinkage=0.0552008


Tree=119
num_leaves=6
num_cat=0
split_feature=0 8 20 21 24
split_gain=0.965289 3.24996 1.40167 2.88062 0.838286
threshold=2940.5410000000006 3046.1696915801858 59.216191909959385 36.440931775967471 3070.9953483116319
decision_type=2 2 2 2 2
left_child=2 -2 3 -1 -3
right_child=1 4 -4 -5 -6
leaf_value=0 -0.015970781609628584 0.0072131275656849856 0 0.016025034918695728 -0.0025109903745340208
leaf_weight=48.074303328990936 46.943878248333931 44.97651980817318 35.509448379278183 54.199667543172836 33.970716387033463
leaf_count=132 135 138 102 147 107
internal_value=0 -0.00405604 0.00251315 0.00709009 0
internal_weight=263.675 125.891 137.783 102.274 78.9472
internal_count=761 380 381 279 245
is_linear=0
shrinkage=0.0552008


Tree=120
num_leaves=6
num_cat=0
split_feature=30 6 30 11 33
split_gain=0.977182 4.28627 1.88539 1.22893 0.38032
threshold=-9819836.4200000111 2947.4100000000008 -30369966.663000003 -9.6086580422533867 36.745000000000012
decision_type=2 2 2 2 2
left_child=1 2 -1 -2 -4
right_child=3 -3 4 -5 -6
leaf_value=-0.0019164737357537343 0 -0.015886630474878378 0.012335537723117166 0.010525817635013073 0
leaf_weight=36.28128370642662 38.202462762594223 52.470813363790512 45.045518934726715 58.269219845533371 38.309277087450027
leaf_count=105 104 159 126 161 106
internal_value=0 -0.00124401 0.000837594 0.00530129 0.00826618
internal_weight=268.579 172.107 119.636 96.4717 83.3548
internal_count=761 496 337 265 232
is_linear=0
shrinkage=0.0552008


Tree=121
num_leaves=3
num_cat=0
split_feature=39 39
split_gain=0.266082 0.780773
threshold=1.011986124795164 1.0168035447776014
decision_type=2 2
left_child=-1 -2
right_child=1 -3
leaf_value=0.0022693380176864162 -0.010679330063035767 0
leaf_weight=48.865366563200951 25.761776313185692 83.10253831744194
leaf_count=188 134 439
internal_value=0 -0.00226626
internal_weight=157.73 108.864
internal_count=761 573
is_linear=0
shrinkage=0.0552008


Tree=122
num_leaves=6
num_cat=0
split_feature=30 37 19 23 16
split_gain=1.11458 1.7169 1.53471 2.11027 0.0982842
threshold=-10976804.732000012 35.629298137682518 0.015977452890796967 3370.5725940018333 0.01523822811643091
decision_type=2 2 2 2 2
left_child=1 -1 -2 -4 -3
right_child=2 4 3 -5 -6
leaf_value=0.0096011889579331634 0 -0.0026945987393989434 -0.020439284108792043 0 0
leaf_weight=65.615841209888458 41.602223873138428 41.244979590177536 32.758239254355431 30.857397317886353 51.231032282114029
leaf_count=179 119 116 104 101 142
internal_value=0 0.00227351 -0.00495092 -0.0106794 0
internal_weight=263.31 158.092 105.218 63.6156 92.476
internal_count=761 437 324 205 258
is_linear=0
shrinkage=0.0552008


Tree=123
num_leaves=5
num_cat=0
split_feature=46 2 30 38
split_gain=0.910743 3.91008 1.60718 1.08523
threshold=2967.2416815529082 2740.2595000000006 -30369966.663000003 35.845907982459714
decision_type=2 2 2 2
left_child=1 2 -1 -2
right_child=3 -3 -4 -5
leaf_value=-0.0017275228109404062 0.010400981496124482 -0.016351955530790628 0.0084423151004718242 0
leaf_weight=36.227700740098953 52.375210821628571 46.112914085388184 67.193400114774704 66.375431746244431
leaf_count=105 144 140 186 186
internal_value=0 -0.0016676 0 0.00445729
internal_weight=268.285 149.534 103.421 118.751
internal_count=761 431 291 330
is_linear=0
shrinkage=0.0552008


Tree=124
num_leaves=5
num_cat=0
split_feature=42 39 7 7
split_gain=0.95958 1.52759 1.30532 0.852663
threshold=10.000000000000002 1.0112377535166368 1.011966643412636 0.97112645821752486
decision_type=2 2 2 2
left_child=1 -1 3 -2
right_child=2 -3 -4 -5
leaf_value=0 0 -0.011124929579792109 0 0.015641301883971982
leaf_weight=25.678825229406357 24.301697567105293 53.704342067241669 23.155735015869141 30.685424759984016
leaf_count=99 125 288 116 133
internal_value=0 -0.00500939 0.00345329 0.0094488
internal_weight=157.526 79.3832 78.1429 54.9871
internal_count=761 387 374 258
is_linear=0
shrinkage=0.0552008


Tree=125
num_leaves=5
num_cat=0
split_feature=47 32 5 25
split_gain=0.714313 3.43351 0.954557 0.567385
threshold=-0.014774459080885807 -29.690000000000051 1.0238091289251752 0.048326847974085839
decision_type=2 2 2 2
left_child=-1 -2 3 -3
right_child=1 2 -4 -5
leaf_value=0.0041814962722197977 -0.014852207612483044 0 -0.0033896098056705828 0.008227387126420585
leaf_weight=68.251291304826736 51.885167151689529 37.176347076892853 44.721108078956604 60.919234544038773
leaf_count=193 154 104 138 172
internal_value=0 -0.00224717 0 0.00494093
internal_weight=262.953 194.702 142.817 98.0956
internal_count=761 568 414 276
is_linear=0
shrinkage=0.0552008


Tree=126
num_leaves=6
num_cat=0
split_feature=16 30 27 16 3
split_gain=1.70653 3.18979 2.48894 4.12209 0.102882
threshold=0.0094322990809299154 -10926306.929000011 984903.49159999995 0.013892070678159152 0.99822203076522731
decision_type=2 2 2 2 2
left_child=-1 2 3 -2 -3
right_child=1 4 -4 -5 -6
leaf_value=-0.0098491077400367326 0 0 0.0059741242710696432 -0.019513704587373035 0.017062257092643928
leaf_weight=40.086767375469208 42.258280873298645 40.404089003801346 53.588681310415268 47.878670960664749 38.966822057962418
leaf_count=117 120 110 147 145 108
internal_value=0 0.00242435 0 -0.0079322 0.0117889
internal_weight=263.183 223.097 143.726 90.137 79.3709
internal_count=747 630 412 265 218
is_linear=0
shrinkage=0.0552008


Tree=127
num_leaves=5
num_cat=0
split_feature=43 43 21 21
split_gain=0.659895 2.18406 0.715969 0.42972
threshold=3.5000000000000004 5.5000000000000009 63.034580417860319 37.877552003150122
decision_type=2 2 2 2
left_child=2 -2 3 -1
right_child=1 -3 -4 -5
leaf_value=0 0.013110089585016384 0 0 -0.012464523890434957
leaf_weight=30.318108752369881 47.820112839341164 23.297328695654869 28.208193928003311 25.343270629644394
leaf_count=154 209 107 143 134
internal_value=0 0.00468977 -0.00230756 -0.00687148
internal_weight=154.987 71.1174 83.8696 55.6614
internal_count=747 316 431 288
is_linear=0
shrinkage=0.0552008


Tree=128
num_leaves=5
num_cat=0
split_feature=30 25 15 26
split_gain=1.22236 2.41199 1.71345 1.03621
threshold=-30369966.663000003 0.079854170172790798 0.018466067067424975 0.44817581588605077
decision_type=2 2 2 2
left_child=-1 3 -3 -2
right_child=1 2 -4 -5
leaf_value=0.0079712477570520017 -0.00085107038067567273 -0.013842510241963335 0 0.0067084802436588268
leaf_weight=35.604114681482315 38.15074560046196 73.233956918120384 41.140432730317116 69.544617086648941
leaf_count=98 110 224 120 195
internal_value=0 -0.00256607 -0.00877744 0
internal_weight=257.674 222.07 114.374 107.695
internal_count=747 649 344 305
is_linear=0
shrinkage=0.0552008


Tree=129
num_leaves=5
num_cat=0
split_feature=16 0 17 0
split_gain=1.58539 2.17057 2.25521 2.98906
threshold=0.0094322990809299154 2056.0100000000007 1.1555404217865168 2942.1200000000003
decision_type=2 2 2 2
left_child=-1 -2 3 -3
right_child=1 2 -4 -5
leaf_value=-0.0094319812797986798 -0.0017177068620032906 0 0 0.018738163705261275
leaf_weight=39.973114967346191 53.450297087430954 63.540703237056732 38.188463509082794 67.528120756149292
leaf_count=117 154 181 107 188
internal_value=0 0.00239236 0.00675834 0.0105552
internal_weight=262.681 222.708 169.257 131.069
internal_count=747 630 476 369
is_linear=0
shrinkage=0.0552008


Tree=130
num_leaves=5
num_cat=0
split_feature=42 24 49 30
split_gain=0.0432533 0.249882 0.462126 0.0932365
threshold=14.000000000000002 2846.7781550923432 0.23658789072537081 -8338700.2785000093
decision_type=2 2 2 2
left_child=1 2 -1 -3
right_child=-2 3 -4 -5
leaf_value=-0.0085798969324459955 0.0015848551632150496 0.0029046538346194895 0 0
leaf_weight=29.470700174570084 52.470913350582123 33.672033652663231 18.622113674879074 20.957138195633888
leaf_count=165 246 139 96 101
internal_value=0 0 -0.00397893 0
internal_weight=155.193 102.722 48.0928 54.6292
internal_count=747 501 261 240
is_linear=0
shrinkage=0.0552008


Tree=131
num_leaves=5
num_cat=0
split_feature=18 16 13 16
split_gain=0.948503 2.90128 2.1764 0.696847
threshold=39.049642857142878 0.013892070678159152 0.0057701568015474112 0.017354645419294438
decision_type=2 2 2 2
left_child=-1 -2 3 -3
right_child=1 2 -4 -5
leaf_value=0.0050911059587880995 -0.012091988816293604 0.012598727270954192 -0.005888489662659026 0
leaf_weight=53.620358020067215 70.722120061516762 43.495158836245537 53.381512269377708 36.067140638828278
leaf_count=148 211 125 159 104
internal_value=0 -0.00271417 0 0.00775158
internal_weight=257.286 203.666 132.944 79.5623
internal_count=747 599 388 229
is_linear=0
shrinkage=0.0552008


Tree=132
num_leaves=6
num_cat=0
split_feature=43 27 30 38 25
split_gain=0.973974 2.83642 7.30172 2.1202 2.70214
threshold=3.5000000000000004 950010.80130000005 -10926306.929000011 32.791309219877611 0.11264317149593124
decision_type=2 2 2 2 2
left_child=1 2 -1 -2 -5
right_child=3 -3 -4 4 -6
leaf_value=-0.016017069096325269 0 0.016708634898541547 0.011828320103521511 -0.020051274886609582 0
leaf_weight=52.973819643259048 35.169944912195206 36.837529689073563 61.886165887117386 39.844993412494659 35.861769467592239
leaf_count=159 100 100 172 116 100
internal_value=0 0.00328971 0 -0.00345832 -0.0101415
internal_weight=262.574 151.698 114.86 110.877 75.7068
internal_count=747 431 331 316 216
is_linear=0
shrinkage=0.0552008


Tree=133
num_leaves=5
num_cat=0
split_feature=7 7 7 42
split_gain=0.0673458 2.38623 0.221981 0.0800641
threshold=0.97481375653239311 1.0092232267055397 1.0325018112060131 10.000000000000002
decision_type=2 2 2 2
left_child=3 -2 -3 -1
right_child=1 2 -4 -5
leaf_value=-0.0031357091663888072 0.011613635964177077 -0.0052648383997677605 0 0
leaf_weight=25.068382889032364 55.410874590277672 24.401252046227455 25.309253245592117 24.786559253931046
leaf_count=134 241 119 128 125
internal_value=0 0.00138851 0 -0.0002256
internal_weight=154.976 105.121 49.7105 49.8549
internal_count=747 488 247 259
is_linear=0
shrinkage=0.0552008


Tree=134
num_leaves=6
num_cat=0
split_feature=30 25 11 35 18
split_gain=1.04192 2.17377 1.72076 1.21984 0.679835
threshold=-30369966.663000003 0.079854170172790798 -55.323736538087232 -0.0024916927970382581 58.50500000000001
decision_type=2 2 2 2 2
left_child=-1 3 -3 -2 -4
right_child=1 2 4 -5 -6
leaf_value=0.0074490296915574851 -0.0012323627796379138 0 0 0.0075722760653592408 -0.01846191556414532
leaf_weight=35.583627581596375 43.891878396272659 34.160814613103867 35.164855033159256 63.660579413175583 44.414980202913284
leaf_count=98 126 99 104 179 141
internal_value=0 -0.00232895 -0.00829384 0 -0.0128142
internal_weight=256.877 221.293 113.741 107.552 79.5798
internal_count=747 649 344 305 245
is_linear=0
shrinkage=0.0552008


Tree=135
num_leaves=5
num_cat=0
split_feature=15 17 17 29
split_gain=0.575405 3.43776 3.31302 2.2291
threshold=0.011859595628005501 1.1115330147796139 0.88945954237805447 0.87011554663055246
decision_type=2 2 2 2
left_child=3 2 -2 -1
right_child=1 -3 -4 -5
leaf_value=0 0 -0.0023457530795677 0.01857704065074408 -0.012184566602575712
leaf_weight=44.357490032911301 41.819611310958862 63.342780768871307 61.413855344057083 51.006304144859314
leaf_count=128 119 179 173 148
internal_value=0 0.00241669 0.0103691 -0.00286074
internal_weight=261.94 166.576 103.233 95.3638
internal_count=747 471 292 276
is_linear=0
shrinkage=0.0552008


Tree=136
num_leaves=5
num_cat=0
split_feature=43 43 49 49
split_gain=0.528245 1.96212 0.474496 0.253843
threshold=3.5000000000000004 5.5000000000000009 0.48179398439155902 -0.43455500273831088
decision_type=2 2 2 2
left_child=2 -2 3 -1
right_child=1 -3 -4 -5
leaf_value=0 0.012203136540803097 0 0 -0.0083214264361142782
leaf_weight=24.347096219658852 48.348825231194496 23.294358789920807 21.572760283946991 37.656098991632462
leaf_count=124 209 107 110 197
internal_value=0 0.00412881 -0.00215545 -0.00543882
internal_weight=155.219 71.6432 83.576 62.0032
internal_count=747 316 431 321
is_linear=0
shrinkage=0.0552008


Tree=137
num_leaves=5
num_cat=0
split_feature=30 18 17 17
split_gain=0.982807 1.76565 1.04304 1.95528
threshold=-30369966.663000003 39.049642857142878 0.97287842094783505 1.1931995639936608
decision_type=2 2 2 2
left_child=-1 -2 -3 -4
right_child=1 2 3 -5
leaf_value=0.0072192364062035937 0.00080665922332086846 0 -0.015549050987711938 0
leaf_weight=35.559534460306168 47.794365525245667 75.922034874558449 64.632415980100632 32.555473193526268
leaf_count=98 132 219 197 101
internal_value=0 -0.00227308 -0.00612314 -0.00997413
internal_weight=256.464 220.904 173.11 97.1879
internal_count=747 649 517 298
is_linear=0
shrinkage=0.0552008


Tree=138
num_leaves=5
num_cat=0
split_feature=43 23 19 37
split_gain=0.803947 2.81774 2.0035 1.12416
threshold=3.5000000000000004 3209.3148466405714 0.023702164385646901 42.677714424509098
decision_type=2 2 2 2
left_child=1 2 -1 -2
right_child=3 -3 -4 -5
leaf_value=-0.0076391150881100723 -0.0089147541732995678 0.015013347264314253 0.0073903642938003876 0
leaf_weight=66.693301528692245 56.959737211465836 44.072661399841309 40.514443933963776 53.609220683574677
leaf_count=196 163 123 112 153
internal_value=0 0.0029854 0 -0.00315613
internal_weight=261.849 151.28 107.208 110.569
internal_count=747 431 308 316
is_linear=0
shrinkage=0.0552008


Tree=139
num_leaves=4
num_cat=0
split_feature=39 42 1
split_gain=0.631747 0.629671 0.00479032
threshold=1.011986124795164 10.000000000000002 1.0001980595027746
decision_type=2 2 2
left_child=-1 -2 -3
right_child=1 2 -4
leaf_value=0.0056264168911160668 -0.006853345264949161 0 0.00075941277960411575
leaf_weight=50.638049215078354 47.703617364168167 31.742064207792282 25.30900077521801
leaf_count=193 263 165 126
internal_value=0 -0.00175306 0
internal_weight=155.393 104.755 57.0511
internal_count=747 554 291
is_linear=0
shrinkage=0.0552008


Tree=140
num_leaves=6
num_cat=0
split_feature=30 15 17 32 25
split_gain=1.33502 1.86933 1.91067 1.67586 0.51151
threshold=-30672296.504000008 0.011859595628005501 1.1251941831411629 43.470000000000034 0.041613348868439377
decision_type=2 2 2 2 2
left_child=-1 4 3 -3 -2
right_child=1 2 -4 -5 -6
leaf_value=0.0094263700373304268 0 -0.019309306061607082 0 0 0.0052584469284096391
leaf_weight=32.612106502056122 36.524858951568604 47.724937438964844 47.803763791918755 35.06906521320343 56.366165935993195
leaf_count=90 103 139 145 108 162
internal_value=0 -0.00228808 -0.00725079 -0.0123793 0
internal_weight=256.101 223.489 130.598 82.794 92.891
internal_count=747 657 392 247 265
